{"meta":{"inputSize":5,"nodesPerLayer":128,"outputSize":6},"weightsIH":[1.7917237281799316,1.2739614248275757,0.9527183175086975,-0.5293121337890625,-1.2398141622543335,-3.988251209259033,-2.284289598464966,-0.49112972617149353,-0.8889167308807373,-1.0956711769104004,-4.8659138679504395,-0.411030650138855,0.6578594446182251,0.05331612378358841,-2.102893352508545,-3.2930798530578613,1.4958820343017578,2.2070717811584473,2.9907541275024414,1.6312274932861328,-3.1576883792877197,-1.4930893182754517,-1.1916171312332153,-0.15620870888233185,-0.34498298168182373,-3.482616901397705,-1.6150013208389282,0.5805603265762329,1.7664384841918945,0.5532301664352417,-1.618984341621399,-0.9979199171066284,5.624621868133545,0.8086856603622437,-0.17948207259178162,-0.7305727601051331,0.08478257805109024,0.4462757408618927,0.21628962457180023,-2.785012722015381,0.322405606508255,-0.032706595957279205,0.3170141875743866,-1.0717450380325317,-1.284804344177246,-1.3183473348617554,-0.3617929220199585,0.12243873625993729,0.19195859134197235,-0.18812589347362518,1.94266676902771,1.7587108612060547,0.7163614630699158,1.9466646909713745,0.9948074817657471,1.3287878036499023,1.8760892152786255,0.9950883388519287,1.1331897974014282,-0.030606931075453758,0.8892896771430969,1.8364959955215454,-0.4981573522090912,1.4420117139816284,-4.6297993659973145,1.3022273778915405,1.211581826210022,0.8105957508087158,-1.2770181894302368,-2.4208481311798096,1.192651629447937,2.034022092819214,2.410139799118042,-0.8144930601119995,-2.601651668548584,-0.09710037708282471,-0.11489632725715637,0.018453799188137054,-1.3947980403900146,-2.7909536361694336,0.22796475887298584,1.108845591545105,-7.223087310791016,3.88752818107605,-5.846027851104736,2.6800265312194824,1.411549687385559,-1.4430811405181885,-0.42167413234710693,-4.629976749420166,2.694899797439575,1.6203052997589111,-0.8799883127212524,-1.0914247035980225,-2.329711675643921,2.9894919395446777,-2.4572179317474365,-1.7828929424285889,-2.878352165222168,-2.8311080932617188,-1.6304845809936523,1.695131778717041,-1.6009809970855713,-5.227077007293701,-2.9262146949768066,0.3048160672187805,-0.13871914148330688,1.7250334024429321,-8.733650207519531,1.2586641311645508,1.7691650390625,2.752103567123413,2.246117115020752,0.5946353077888489,-0.6572234630584717,3.5601871013641357,2.7959249019622803,0.3387606143951416,-0.3389590382575989,0.007055140100419521,5.577694892883301,0.7044680714607239,-0.4189446270465851,1.210127353668213,1.1425422430038452,3.1050171852111816,1.7723718881607056,0.4925990700721741,1.1818032264709473,2.528646469116211,1.0627007484436035,0.8156276941299438,0.5193437933921814,0.6402343511581421,2.462989091873169,0.03278515860438347,-1.4339559078216553,0.3518613278865814,0.4907855689525604,1.3974380493164062,-1.8006190061569214,-3.539592742919922,1.4871103763580322,-0.09136268496513367,0.4923839569091797,-2.454022169113159,-3.241753101348877,2.1828055381774902,1.3139714002609253,4.164967060089111,-2.186213970184326,-4.183311939239502,3.97375226020813,2.12209415435791,3.0560076236724854,-0.3001199960708618,-1.441941261291504,1.1490936279296875,-0.30893629789352417,6.037093162536621,-0.18659059703350067,-0.020396508276462555,-0.09599300473928452,-0.2471722960472107,0.3649442791938782,-0.6848000884056091,-0.5946205854415894,0.07616708427667618,0.03309294208884239,0.3371257185935974,0.028926057741045952,-0.11567594856023788,0.8835989236831665,0.4577120542526245,-0.7003639340400696,0.8314407467842102,0.020899618044495583,0.25945886969566345,0.39199256896972656,-0.7622769474983215,0.3857751786708832,0.1957763284444809,0.1486676186323166,0.36619970202445984,0.39087072014808655,0.4675455093383789,0.411600798368454,0.9451121091842651,1.131255865097046,0.08893853425979614,1.8346197605133057,0.36640825867652893,1.0271339416503906,1.398716926574707,-0.006141464691609144,1.364671230316162,1.4145675897598267,1.1916742324829102,1.370032548904419,0.1454121172428131,0.768131673336029,0.3481527268886566,0.32264837622642517,0.9682877659797668,1.1885823011398315,0.6896310448646545,0.9652765989303589,0.8980154395103455,1.099798321723938,0.5185970664024353,-0.9686158895492554,-0.4240042567253113,-0.8099570274353027,-0.9172592163085938,-1.7554097175598145,-0.5157022476196289,0.16975656151771545,-0.1920480579137802,2.312786102294922,-0.8249087929725647,-1.2143993377685547,0.349754273891449,0.3028635084629059,1.5017571449279785,-2.4529905319213867,-0.9666281938552856,-0.7533682584762573,-0.5525336265563965,-0.7836524844169617,-0.27305832505226135,-1.2776196002960205,-0.8493296504020691,-0.651677131652832,-1.5962810516357422,-1.163640022277832,-0.9749210476875305,-1.077309489250183,-0.33389812707901,-0.9284544587135315,-0.746090829372406,-1.3380142450332642,-0.6812497973442078,-0.3473796248435974,-0.7954425811767578,0.0017484378768131137,-1.4753906726837158,-1.032331943511963,-0.3511054515838623,-0.9146645069122314,-0.027405107393860817,-0.4936521053314209,-0.22139208018779755,-0.05380352586507797,-0.4380190372467041,-0.3676757514476776,-0.5632986426353455,2.649522304534912,-0.601564347743988,0.05321718007326126,0.6881310939788818,-1.6695712804794312,-1.8363819122314453,0.09757529944181442,-0.769645094871521,-0.20281188189983368,-0.892968475818634,-1.0608134269714355,-0.07332386821508408,-0.8626477718353271,0.20280376076698303,-0.8170799016952515,-0.6338620185852051,0.48261362314224243,0.3107488453388214,0.7761842012405396,-0.29211288690567017,-0.9414270520210266,0.06863746047019958,-0.20954833924770355,0.24264365434646606,-0.5617149472236633,-1.039818286895752,-0.28722792863845825,-0.6472427248954773,-0.03762916103005409,-2.98919939994812,-1.2624701261520386,-0.1084405705332756,0.9222822785377502,-0.4685167670249939,-2.1455447673797607,-0.05358554795384407,-0.40315914154052734,0.07745303213596344,-2.0657846927642822,0.2467818707227707,0.27008122205734253,1.061983585357666,1.4802055358886719,0.17517545819282532,0.2637597620487213,1.6517794132232666,1.8535412549972534,2.005380868911743,-2.4476613998413086,-0.13204318284988403,1.3937989473342896,1.8533298969268799,1.8955878019332886,-1.8538967370986938,-1.3774738311767578,0.5439246296882629,0.05323591083288193,0.8601382970809937,0.9381394982337952,0.9245124459266663,1.6573541164398193,1.9200665950775146,1.7140960693359375,-0.9574624300003052,0.5563766360282898,0.07200310379266739,0.9704128503799438,1.3428623676300049,0.6141448020935059,-0.2765621244907379,-0.20742616057395935,0.5042559504508972,0.6739436388015747,0.23363441228866577,0.046020057052373886,-0.00139729178044945,0.7346798777580261,0.5789657831192017,0.5452342629432678,-0.9545316696166992,-0.739465057849884,0.04844101518392563,-0.45351776480674744,-0.3986666202545166,0.17864619195461273,-0.9911402463912964,0.2226162999868393,0.29958343505859375,0.1380084753036499,-1.4776138067245483,-1.7896509170532227,-0.2592414319515228,-0.2320001870393753,0.41051772236824036,-0.5745397210121155,-0.8974196314811707,0.11854234337806702,-0.6713950634002686,-0.8640434741973877,-0.26415708661079407,0.39181628823280334,-0.25799620151519775,-0.343528151512146,-0.13602280616760254,0.3777029514312744,0.8269269466400146,0.32186469435691833,0.43906018137931824,0.445458322763443,-0.0484173446893692,-0.49890366196632385,-0.101834736764431,-0.3288525640964508,-0.4877234697341919,0.4326991140842438,0.023355815559625626,1.0603573322296143,0.10161031782627106,0.9565488696098328,-0.14451265335083008,-0.6817396879196167,1.0500807762145996,0.4660961329936981,-0.032323207706213,-0.7393690943717957,-0.6790227293968201,0.0067142462357878685,-1.0604755878448486,-1.2309209108352661,-0.6626236438751221,-0.09856533259153366,0.42971983551979065,0.017143603414297104,0.7446653246879578,-1.1424468755722046,-0.8151255249977112,1.42198646068573,1.1450188159942627,1.650762915611267,-0.9378443956375122,-0.06825615465641022,0.9263039231300354,0.41161125898361206,1.3235074281692505,-0.2605918049812317,-0.3870304524898529,0.6108322143554688,1.2932499647140503,1.997312068939209,-0.27174705266952515,-0.05459348112344742,-0.15542908012866974,-0.022668635472655296,0.4900971055030823,0.34499359130859375,0.0988876223564148,1.3998196125030518,0.9265564680099487,0.5194038152694702,-0.24604612588882446,1.51025390625,0.3942389190196991,0.35147184133529663,1.1676197052001953,0.15925315022468567,0.39507532119750977,0.32063332200050354,0.015803316608071327,1.039198875427246,0.9431540966033936,0.7842332720756531,0.2386760264635086,0.12328507006168365,0.40605083107948303,-0.630151093006134,-0.11366383731365204,0.25651904940605164,-0.19614002108573914,1.0041701793670654,0.22712789475917816,0.2528403699398041,1.2794979810714722,0.6837687492370605,0.714323878288269,-0.421394407749176,-0.4931870996952057,-0.22865620255470276,0.3877086639404297,0.49051281809806824,-0.22363607585430145,0.6920274496078491,1.5409700870513916,0.7634497284889221,-0.35289984941482544,-0.07916045188903809,0.7872050404548645,0.41729477047920227,-0.1672375202178955,-0.09090267866849899,0.6338701844215393,1.4109867811203003,1.225458025932312,0.9576752781867981,0.4467441141605377,0.7202019095420837,0.5720453262329102,0.9331713318824768,0.2746164798736572,-0.5519234538078308,1.5982606410980225,1.4257954359054565,1.450172781944275,0.911257266998291,0.3760322332382202,-0.989946722984314,0.03783455863595009,-0.3776129186153412,-0.4109058082103729,-1.690750002861023,-1.2383854389190674,-0.08404284715652466,-0.4362275302410126,-0.6258134841918945,-1.756067156791687,-0.025931747630238533,-0.3398430645465851,-0.5588827729225159,-0.4046720266342163,-0.44885963201522827,0.508614182472229,-0.39054012298583984,-0.04674142226576805,-0.20003174245357513,0.009238673374056816,-0.6805059909820557,-0.8583757281303406,-0.4980299174785614,-0.625670313835144,-1.1549928188323975,-0.6967172026634216,-0.6714673638343811,-0.3598940074443817,-0.6749735474586487,-0.5605571269989014,-0.6010888814926147,-1.376774787902832,0.022388482466340065,0.2784048616886139,0.39542433619499207,0.907371997833252,0.052881672978401184,1.3168365955352783,0.7669959664344788,0.9760208129882812,0.3585948944091797,-0.6402278542518616,1.0431480407714844,0.007311806082725525,0.19021795690059662,-0.7616555094718933,-0.3630870282649994,-0.0912487655878067,0.016425322741270065,0.4461401104927063,-0.6610476970672607,-0.36731189489364624,0.3869762718677521,-0.45293962955474854,-0.787388265132904,0.8316779136657715,0.6025617718696594,0.6002353429794312,-0.22292469441890717,0.09991627186536789,-0.3316713869571686,0.0779867023229599,0.3992336392402649,-0.966346025466919,-1.2393943071365356,-0.6114956140518188,-0.24360020458698273,-0.2682528793811798,-1.065466284751892,-0.9253910183906555,-0.44087111949920654,-0.3475830554962158,-0.06098685786128044,-0.5030635595321655,-0.8532938361167908,-0.4690169095993042,-0.697293221950531,0.08301053196191788,-0.693824052810669,-0.4567008316516876,0.6863684058189392,-0.14718474447727203,0.8008463978767395,0.9393309950828552,0.8212915658950806,-1.1128307580947876,-0.9720572233200073,-0.6067396998405457,-0.33317434787750244,-0.7323065400123596,-0.7877293229103088,-0.7713947296142578,-0.3697792589664459,-0.4784882068634033,-0.08483058214187622,-0.3374038338661194,-0.6018592715263367,0.3961760103702545,0.6944195032119751,0.4717348515987396,-0.5327745079994202,-1.2954306602478027,1.0757921934127808,-0.05394384637475014,-0.4428589344024658,0.7575669288635254,1.3804214000701904,0.47664374113082886,2.219111919403076,1.1201833486557007,-0.258543998003006,-0.6180973649024963,-0.2686597406864166,-0.2831534743309021,-0.0652550682425499,-0.7435865998268127,-0.6035339832305908,-0.4442255198955536,-0.3328510820865631,0.35313257575035095,-0.6850454211235046,-0.637700080871582,-0.09650485962629318,-0.6277951598167419,-0.29859936237335205,-1.2385796308517456,-0.9838645458221436,-0.09605017304420471,-0.7392416000366211,-0.8919996023178101,-0.7296408414840698,-1.0033260583877563,-0.7333415746688843,-0.5244502425193787,0.1038500964641571,-1.2174874544143677,-0.3367069959640503,0.0006382692954503,0.0332273431122303,-1.0865294933319092,-1.2470840215682983,-0.02237653359770775,0.12653961777687073,-0.7158322334289551,-0.46164020895957947,0.4049016535282135,0.37224000692367554,-0.3671196401119232,-0.7049801349639893,-1.507559895515442,-0.822310745716095,-0.483073353767395,0.03817185014486313,-0.4931659400463104,-0.43913015723228455,-0.5558831095695496,-0.08020255714654922,-0.4375568926334381,-0.6138565540313721,-0.6446353197097778,-0.40349695086479187,0.50309818983078,-0.2608363926410675,0.03066493757069111,-2.041727066040039,0.012824448756873608,0.8351969718933105,0.16179107129573822,0.726578950881958,-1.3205145597457886],"weightsHO":[1.5926843881607056,-9.273515701293945,-15.433019638061523,-17.034860610961914,-4.6615376472473145,-11.16647720336914,-11.029379844665527,-1.8391153812408447,1.383002758026123,2.6860737800598145,9.395325660705566,6.199589729309082,2.360337734222412,-1.075697422027588,-7.203024864196777,-5.027518272399902,-13.923748970031738,-5.90582275390625,-5.015199184417725,-7.842840194702148,-8.50364875793457,-9.294292449951172,-10.501043319702148,-6.110877990722656,-14.051358222961426,-10.674607276916504,-7.928327560424805,-4.952890872955322,-3.283480644226074,-4.288017749786377,-6.885366439819336,-5.681865692138672,0.32934051752090454,0.45750921964645386,0.6398452520370483,0.2747670114040375,-0.44473588466644287,-2.0384998321533203,-2.8343496322631836,-2.1520352363586426,-1.9781677722930908,-2.9043526649475098,3.5165748596191406,1.1851754188537598,2.2289936542510986,0.3753986954689026,1.8272784948349,1.4497359991073608,0.6706300973892212,0.2689332664012909,-2.322639226913452,-0.2859498858451843,2.096069812774658,0.160248264670372,-1.8051526546478271,-1.732040286064148,-0.6311895847320557,0.10590415447950363,5.071423530578613,-1.9531701803207397,5.892237663269043,3.978130578994751,-0.9095766544342041,0.3226005434989929,1.8123677968978882,1.6885044574737549,2.8549087047576904,2.9873769283294678,2.543120861053467,2.737483501434326,2.3035528659820557,2.0873005390167236,1.6604918241500854,1.7470285892486572,1.770774006843567,2.261730670928955,3.210582971572876,2.4712493419647217,5.055783748626709,3.976560354232788,3.6047401428222656,1.912031888961792,2.5742619037628174,3.5377044677734375,3.4296746253967285,3.027514696121216,2.5760350227355957,3.313239097595215,1.4699628353118896,2.721409797668457,2.469628095626831,3.186368227005005,3.120912790298462,6.0024614334106445,4.0864644050598145,4.016493797302246,2.1431214809417725,3.4406380653381348,1.8242212533950806,2.2614545822143555,4.078365325927734,2.432440757751465,3.460628032684326,3.232978582382202,1.8037996292114258,4.270195484161377,4.872284889221191,3.05204176902771,1.337992548942566,2.486325263977051,4.312021732330322,2.4364635944366455,1.4799004793167114,2.922332525253296,2.4414613246917725,4.571608066558838,2.2872226238250732,2.0754482746124268,4.5603346824646,2.171307325363159,1.8167608976364136,3.9809820652008057,1.0021498203277588,3.0065436363220215,-0.44832396507263184,0.47452089190483093,1.8639249801635742,1.4828623533248901,1.8430334329605103,0.5391562581062317,3.7041428089141846,3.664017677307129,1.4501596689224243,3.8936169147491455,3.806047201156616,2.3379650115966797,2.045740842819214,2.6697049140930176,4.118184566497803,3.8948917388916016,4.067747592926025,2.5764737129211426,3.6054511070251465,1.1576783657073975,-3.6297008991241455,1.9868520498275757,3.7946150302886963,1.7460877895355225,0.30347877740859985,-4.575412273406982,2.4372806549072266,2.3775293827056885,0.3470902740955353,3.0662195682525635,-0.04621671512722969,1.3704736232757568,0.3322612941265106,1.2588560581207275,2.1493735313415527,5.715861797332764,-0.08397242426872253,0.07077047228813171,-2.5046095848083496,-1.53215491771698,0.9726542234420776,-1.3939871788024902,-2.5364577770233154,-2.191221237182617,1.2715827226638794,-0.7763023972511292,-1.457216739654541,-1.0681700706481934,-3.9625325202941895,0.45779645442962646,-0.6406742334365845,0.02430024743080139,-0.5296642184257507,-0.2062300741672516,0.591156005859375,-3.1583869457244873,0.2049233317375183,-2.4945497512817383,-1.6347622871398926,0.035947710275650024,0.5522428154945374,0.4545475244522095,-0.23792530596256256,-3.362945318222046,-2.381645679473877,-2.9444618225097656,0.010919583961367607,-4.114932060241699,-0.7057704925537109,-1.8115264177322388,-0.7458999752998352,-0.6684305667877197,-0.5667632222175598,-0.5830973386764526,-2.1613192558288574,-1.7861379384994507,0.2028026133775711,-0.33563750982284546,-1.2637633085250854,-0.3046247959136963,-1.780256748199463,-1.5996216535568237,-1.8602484464645386,-0.26630380749702454,-1.0001848936080933,0.9066686034202576,-2.1522369384765625,0.3679232597351074,1.1330277919769287,-1.6656476259231567,-1.9455944299697876,-3.074181318283081,-0.2524541914463043,-4.864634990692139,-0.28709718585014343,-0.7972201108932495,-0.19973315298557281,-0.6547382473945618,1.101579189300537,0.8215032815933228,-2.196211814880371,-1.8921823501586914,-0.8198050260543823,-0.35589471459388733,-1.1182407140731812,-1.6780554056167603,-3.3478434085845947,0.23275025188922882,-0.9634639620780945,-1.3962433338165283,-2.286530017852783,-0.8182268738746643,-0.6727357506752014,-0.281228244304657,0.8766170740127563,-0.45595619082450867,0.5926952362060547,0.9758776426315308,-0.8912354707717896,0.458200067281723,0.6163671612739563,1.0676980018615723,1.4214295148849487,1.304733395576477,2.7310714721679688,1.961743950843811,1.614206314086914,0.08790745586156845,0.018494348973035812,1.3540359735488892,-0.09419690072536469,2.4017677307128906,-0.8667314648628235,-0.6769428253173828,-0.6029419898986816,-2.371220588684082,0.8818574547767639,-1.6397290229797363,-1.4278239011764526,-0.3465006947517395,1.016484260559082,0.6936916708946228,-0.5823268890380859,-1.1367231607437134,-0.607958197593689,0.26549115777015686,2.1602699756622314,0.15493611991405487,-2.020589828491211,2.3582308292388916,0.8308455944061279,3.3504512310028076,2.5686542987823486,-1.3009003400802612,2.5554630756378174,3.5670621395111084,3.6011548042297363,3.884875774383545,4.307626724243164,4.976657867431641,4.1053290367126465,6.682757377624512,4.69718599319458,6.420143127441406,0.9408693909645081,0.9575239419937134,0.025689203292131424,0.5886286497116089,-0.42721426486968994,-1.8106261491775513,-1.0784590244293213,-0.620441198348999,-0.13209819793701172,-1.0645569562911987,1.4577785730361938,-1.0932273864746094,2.487590789794922,0.9067744612693787,0.8083439469337463,-0.05660514533519745,2.1388397216796875,1.3674747943878174,1.1815720796585083,-1.4133065938949585,0.44617947936058044,0.25337734818458557,-0.3059785068035126,1.203181505203247,1.797708511352539,2.963124990463257,1.59778892993927,3.0766093730926514,3.352001905441284,2.4667656421661377,3.754883289337158,3.5140042304992676,-4.646695613861084,-2.69472074508667,-2.9597530364990234,-2.520678997039795,-2.5091686248779297,-3.0450634956359863,-2.4785473346710205,-2.728379726409912,-1.6741056442260742,-3.0487265586853027,-3.379204034805298,-3.553853988647461,-2.074446678161621,-2.575873851776123,-4.510676860809326,-3.3802242279052734,-0.14732715487480164,-0.5876538157463074,-1.6062543392181396,-2.1735570430755615,-2.2213635444641113,-1.5131523609161377,-0.843504786491394,-1.08371102809906,-1.1106027364730835,-0.2421223372220993,-1.1158982515335083,0.41263359785079956,-2.0163207054138184,-1.0648926496505737,0.02722189389169216,1.1929166316986084,-1.704473853111267,-2.7061617374420166,-1.5323786735534668,-1.5089969635009766,-4.834388732910156,-4.38693380355835,-3.057267189025879,-1.0424193143844604,-1.3370269536972046,-3.725950241088867,-3.539346218109131,-0.20966997742652893,-0.7867565155029297,-0.777542233467102,0.23403973877429962,0.7310941815376282,0.7674788236618042,-1.6972174644470215,-1.318015217781067,0.2916835844516754,0.7978887557983398,0.5221670866012573,-0.30999794602394104,-0.11662976443767548,1.4408683776855469,0.9397642016410828,0.9965477585792542,0.019763950258493423,1.3021742105484009,2.239527463912964,2.171327829360962,2.661656379699707,-2.0382020473480225,-1.2473182678222656,-2.1085290908813477,-3.70009446144104,-2.045340061187744,-4.50831413269043,-5.126444339752197,-1.6892513036727905,0.5436311364173889,1.197426199913025,0.24283714592456818,0.4277632236480713,-1.2352877855300903,-0.4074188470840454,-0.14732186496257782,0.5472020506858826,0.00545558612793684,-2.3635358810424805,-2.8772034645080566,1.6463998556137085,1.8851898908615112,0.07321776449680328,-1.611199975013733,-3.4880738258361816,-1.134164810180664,1.319862961769104,-2.1052558422088623,-2.715918779373169,1.822778582572937,-0.8432979583740234,-2.7635819911956787,-0.4076841175556183,-0.5910966992378235,1.0831081867218018,1.1256130933761597,0.35901597142219543,-0.5163304805755615,-2.4531285762786865,-3.0839953422546387,-1.706835389137268,-0.29119041562080383,0.9944844841957092,-0.9938727021217346,1.1891095638275146,-1.2813562154769897,1.221504807472229,1.3657296895980835,0.9623152017593384,1.0341823101043701,-1.2735917568206787,-0.7998674511909485,-3.8749494552612305,0.39910227060317993,0.7939796447753906,-0.8114116787910461,1.6515727043151855,0.8643665313720703,1.1438398361206055,1.8162901401519775,0.5451104640960693,4.661993026733398,2.496063470840454,1.5586943626403809,2.715205192565918,1.0755141973495483,1.4764442443847656,0.6589553356170654,1.32564377784729,0.8709455728530884,0.9812471270561218,1.718492031097412,-0.6401163339614868,0.10026969760656357,-0.08104012906551361,1.9850480556488037,1.5689316987991333,-0.22680363059043884,-0.08033847063779831,3.500109910964966,1.3669993877410889,2.800907611846924,0.59937584400177,2.3171818256378174,0.7304502129554749,0.39105841517448425,-1.0551650524139404,-0.9450424313545227,1.1639251708984375,1.9527218341827393,0.20222529768943787,1.481869101524353,2.023756742477417,1.946276307106018,2.1262195110321045,1.1155163049697876,0.44002479314804077,-1.2104191780090332,-1.0962557792663574,-0.8217298984527588,-0.12279590219259262,-1.4831942319869995,-0.9995469450950623,1.2140591144561768,0.9173466563224792,1.8638379573822021,-0.0828246921300888,-1.42933189868927,-2.218388080596924,0.9024621844291687,1.0683059692382812,1.6135220527648926,1.7896397113800049,0.41217827796936035,-2.2932467460632324,-3.531222343444824,-1.3947384357452393,-1.421562910079956,-0.2933672070503235,-2.1914305686950684,-0.9793134331703186,0.3521084189414978,0.8628199100494385,1.4163479804992676,-1.2103101015090942,0.6505887508392334,0.17023628950119019,0.10945602506399155,2.4935412406921387,0.006069852504879236,1.8880932331085205,4.473346710205078,2.3340182304382324,0.9525200128555298,1.5060847997665405,1.12856125831604,0.556343138217926,-0.1484200656414032,1.2691313028335571,0.2657472491264343,-0.452852338552475,-1.3063862323760986,-2.17175030708313,-0.8011792302131653,-2.0514628887176514,4.280688285827637,3.3271679878234863,1.448955774307251,0.6880694031715393,0.27911701798439026,2.2856643199920654,2.8234903812408447,2.552569627761841,2.694383144378662,6.026346683502197,3.6173410415649414,2.390599250793457,1.2910488843917847,2.3054656982421875,3.622859477996826,1.3923523426055908,-0.08394181728363037,0.638637363910675,-1.1976360082626343,-0.21732820570468903,-2.3958969116210938,-2.7281417846679688,-2.160229444503784,-4.673325538635254,-4.148894786834717,-3.8254265785217285,-3.0599052906036377,-5.622496128082275,-3.9319663047790527,-1.724563717842102,-3.6780028343200684,-3.6404919624328613,-0.21452060341835022,-2.0714023113250732,0.25628796219825745,0.02886488474905491,-1.7524288892745972,-1.2463587522506714,-1.2853635549545288,-0.42404791712760925,-0.4687611758708954,0.28821906447410583,0.46034836769104004,2.577441692352295,1.7921136617660522,-0.21552340686321259,0.9854106903076172,4.616904258728027,-0.9281575679779053,0.7588983774185181,-1.0063964128494263,-0.5868905782699585,-2.158607244491577,-1.7589144706726074,-0.6773139834403992,-1.0218452215194702,-1.9212939739227295,-1.588479995727539,-0.849195122718811,-0.5182625651359558,-0.7443256974220276,-2.452056884765625,-2.715289354324341,-0.8474018573760986,-0.17860949039459229,-1.4803831577301025,-1.265222191810608,-1.295212984085083,-2.3752987384796143,-1.4326553344726562,-2.432283878326416,-0.27253037691116333,-0.5128650069236755,-1.0998774766921997,-1.6836308240890503,-1.8156672716140747,-1.1600592136383057,-2.839627265930176,0.1591172069311142,-0.27256959676742554,0.6605921387672424,0.6343111395835876,0.9921156167984009,0.5523898005485535,0.012720255181193352,0.244857519865036,0.7735590934753418,-0.4492899775505066,0.5717878937721252,0.7459853291511536,1.2632161378860474,0.915496826171875,0.6352568864822388,0.3143646717071533,0.5714967250823975,1.2447023391723633,1.4711132049560547,1.774584412574768,1.443354606628418,1.9808571338653564,0.6730204224586487,0.3689951002597809,-0.2974916696548462,1.3196879625320435,0.30681613087654114,1.4947938919067383,1.6204475164413452,0.9528968930244446,0.9570843577384949,0.7064350843429565,1.8392603397369385,2.4227607250213623,0.27631136775016785,-0.17897163331508636,-0.29894953966140747,0.4184257984161377,-0.1139770969748497,-0.390511155128479,-0.338401734828949,0.11254110187292099,-0.11616802215576172,-0.5214025378227234,-1.2078478336334229,-0.1540992707014084,0.18469813466072083,0.23851831257343292,-0.36262544989585876,-0.24681927263736725,0.44566279649734497,0.29368627071380615,-0.46503758430480957,-0.36798208951950073,-0.3261766731739044,1.3875302076339722,-0.8836818337440491,-0.044047802686691284,-0.11721828579902649,-0.7453145980834961,-0.7860597372055054,-0.6204957365989685,-0.8275976777076721,-0.7103767395019531,0.9991628527641296,-0.6445740461349487,0.18242290616035461,0.5563685297966003,0.3889589011669159,0.9142951965332031,-0.2098475992679596,-0.1013522818684578,0.6013981699943542,0.479770302772522,1.416936993598938,0.3488604724407196,0.5385907888412476,0.4608578681945801,0.549730122089386,0.7128021121025085,0.41796445846557617,0.3813919126987457,-0.1014910563826561,0.1135503500699997,-0.05569734796881676,-0.5042362809181213,0.12068448215723038,0.3614845871925354,0.23142537474632263,-0.227150097489357,0.04943355545401573,-0.28662675619125366,0.003636769251897931,-0.16357137262821198,-0.6777755618095398,-1.2182785272598267,-0.2821752429008484,-0.714167594909668,-0.7592419981956482,-0.36757954955101013,-0.1822420358657837,-0.42030608654022217,-0.24764326214790344,0.17514987289905548,-0.21536163985729218,0.04677083343267441,0.28510379791259766,0.29321929812431335,-0.5302931666374207,0.21653246879577637,-0.06755001097917557,-0.3602392077445984,0.2829473316669464,-0.5210027694702148,0.14178389310836792,-0.20059336721897125,-1.1598150730133057,-0.50464928150177,-0.6709840893745422,-0.4484550952911377,0.14126798510551453,0.3788386285305023,0.24009943008422852,-0.5954567193984985,-0.19028834998607635,-0.43777984380722046,-0.5298367738723755,-0.12086889147758484,-0.027614641934633255,0.03124399110674858,-0.1545160710811615,-0.2111523300409317,-0.10892365127801895,0.0236520878970623,0.113613061606884,0.19486990571022034,-0.3060985207557678,-0.32027530670166016,-0.18970204889774323,-0.03465006873011589,-0.033203691244125366,0.15333829820156097,0.22176913917064667,0.004680759739130735,-0.20363585650920868,-0.23652677237987518,0.11190350353717804,-0.4187939167022705,-0.6566872596740723,0.19595766067504883,0.21546030044555664,0.5984864234924316,-0.08669302612543106,0.40045255422592163,0.46723267436027527,-0.41134828329086304,0.1578337699174881,-0.020033663138747215,0.14640727639198303,0.7149959206581116,-0.15117979049682617,0.09745761007070541]}