{"meta":{"inputSize":5,"nodesPerLayer":128,"outputSize":6},"weightsIH":[3.5372517108917236,3.8016185760498047,1.5458871126174927,-3.1364352703094482,2.7962238788604736,-0.13893717527389526,-0.10214752703905106,0.29765889048576355,0.8325872421264648,0.4139835238456726,2.904898166656494,1.7518965005874634,1.8705512285232544,1.7897752523422241,0.6963662505149841,1.8780267238616943,1.3121192455291748,1.5857881307601929,1.266452670097351,0.3895901143550873,1.1189780235290527,0.6181058287620544,1.3259127140045166,0.7432996034622192,-0.4878484308719635,1.9451770782470703,0.7630438804626465,0.3814004063606262,-0.044507674872875214,0.3018053472042084,1.398478627204895,-0.2615217864513397,0.10526822507381439,-0.33431342244148254,-0.2988678216934204,1.3082939386367798,0.7621804475784302,1.2775872945785522,0.7856701612472534,0.2651216387748718,1.1955866813659668,0.7317038774490356,0.7885240316390991,1.2519911527633667,0.5809184312820435,0.7469433546066284,1.2403874397277832,1.1858303546905518,1.3213536739349365,-0.8071383237838745,0.47481244802474976,-1.5764204263687134,-1.2745534181594849,0.09573929011821747,0.5896537899971008,1.7322124242782593,0.1799541562795639,0.5451818108558655,1.5225167274475098,1.5928045511245728,1.0602586269378662,1.4782663583755493,1.7350937128067017,1.6461272239685059,-1.3616644144058228,5.037300109863281,0.06981099396944046,0.8701889514923096,0.7207883596420288,1.1305747032165527,2.1934447288513184,-2.4524850845336914,-0.9737997055053711,9.895559310913086,2.9249138832092285,1.1890196800231934,2.4608569145202637,4.092409610748291,1.0516315698623657,6.1275529861450195,1.0198829174041748,0.6332882642745972,0.09312775731086731,2.4245057106018066,1.6559901237487793,2.0483765602111816,0.3919326961040497,0.27846962213516235,1.4022982120513916,2.4606850147247314,-0.2650749087333679,1.3133360147476196,0.955675482749939,2.2614235877990723,2.0227038860321045,0.7152570486068726,1.482914924621582,1.0693702697753906,2.0615181922912598,0.20290470123291016,1.3945814371109009,0.7095810770988464,0.2858888804912567,0.40688037872314453,-0.3047771155834198,1.9541817903518677,2.1686413288116455,1.511764407157898,0.4035757780075073,-0.5894553661346436,2.4976534843444824,2.546964645385742,1.5885921716690063,0.8030182719230652,-0.30655425786972046,2.5114128589630127,1.7290444374084473,0.9452247023582458,0.7972918748855591,0.1669665426015854,3.047959327697754,1.480203628540039,0.8223135471343994,1.3632357120513916,0.1553163379430771,1.5496162176132202,1.1463006734848022,1.123666524887085,0.9656038284301758,0.021563466638326645,1.241010069847107,-0.0918857604265213,0.5560287833213806,0.8966670632362366,0.5533384680747986,1.232571005821228,-0.24181441962718964,1.1026204824447632,1.2365716695785522,1.2348060607910156,0.9018292427062988,-0.1691933274269104,0.8454172015190125,0.8337608575820923,0.8328121900558472,0.5843238830566406,-0.4069229066371918,1.0479484796524048,1.1783920526504517,0.07184255123138428,0.9416979551315308,0.3073570132255554,0.9721006751060486,0.8232242465019226,0.5646593570709229,-0.2614821493625641,-0.6643301248550415,-0.009562562219798565,-0.6314113736152649,-1.4843919277191162,0.6047361493110657,0.29377150535583496,-0.00653409119695425,0.8615743517875671,0.367026686668396,0.7149398922920227,0.424922376871109,0.22283129394054413,0.12751446664333344,0.1779593974351883,-0.009987890720367432,-0.40618494153022766,0.14945077896118164,0.030058424919843674,0.027452733367681503,-0.21338841319084167,0.1233038604259491,0.10522720962762833,0.9235163331031799,0.20394539833068848,0.4207291603088379,0.4737609922885895,0.16045251488685608,0.1557634323835373,0.4257965683937073,1.9442139863967896,0.3597206771373749,1.4598718881607056,2.0588948726654053,0.23790636658668518,1.609371542930603,0.42903009057044983,2.1546597480773926,1.5243737697601318,0.31938472390174866,1.3891953229904175,0.7405667304992676,1.3075106143951416,1.2282053232192993,0.4316529333591461,1.8223860263824463,0.8945924639701843,1.4712282419204712,1.271304965019226,0.5839011669158936,0.16834118962287903,-0.13884766399860382,-0.29210934042930603,-0.18966424465179443,-0.33648964762687683,1.0164103507995605,0.5739213228225708,0.5428012609481812,0.029126834124326706,0.2684043347835541,0.27753886580467224,0.17432299256324768,0.2058795988559723,0.16161435842514038,-0.6594623327255249,1.3544375896453857,0.6424529552459717,0.5588772892951965,0.518791139125824,1.0325199365615845,1.8251200914382935,0.6155861616134644,1.1972625255584717,0.6318873167037964,-0.23282277584075928,1.08401358127594,0.14732271432876587,0.5280683040618896,0.09852316230535507,0.3068624436855316,-0.266469806432724,-0.7286607027053833,-0.989669680595398,-0.7263771295547485,-0.30389875173568726,-0.1638498157262802,-0.7374901175498962,-0.3815988302230835,-0.827109694480896,-0.4975367784500122,-0.36349159479141235,-0.5941478610038757,-0.2178719937801361,-1.1463799476623535,-0.9256752133369446,0.1643926501274109,0.6983086466789246,-0.15206818282604218,-0.9031122326850891,-0.7940618991851807,1.2284363508224487,1.9874334335327148,0.44960376620292664,-0.014685122296214104,-0.5073224306106567,0.22958724200725555,0.5194158554077148,0.6723706126213074,-0.15924972295761108,-0.4436280429363251,-0.6051651239395142,0.16589929163455963,-0.3672832250595093,-0.43995100259780884,-0.4372476041316986,0.53460693359375,0.4489510655403137,0.28331246972084045,0.1747989058494568,-0.6156525015830994,1.337857723236084,1.5568537712097168,0.8796654939651489,0.40306153893470764,-0.9202046394348145,0.9491247534751892,0.48146122694015503,-0.20257526636123657,-0.09718988835811615,-0.2415170967578888,0.1570584923028946,-0.43218761682510376,0.021020203828811646,1.6853652000427246,3.040515422821045,2.149076223373413,0.7410822510719299,1.1520161628723145,1.8821827173233032,1.2499710321426392,1.0622276067733765,0.4337255358695984,0.4284272789955139,0.7133647799491882,1.2310446500778198,1.9563695192337036,0.856191873550415,0.9284802675247192,0.7740188241004944,2.513162136077881,2.68751859664917,0.16090962290763855,0.015231339260935783,1.5331382751464844,3.713507652282715,2.5036070346832275,1.0351626873016357,1.4101917743682861,2.1522881984710693,1.2561590671539307,1.9045984745025635,0.48882848024368286,0.7703996896743774,0.5363944172859192,3.0281002521514893,0.7753432989120483,0.2363659292459488,0.5298404693603516,0.17958395183086395,0.4375886619091034,0.5984933972358704,0.25173303484916687,0.3504124879837036,0.3945350646972656,0.26306378841400146,0.15913765132427216,-0.15876294672489166,0.3733218014240265,0.21474824845790863,0.45891043543815613,0.5181918740272522,0.20486527681350708,0.6331660747528076,0.5042715668678284,0.38143450021743774,0.7341614961624146,0.4524235129356384,0.932884931564331,0.6085242033004761,0.4446706175804138,0.48310616612434387,-0.003047185018658638,0.3705122470855713,0.2512757480144501,0.2541719675064087,0.5599518418312073,0.14059360325336456,-0.1702708601951599,0.0013581756502389908,0.2879944145679474,0.7234000563621521,0.38855889439582825,0.4633523225784302,0.6037479639053345,0.5882952809333801,0.30316612124443054,0.7298495769500732,0.5140995979309082,0.6341124176979065,0.33892664313316345,-0.1140250414609909,0.8992336988449097,0.29314643144607544,0.19287173449993134,-0.13079100847244263,1.2976385354995728,0.883033275604248,0.8500573635101318,1.0364457368850708,0.8463529944419861,0.6395153403282166,0.6441453099250793,0.5374084711074829,0.8945905566215515,0.7205825448036194,0.6625796556472778,0.4052061438560486,0.38447341322898865,0.07621070742607117,0.8611758947372437,0.4125429689884186,0.26039016246795654,0.8132767081260681,0.19948270916938782,0.4292098879814148,0.4527040123939514,0.02034660428762436,0.6628544926643372,-0.0638958290219307,0.3262147009372711,0.20235057175159454,0.13020293414592743,0.2992345690727234,-0.0754299983382225,0.14588980376720428,0.42574402689933777,0.37458744645118713,0.311294823884964,0.37104225158691406,0.46928492188453674,0.10740908235311508,0.14210909605026245,0.4680030047893524,0.2843816876411438,0.07349210977554321,0.04413028061389923,0.045625951141119,-0.05405779182910919,-0.14680388569831848,0.10955920070409775,1.057949185371399,0.9660346508026123,0.45741918683052063,0.17143744230270386,0.30137455463409424,0.5093293786048889,1.0342036485671997,0.27584877610206604,0.46514979004859924,0.3905029892921448,0.7432227730751038,0.2554231882095337,0.7749668955802917,0.42104318737983704,0.5017203092575073,0.8006379008293152,0.6896694302558899,0.8507168889045715,0.7738642692565918,0.5245084166526794,0.7098829746246338,0.4715697169303894,0.8545737862586975,0.9070736765861511,0.3836425244808197,-0.27751195430755615,-0.07257112860679626,0.4370109736919403,0.1336464285850525,-0.5710837244987488,1.2447926998138428,1.2881754636764526,0.44204795360565186,0.7656824588775635,1.3110727071762085,0.4253182113170624,0.9557554125785828,0.9678123593330383,0.7796542048454285,0.30050942301750183,1.160855770111084,0.4221900999546051,0.8854102492332458,1.0515928268432617,0.7491907477378845,0.5521822571754456,0.7688717246055603,0.6316268444061279,0.8522518277168274,0.6003029942512512,-0.1874675303697586,0.08543015271425247,0.02945627272129059,-0.25968098640441895,-0.5668456554412842,-0.26003479957580566,0.097396619617939,0.31283625960350037,0.04861166700720787,-0.7491457462310791,-0.22413738071918488,0.16106942296028137,0.2023993581533432,-0.14272058010101318,-0.3979632258415222,0.8408902287483215,0.3707684874534607,0.2698593735694885,0.2123844027519226,0.11298523843288422,0.6333178877830505,-0.08253543823957443,-0.00788754690438509,-0.1966584473848343,0.1502017378807068,0.7918994426727295,0.26426199078559875,0.7095025777816772,0.4149327278137207,0.4565606713294983,0.7143669128417969,-0.053956128656864166,0.39430880546569824,0.34824344515800476,0.3400803506374359,0.7712466716766357,-0.12968634068965912,0.30328211188316345,0.5138523578643799,0.3111781179904938,0.9272415637969971,0.11259471625089645,0.883991539478302,0.5314826965332031,0.41188159584999084,0.7264834046363831,-0.1133165955543518,1.2633929252624512,1.0837424993515015,0.5655679106712341,0.7404212355613708,0.6846423745155334,0.8962168097496033,0.7398729920387268,0.6942152976989746,0.292500376701355,0.3837045133113861,0.48785096406936646,0.6256127953529358,0.4775222837924957,0.7056677937507629,-0.08800015598535538,0.4331374764442444,0.8355176448822021,0.4887782037258148,0.8422604203224182,0.2281704694032669,0.5944415330886841,0.37103405594825745,0.47944337129592896,0.40103840827941895,0.2804175913333893,0.4230581223964691,0.4434490203857422,0.17035725712776184,-0.23917417228221893,0.0798066109418869,0.07189483940601349,-0.1270662099123001,-0.22521771490573883,0.059469595551490784,0.04395686089992523,0.06863966584205627,0.1170620322227478,0.2551548480987549,0.019772334024310112,0.07788268476724625,0.4967811405658722,0.04278694838285446,0.19172772765159607,0.1915370225906372,0.469497412443161,0.49226436018943787,0.1492258906364441,-0.11713960766792297,-0.1446089893579483,-0.17645512521266937,-0.09598011523485184,-0.2149016112089157,-0.018741926178336143,-0.17712505161762238,-0.20027408003807068,-0.14062905311584473,-0.5140867233276367,-0.23361435532569885,0.2647511065006256,0.6406498551368713,0.42188817262649536,0.613558828830719,0.33887678384780884,0.30016013979911804,0.40602561831474304,0.31010881066322327,0.17935189604759216,0.03669287636876106,0.41374465823173523,0.31913629174232483,0.3909752666950226,0.24169425666332245,-0.1032533347606659,0.5240890979766846,0.15466803312301636,0.5601740479469299,0.06831328570842743,-0.06370135396718979,0.980536162853241,0.4871005117893219,1.0986992120742798,-0.144884392619133,0.6501385569572449,0.5407542586326599,0.2562343180179596,0.75641268491745,0.37074533104896545,-0.2869229316711426,-0.09239648282527924,-0.04899737983942032,-0.016469303518533707,-0.17918376624584198,-0.09867892414331436,0.21179522573947906,-0.46913942694664,0.347844660282135,1.5114505290985107,0.7203705906867981,-0.3471109867095947,0.14746595919132233,-0.0036489267367869616,-0.03839394822716713,-0.34329426288604736,-0.11221016943454742,0.29611462354660034,0.17682984471321106,-0.4009644687175751,-0.6924476027488708,-1.1155226230621338,0.0022589906584471464,-0.5082036852836609,-1.0114644765853882,-1.0694702863693237,-0.3524620831012726,0.45804691314697266,0.13653050363063812,-0.20058289170265198,-0.4435499608516693,0.18924275040626526,0.9587783217430115,0.4213629961013794,0.13434669375419617,-0.5229473114013672,-1.3868770599365234,-0.25462356209754944,0.22013437747955322,-0.7970739603042603,-0.7065728902816772],"weightsHO":[18.262165069580078,2.6585915088653564,12.410858154296875,8.60758113861084,9.335671424865723,8.133596420288086,6.012862205505371,3.695476770401001,5.1448869705200195,2.5907981395721436,6.608831882476807,7.824243545532227,2.0899882316589355,18.226518630981445,33.66731262207031,22.261844635009766,8.2110595703125,9.422630310058594,8.417603492736816,8.127582550048828,5.708902835845947,1.644525170326233,-0.2097351998090744,0.3636193573474884,0.8971869349479675,2.9982359409332275,2.305248975753784,1.7515817880630493,2.7248775959014893,5.382125377655029,4.355893135070801,4.3409423828125,-0.33394280076026917,-1.4830015897750854,-1.2769124507904053,-2.047426462173462,-1.732785701751709,-6.307727813720703,-8.203104972839355,-5.255922317504883,-7.604118347167969,0.8617780208587646,-3.2716405391693115,-1.0793864727020264,-5.90966272354126,-6.406647682189941,-6.347144603729248,-0.7194385528564453,-1.1600877046585083,-1.5442157983779907,-3.639120101928711,-7.029320240020752,-5.3576340675354,-6.544231414794922,-5.82993221282959,-5.957393646240234,-5.5914812088012695,-9.54496955871582,-11.040204048156738,-6.1456732749938965,-10.896805763244629,-15.006144523620605,-14.38581371307373,-11.501264572143555,-2.116424083709717,-0.8113720417022705,-1.8149027824401855,-1.8813340663909912,-2.518493413925171,-1.0017184019088745,-0.8319873809814453,-1.2353826761245728,-1.1024945974349976,-0.4963913857936859,-3.319099187850952,-2.6283318996429443,-1.9792442321777344,-2.0053725242614746,-2.006398916244507,-0.9874476790428162,-1.7480347156524658,-0.04810943827033043,0.9267084002494812,-2.2514522075653076,-1.8665111064910889,-0.6928284764289856,-1.9021618366241455,-1.6106946468353271,-1.1091285943984985,-4.488638401031494,-1.0378164052963257,-2.1943986415863037,-2.351802349090576,0.5365390777587891,1.0373914241790771,-0.17169392108917236,-2.111910343170166,-1.5259356498718262,-1.9929143190383911,-2.115175247192383,-3.556980848312378,-3.098097085952759,-3.1930394172668457,-2.87855863571167,-2.5382981300354004,-2.751422643661499,-3.688471794128418,-1.4722094535827637,-0.17832353711128235,-1.8298991918563843,-2.079293966293335,-2.0683810710906982,0.43747881054878235,0.6798309087753296,-0.8466634750366211,-0.24057258665561676,0.6738084554672241,-0.10336628556251526,-0.7839950323104858,-2.613910675048828,-1.2198899984359741,-3.8644838333129883,0.23394475877285004,0.26554420590400696,1.883357048034668,0.18489143252372742,-0.2650828957557678,1.6164339780807495,2.1756021976470947,-0.2751930058002472,-0.6696579456329346,0.02166033163666725,0.07727520167827606,-0.2169494777917862,0.0007982054376043379,0.869957685470581,0.5426151752471924,1.1880446672439575,-0.590913712978363,0.5200963616371155,2.0025999546051025,-0.3245898485183716,5.740360260009766,0.8886560797691345,-2.0276339054107666,-2.037363290786743,-0.7529354095458984,0.674433708190918,0.5134457945823669,1.9389723539352417,0.7823920845985413,0.5475187301635742,-0.6406530737876892,-0.2947334945201874,-1.3313292264938354,-0.325489342212677,0.6807234287261963,0.2329428791999817,-0.9609462022781372,-0.616451621055603,-2.4023525714874268,-1.56454598903656,-1.8535171747207642,-3.61483097076416,-1.3893885612487793,-4.628533363342285,-3.918449640274048,-2.760366439819336,-4.096760272979736,-1.5626996755599976,-3.056421995162964,-1.7348746061325073,-0.07011377811431885,-3.4234559535980225,-2.270944595336914,0.8196741342544556,1.4029560089111328,0.9195511937141418,1.1861424446105957,1.1651644706726074,0.27112051844596863,0.6528622508049011,2.967231035232544,1.9461692571640015,2.9292244911193848,4.806158542633057,2.4456727504730225,3.8296096324920654,3.2102038860321045,0.6148797869682312,1.133863925933838,3.6666390895843506,-3.449829578399658,-1.690356969833374,-1.341652274131775,-0.7655653953552246,0.24547262489795685,-0.3564479947090149,-1.5257624387741089,-0.43491482734680176,-1.4489330053329468,-2.700543165206909,-1.4680447578430176,-3.5772626399993896,-1.468676209449768,-0.15282437205314636,-0.23115304112434387,-0.241612046957016,-1.1480207443237305,0.32235369086265564,-1.0461654663085938,-0.44625744223594666,-1.389815092086792,-1.1737691164016724,-2.013021945953369,0.06778845936059952,1.8786571025848389,2.4099667072296143,0.15177646279335022,1.1699597835540771,1.0289809703826904,1.1715872287750244,0.21972958743572235,0.693743884563446,0.1264735609292984,-0.7101735472679138,1.2246203422546387,0.8191360831260681,-0.5056468844413757,0.5046812295913696,-0.28906944394111633,0.9082936644554138,-1.3985340595245361,-1.0304569005966187,-0.5106967091560364,0.4269169867038727,0.2648879885673523,-1.4533090591430664,0.2055319845676422,-1.4309481382369995,-0.4353680908679962,0.13664694130420685,1.1005443334579468,0.400858074426651,-0.17397239804267883,1.0286355018615723,0.7592436671257019,-0.10509034991264343,1.3175513744354248,1.8232852220535278,-0.06165129691362381,1.7623529434204102,1.9776983261108398,0.9234084486961365,2.3816144466400146,2.456665277481079,1.8188995122909546,0.11259371042251587,-0.4538344740867615,-0.11679595708847046,-0.35300275683403015,0.4588969945907593,1.378190279006958,-2.4924776554107666,0.5040093064308167,0.8635923266410828,0.26840510964393616,0.42282286286354065,-1.2203949689865112,2.848726749420166,1.7322371006011963,1.5063226222991943,2.2975406646728516,1.2136414051055908,0.976775050163269,0.8821115493774414,1.582642912864685,0.5312063694000244,1.4365819692611694,0.9540641903877258,0.597930371761322,-0.5362256765365601,-1.215022325515747,0.884637713432312,1.9502921104431152,1.7330501079559326,2.464958906173706,-0.6152714490890503,-2.221465826034546,-1.5647547245025635,-1.0575957298278809,-0.855817973613739,-2.174816131591797,0.4243111312389374,-1.988881230354309,-3.259659767150879,-2.7207398414611816,-1.189609169960022,0.27693381905555725,-0.5094708204269409,0.12897293269634247,-0.5377938747406006,-1.4179322719573975,0.8173187375068665,1.231332778930664,2.2980263233184814,0.8749334812164307,0.1673223078250885,1.800480604171753,1.9099828004837036,0.8850410580635071,0.6566838622093201,-1.0368285179138184,1.6713571548461914,-1.2434427738189697,0.07714790850877762,2.99873423576355,1.214105486869812,-1.038284420967102,2.4945881366729736,-2.0237810611724854,-1.6801872253417969,-1.1757960319519043,-1.546371579170227,-2.0716521739959717,0.3717949092388153,-0.4049595892429352,-0.48598095774650574,0.2629767954349518,-0.04658488556742668,-0.12161526829004288,0.23500275611877441,0.3749683201313019,-0.16351129114627838,0.3387436270713806,1.1154091358184814,-1.1973607540130615,-0.34866929054260254,1.1482163667678833,-0.8017999529838562,-2.1869757175445557,-0.7275296449661255,-0.12417341768741608,0.7757323384284973,1.6155967712402344,-0.250760555267334,-1.1341254711151123,-2.805908203125,-0.35283929109573364,0.3653542697429657,0.1697014421224594,0.8310674428939819,-1.1522248983383179,-1.619208574295044,-2.6779730319976807,-1.6570409536361694,-2.793926954269409,-2.6330718994140625,0.27175426483154297,0.5249290466308594,-0.05187022686004639,-1.8737518787384033,-1.4947113990783691,-1.6801576614379883,-0.06916798651218414,-0.53285813331604,-1.3065615892410278,-0.7147128582000732,0.8305368423461914,0.5454766750335693,-0.1128809005022049,-0.07012587785720825,0.8938716053962708,1.317683458328247,1.2168177366256714,0.2535889744758606,0.6990057229995728,-2.7324674129486084,0.35418108105659485,1.1281170845031738,0.9382371306419373,0.24447545409202576,0.321630597114563,0.06870689243078232,-0.6514796018600464,1.8235524892807007,1.7975084781646729,1.8657443523406982,2.0733957290649414,2.8327176570892334,1.9412754774093628,4.05302095413208,2.4143762588500977,2.713611364364624,3.1381585597991943,2.126628875732422,4.2093682289123535,1.996161699295044,-0.2965063154697418,3.3058369159698486,0.07247553020715714,-0.6499115228652954,-0.9006026387214661,-0.2939361035823822,-0.4152359068393707,-0.9826046228408813,-0.20203542709350586,-2.528153657913208,-1.6621404886245728,-0.7030596137046814,-0.40925365686416626,-3.222012996673584,-0.6699532866477966,-3.6246514320373535,-2.131927251815796,-1.3444474935531616,-0.2226860225200653,-0.7043805122375488,-0.6311168074607849,-0.6450355648994446,-0.6876717805862427,-1.5952622890472412,-0.47631001472473145,0.005649787373840809,-0.7839562892913818,0.2855704426765442,0.39398255944252014,-0.1509219855070114,2.3799827098846436,-0.3454441428184509,0.8648788928985596,2.8853538036346436,-0.027898820117115974,0.8370596766471863,-1.3830633163452148,-2.2763373851776123,-3.6290335655212402,-1.2264138460159302,-2.9308362007141113,-2.5227270126342773,-1.5693798065185547,-1.65290105342865,-1.581979513168335,-1.7391093969345093,1.0219234228134155,0.29160889983177185,-3.2179813385009766,-2.8008248805999756,-0.6610644459724426,-0.5913138389587402,-0.011575315147638321,1.2259416580200195,0.2239818125963211,-0.29532742500305176,1.2276865243911743,0.8200177550315857,-0.04214897379279137,-0.001756192883476615,1.5602096319198608,1.3535977602005005,0.7211194038391113,0.513929545879364,-0.010257529094815254,0.11892226338386536,-1.4691609144210815,-0.3426911234855652,0.16750411689281464,-0.6744795441627502,-1.5741604566574097,-0.8779047727584839,0.4315186142921448,2.3018527030944824,0.004128811880946159,-0.23011599481105804,-0.5221341252326965,0.6853964924812317,0.2694564163684845,1.6565889120101929,2.832538604736328,0.5563802719116211,-1.4986152648925781,-0.3843762278556824,0.19864217936992645,0.18209180235862732,-0.38323935866355896,-0.4705266058444977,0.04839783534407616,1.0005645751953125,-0.7159457802772522,-0.5910309553146362,-0.6851018667221069,-0.8228686451911926,1.2868461608886719,0.6113069653511047,-0.1966921091079712,-1.858858346939087,0.551247239112854,0.39802655577659607,-1.551313877105713,-1.0741064548492432,-1.4632487297058105,-0.6555013656616211,-1.8091402053833008,-1.9000611305236816,-0.2619398832321167,-1.3156952857971191,0.18251511454582214,-0.22529038786888123,0.7782639861106873,-0.6996657252311707,-1.0919532775878906,1.4636576175689697,-1.2355643510818481,1.1521373987197876,0.42327016592025757,0.3319173753261566,1.4665107727050781,0.7633983492851257,0.8338505625724792,0.03249822556972504,1.8872207403182983,2.7276806831359863,0.2903415262699127,0.03661629185080528,-0.6040681004524231,0.39311379194259644,-3.267789125442505,0.5044665336608887,1.8732337951660156,0.7942014932632446,0.6193966269493103,-0.5025390982627869,0.5382575392723083,0.9040837287902832,2.14959979057312,-0.1320042759180069,1.644116997718811,1.2659361362457275,0.774660050868988,0.761078953742981,1.8755077123641968,0.9088419675827026,1.298323392868042,1.2834111452102661,0.690006673336029,-1.0109740495681763,-0.3714827299118042,-0.41575419902801514,-0.4649788439273834,-1.675755262374878,-2.6308300495147705,-2.1095800399780273,-1.384068250656128,-0.30070605874061584,-0.05456550791859627,0.4801638424396515,-0.9499185085296631,-0.7757566571235657,-1.3788225650787354,0.7639555931091309,0.4033799469470978,0.17454223334789276,-0.0375545509159565,-0.6714962124824524,0.7653167247772217,0.49124377965927124,-0.6937244534492493,-0.5703567266464233,0.20169749855995178,1.4391391277313232,2.705141544342041,3.2359204292297363,1.1739623546600342,0.7917391657829285,1.3496763706207275,0.6695101261138916,-0.7259424328804016,-0.9325588345527649,-0.25670886039733887,-0.5081530213356018,-2.220196485519409,-0.34200823307037354,-0.7522100806236267,-1.1551258563995361,-1.9639805555343628,-1.3842037916183472,-1.3414156436920166,-2.3429532051086426,-1.177657961845398,-1.4850622415542603,-2.2744007110595703,-0.9850842952728271,-0.42106467485427856,-0.55303955078125,-0.560671865940094,-2.5986084938049316,-1.5350782871246338,-0.8603972792625427,-2.459367513656616,-1.425488829612732,-0.7893227934837341,-1.3199530839920044,-1.6219314336776733,-0.8257317543029785,-0.8471280932426453,0.4006196856498718,-0.87159663438797,-0.6634780764579773,-0.08619574457406998,1.109889030456543,-0.2783186137676239,-0.40588265657424927,0.04620800539851189,-0.9195107221603394,-1.3551908731460571,-0.13156388700008392,-0.24407148361206055,-0.43209707736968994,0.2944639325141907,-0.1658845692873001,0.16250784695148468,0.16611553728580475,-0.44861844182014465,-0.6819285154342651,0.7305585741996765,0.5244242548942566,-0.8921957015991211,0.1634121835231781,-0.7780756950378418,-0.46643099188804626,-0.712247371673584,0.9713969826698303,0.7655242085456848,0.6571720838546753,1.1191060543060303,0.4156341552734375,1.2316310405731201,1.4946222305297852,-0.12893666326999664,1.8241326808929443,-0.22284461557865143,-0.08204255253076553,-0.3310050368309021,-0.14017345011234283,-0.23989930748939514,-0.15833067893981934,-0.1813429594039917,0.0031710222829133272,-0.22051022946834564,-0.04111805185675621,-0.07030412554740906,-0.26360633969306946,-0.35576507449150085,-0.3680514395236969,-0.4509989321231842,-0.1528058499097824,-0.2966628074645996,-0.372934490442276,-0.18836745619773865,-0.06758450716733932,-0.2839212119579315,-0.2675081193447113,-0.14182020723819733,-0.12454758584499359,-0.03448066860437393,-0.025621218606829643,-0.14031101763248444,-0.08453603088855743,-0.16398437321186066,-0.3012474775314331,-0.5495650768280029,-0.42337334156036377,0.09711584448814392,-0.32526519894599915,-0.06402859836816788,-0.23735475540161133,-0.16247576475143433,-0.14982382953166962,-0.5796960592269897,-0.3555888235569,-0.36583757400512695,-0.25937211513519287,-0.28761816024780273,-0.25947657227516174,-0.07097558677196503,-0.38118690252304077,-0.14348550140857697,-0.03839496895670891,-0.4553733766078949,-0.11881671845912933,-0.5992781519889832,-0.21693535149097443,-0.1055227667093277,0.02071726880967617,-0.20033855736255646,-0.12620946764945984,-0.10248883068561554,-0.13094496726989746,-0.44540873169898987,-0.37214115262031555,-0.18166843056678772,-0.006870113778859377,-0.014180419035255909,0.03589131683111191,-0.0038797762244939804,0.089072585105896,-0.43026548624038696,-0.3167558014392853,-0.2606685161590576,-0.011193479411303997,-0.08793126791715622,-0.480328232049942,-0.35419607162475586,-0.07198423892259598,0.17412027716636658,0.06437241286039352,-0.23601855337619781,-0.13475751876831055,0.16019904613494873,0.025783661752939224,0.06464191526174545,-0.037018805742263794,0.2206602692604065,0.05114893615245819,0.14156848192214966,-0.06542444974184036,-0.18562719225883484,-0.06456291675567627,-0.2597264349460602,0.02129942551255226,-0.19932059943675995,0.06399817019701004,-0.017172927036881447,0.322620689868927,0.22383619844913483,0.07515741139650345,-0.2104337513446808,-0.2908483147621155,-0.07651401311159134,-0.2508762776851654,-0.5424626469612122,-0.32809337973594666,-0.34160566329956055,-0.40188872814178467,-0.20563210546970367,-0.029413506388664246,0.11355872452259064,-0.32465261220932007,-0.025101684033870697,-0.06604260951280594,-0.2413729429244995,-0.10235846787691116,0.11457007378339767,-0.09197516739368439,-0.013585331849753857,-0.18955957889556885,-0.42795315384864807,-0.04493197426199913,-0.24103568494319916,-0.22590334713459015,-0.15345852077007294,-0.36892005801200867,-0.10935226827859879,-0.061251718550920486,0.09446524828672409,-0.10362939536571503,0.11284815520048141,-0.0296628475189209]}