{"meta":{"inputSize":34,"nodesPerLayer":128,"outputSize":14},"weightsIH":[-0.03308001160621643,-0.003584272461012006,-0.01813429594039917,0.014096301980316639,0.010917013511061668,-0.010752089321613312,-0.03407502546906471,-0.011939416639506817,-0.009785685688257217,-0.025790700688958168,-0.03778863698244095,-0.037686727941036224,0.037725649774074554,0.012177650816738605,-0.02938290499150753,-0.04702747240662575,-0.025843679904937744,0.028612934052944183,-0.030310621485114098,0.021443620324134827,-0.005791819654405117,-0.0348835363984108,-0.02641790546476841,0.02020486257970333,0.020054426044225693,0.02841874025762081,-0.044999390840530396,-0.025754809379577637,-0.006937606725841761,-0.030597718432545662,-0.02742965891957283,0.019154081121087074,0.028258349746465683,-0.014211843721568584,0.04734029248356819,0.04742388054728508,0.04552646726369858,0.04066488519310951,0.0012253716122359037,0.024023601785302162,-0.03380635753273964,-0.048552412539720535,0.024957913905382156,0.016743697226047516,-0.02915949746966362,-0.023994220420718193,-0.047080643475055695,0.02125297673046589,0.025458626449108124,-0.03766816481947899,-0.017987793311476707,-0.026491671800613403,-0.044431108981370926,0.0155469486489892,-0.03359982371330261,-0.006399585399776697,0.014241515658795834,-0.04358985647559166,0.016672946512699127,-0.029727082699537277,0.007208550348877907,-0.010020437650382519,-0.046903837472200394,0.03230111300945282,-0.02978435903787613,0.01747816614806652,-0.03219441697001457,-0.0013966442784294486,-0.022472035139799118,0.03696688264608383,0.017988482490181923,-0.03845873475074768,0.043378546833992004,-0.0034675654023885727,0.006488156504929066,0.04777437448501587,-0.015617773868143559,0.01341637410223484,0.04615969583392143,-0.024514375254511833,0.044644035398960114,0.04194384068250656,0.006413192022591829,-0.02620827779173851,0.04368371143937111,0.011836317367851734,-0.04286208748817444,0.049366120249032974,-0.03126420080661774,0.046084966510534286,0.048399150371551514,0.01615637168288231,0.00891030766069889,-0.00012041031732223928,-0.006227676756680012,0.0076886131428182125,0.02585592493414879,-0.0010361173190176487,0.04067862406373024,0.011622155085206032,0.04685930535197258,0.02614014968276024,-0.013057930395007133,0.04786304756999016,0.012996005825698376,0.02048513852059841,0.02342187985777855,-0.028489837422966957,0.016344549134373665,-0.004356540273874998,-0.024388257414102554,0.04146683216094971,-0.04227795824408531,-0.04798241704702377,-0.02995908074080944,0.005317315459251404,-0.010023154318332672,0.01505911722779274,0.043103840202093124,-0.04211444407701492,0.03605576977133751,-0.026652587577700615,0.038006819784641266,0.007920924574136734,0.015187726356089115,-0.03773493692278862,-0.010893656872212887,-0.031061217188835144,-0.045124899595975876,0.029158305376768112,0.03524850681424141,-0.03663139045238495,0.02315930463373661,-0.004527283366769552,0.02528860606253147,-0.0036933093797415495,0.03809429705142975,0.04989120364189148,-0.022018810734152794,0.023852158337831497,0.04813935607671738,-0.04783110320568085,-0.04278845712542534,-0.041146744042634964,0.024857159703969955,0.020600296556949615,0.033954620361328125,-0.0355662927031517,-0.034733641892671585,-0.014265854842960835,0.040769319981336594,0.04086153954267502,-0.03897310420870781,-0.009075586684048176,0.03253229334950447,0.039690081030130386,-0.03064504824578762,0.006042079534381628,-0.038711100816726685,0.028963927179574966,0.036132145673036575,-0.01795155741274357,0.0248626247048378,-0.01177858654409647,0.0242801234126091,-0.0064735449850559235,-0.02138480357825756,0.00707454327493906,0.0018689200514927506,-0.0013844916829839349,0.011262635700404644,0.0016655492363497615,0.04080190509557724,0.0269292201846838,0.039558302611112595,-0.019836850464344025,-0.02150879055261612,0.03856571763753891,-0.04581053555011749,0.01801094226539135,0.032373134046792984,-0.04221672564744949,0.02645176649093628,0.022304659709334373,-0.008230136707425117,-0.027399076148867607,-0.04272584617137909,-0.00416084099560976,0.011995934881269932,-0.04799063131213188,0.022417820990085602,-0.01713632419705391,0.040666282176971436,0.04912223666906357,-0.04821204021573067,-0.03753894567489624,-0.03081982024013996,0.00913529098033905,0.045262839645147324,-0.02520575188100338,0.01683756522834301,0.019720247015357018,-0.006631833966821432,-0.03765999525785446,0.0437738373875618,0.040576111525297165,0.02264532633125782,-0.020454369485378265,-0.014287333004176617,-0.01992916688323021,0.005493361968547106,-0.020191293209791183,0.0009729653829708695,-0.010307804681360722,0.026999153196811676,-0.03745787590742111,-0.0018972442485392094,0.023333774879574776,-0.006995884235948324,0.019225744530558586,0.0431780107319355,-0.04849958047270775,0.0050659701228141785,0.013268210925161839,0.026608144864439964,-0.03855566307902336,-0.037000179290771484,-0.02661372348666191,0.01705128699541092,0.01093075331300497,-0.02896573580801487,-0.012167563661932945,-0.03425424546003342,0.0008495186921209097,-0.025196140632033348,-0.026709895581007004,-0.018241282552480698,0.03112703189253807,0.0027605784125626087,-0.004052802920341492,0.021924404427409172,-0.00787288323044777,0.009471467696130276,-0.01424820814281702,-0.031307388097047806,0.03971807286143303,-0.039464667439460754,0.016471950337290764,-0.04418107494711876,-0.029142217710614204,-0.013407833874225616,-0.009715031832456589,0.009523804299533367,0.043452274054288864,-0.025104960426688194,-0.03393745422363281,0.01778922602534294,0.032234419137239456,-0.022108325734734535,0.02164996974170208,0.04434788227081299,-0.03125414252281189,0.021608583629131317,0.03107183426618576,-0.04598234221339226,0.01734798401594162,-0.0402010940015316,-0.009043837897479534,-0.01652897335588932,-0.0075337253510952,-0.00459795817732811,-0.042099058628082275,0.049231357872486115,-0.0019115142058581114,0.04793987795710564,0.040505532175302505,-0.048218950629234314,-0.00016373858670704067,-0.014469670131802559,0.006555994972586632,-0.03426505625247955,-0.03814290091395378,0.004886170849204063,-0.021583225578069687,-0.006509617902338505,-0.032010484486818314,-0.009871373884379864,0.049333080649375916,-0.03475281223654747,-0.03113427199423313,-0.016178473830223083,-0.04700004681944847,0.03916362300515175,0.028951456770300865,-0.004207320511341095,-0.03337005898356438,0.03957415372133255,0.00117515679448843,-0.03296487033367157,0.0032782212365418673,-0.028892045840620995,-0.016527676954865456,-0.03465983644127846,0.007648037280887365,0.004289713222533464,-0.017442986369132996,-0.049009740352630615,-0.008264526724815369,-0.045675262808799744,-0.029908927157521248,0.04401805251836777,0.011533181183040142,0.008375227451324463,-0.02288084849715233,0.042623117566108704,-0.04483030363917351,-0.0013806270435452461,0.0291130393743515,-0.044730477035045624,0.047692231833934784,-0.008967582136392593,-0.018487542867660522,0.010627849958837032,-0.019564324989914894,-0.011009947396814823,0.03153688833117485,0.030063563957810402,0.03930490091443062,0.04286867007613182,0.04137840121984482,-0.0327279195189476,0.046618178486824036,0.0028557940386235714,-0.02753034420311451,0.025414377450942993,-0.031895581632852554,-0.019323019310832024,0.037978071719408035,0.005686129909008741,-0.01402345672249794,0.016489630565047264,0.013026826083660126,0.002353841671720147,-0.018962258473038673,-0.0348353385925293,0.04124999791383743,0.03525928407907486,0.028801703825592995,0.004602177068591118,-0.042736586183309555,0.04034651070833206,0.02149433270096779,0.007616016548126936,0.009096535854041576,-0.009035916067659855,0.020691994577646255,0.04766784980893135,-0.02888665907084942,0.03909717872738838,0.025562239810824394,0.03039865382015705,0.030742594972252846,0.02570607326924801,0.017496462911367416,0.030528362840414047,0.015544888563454151,-0.04234664887189865,0.015264082700014114,0.011075343936681747,0.04874638095498085,-0.041868656873703,-0.004452459514141083,0.020639309659600258,-0.02746713161468506,-0.01708477921783924,-0.00670933723449707,0.03551287576556206,-0.02152838744223118,-0.036790039390325546,0.03635723143815994,-0.022944597527384758,0.012158358469605446,0.02427486702799797,-0.018869811668992043,0.040784258395433426,0.027555527165532112,0.01669582724571228,-0.013355288654565811,0.014913348481059074,-0.02862631343305111,-0.03978783264756203,-0.0009967288933694363,0.01984489895403385,0.04660940542817116,-0.010235344059765339,0.01751580461859703,-0.0077740950509905815,0.037719547748565674,-0.022904004901647568,0.01882629469037056,0.03968837484717369,-0.04502546414732933,0.04439302906394005,-0.045173849910497665,0.01711827889084816,0.045147981494665146,-0.049897700548172,0.0005152279045432806,-0.03299451246857643,-0.03564753010869026,-0.029776999726891518,-0.02495170384645462,-0.033907100558280945,-0.008253693580627441,-0.0036672805435955524,-0.04029671102762222,-0.037616223096847534,0.044741712510585785,-0.015193764120340347,-0.012305929325520992,-0.022793537005782127,0.027083955705165863,0.01136855036020279,0.0019655092619359493,0.02168150804936886,-0.037467408925294876,0.015327956527471542,0.02098086103796959,0.0334320031106472,-0.031153973191976547,0.02725830301642418,0.03141150623559952,0.04247855022549629,0.010586484335362911,-0.02453804947435856,0.02633509784936905,0.008938360959291458,-0.007538518402725458,-0.0002752599830273539,0.04064100980758667,0.011100256815552711,0.04811803624033928,-0.017324814572930336,0.04307181015610695,-0.04481518641114235,0.0006697939243167639,-0.006041515152901411,0.020222917199134827,0.012501602992415428,0.044074513018131256,-0.034354716539382935,0.01577853411436081,0.022501865401864052,-0.004426021594554186,0.04681827127933502,-0.041923943907022476,0.014345888048410416,0.019871294498443604,-0.03313184529542923,-0.028307287022471428,-0.02756342664361,-0.011846453882753849,-0.008000311441719532,0.023916015401482582,-0.0029753842391073704,0.013084380887448788,-0.0348559245467186,0.02664497122168541,-0.0028887796215713024,-0.003863921156153083,-0.04503976181149483,0.03980209305882454,-0.03996617719531059,0.045410145074129105,-0.014831164851784706,-0.006155719049274921,-0.030269978567957878,0.022690843790769577,-0.03841939568519592,-0.029345732182264328,-0.04548664018511772,-0.034101832658052444,-0.013238794170320034,0.017206715419888496,0.03690400347113609,0.006487654056400061,-0.01701493188738823,-0.004917028825730085,-0.036276400089263916,0.04763924703001976,0.049515821039676666,0.0037463612388819456,-0.03749759867787361,0.02559460885822773,-0.027248885482549667,0.032587673515081406,-0.018085792660713196,-0.04152192547917366,0.04978051036596298,0.0034493133425712585,0.035932548344135284,0.04984824359416962,-0.008521338924765587,-0.005787850823253393,0.003930337261408567,-0.003960793372243643,0.019170813262462616,-0.015396182425320148,0.03376089781522751,-0.045064788311719894,-0.01643628440797329,-0.04587819054722786,-0.005699466448277235,-0.006098555866628885,0.045927584171295166,0.03686745464801788,-0.013778251595795155,-0.047442417591810226,0.016362499445676804,0.04289757460355759,-0.03257831931114197,-0.009623352438211441,-0.007670674938708544,0.019491001963615417,-0.007225004490464926,0.013973290100693703,0.0036995206028223038,-0.029038093984127045,-0.00521977199241519,0.023311352357268333,-0.013672738336026669,-0.03439897671341896,-0.006757461000233889,0.03160034120082855,-0.017332518473267555,-0.016596009954810143,-0.02221117913722992,0.0017972897039726377,-0.04585094749927521,-0.04280529543757439,0.01378067396581173,0.01327365729957819,0.035669609904289246,-0.002412724308669567,0.03806331381201744,-0.002206481760367751,-0.03958874195814133,-0.014889500103890896,-0.013456163927912712,-0.03500164672732353,-0.004464220255613327,0.037321120500564575,0.004154182970523834,0.040028318762779236,0.010216355323791504,-0.02116909995675087,-0.0298729557543993,0.017916010692715645,0.02007976919412613,-0.01008489727973938,0.007946732454001904,0.04216168075799942,0.0007215141667984426,0.04782945662736893,0.012950776144862175,-0.04066222533583641,0.0029786608647555113,0.005098880734294653,0.04428156465291977,-0.0027922748122364283,-0.048186950385570526,0.00024927841150201857,-0.02301856502890587,0.0305678378790617,0.008965338580310345,-0.019657503813505173,0.01507264282554388,0.03329349309206009,-0.042097657918930054,-0.012580327689647675,0.009544286876916885,0.024550633504986763,-0.0428386889398098,0.034051019698381424,0.020470207557082176,0.018299326300621033,0.0088419858366251,-0.0022661536931991577,-0.01244624238461256,-0.03354628011584282,-0.039738163352012634,-0.042435966432094574,-0.006645877379924059,0.03785336762666702,-0.020545175299048424,-0.008254650048911572,0.04349515214562416,-0.008044720627367496,0.02652626298367977,-0.010220899246633053,0.03538064286112785,0.027925366535782814,-0.012570795603096485,0.02366013638675213,0.022445742040872574,-0.020184393972158432,0.009337322786450386,0.0142185864970088,0.010005136020481586,-0.044807299971580505,-0.03243521600961685,0.030122386291623116,-0.02806716226041317,-0.04928236082196236,0.005425747483968735,0.015232815407216549,-0.048886869102716446,-0.03814238682389259,-0.014264103025197983,-0.0490361787378788,0.0008544308948330581,0.01765076071023941,-0.0011111459461972117,-0.0434039868414402,-0.04364227503538132,0.016697879880666733,0.023873722180724144,0.010481066070497036,0.047610197216272354,0.034635279327631,0.015995055437088013,0.026485618203878403,-0.04372245818376541,-0.010607209987938404,-0.023172233253717422,0.035301364958286285,0.018650270998477936,-0.0385684072971344,-0.008248736150562763,-0.04497428610920906,-0.035701408982276917,-0.04645215719938278,0.03844930976629257,-0.033359698951244354,0.019912974908947945,0.02851751260459423,0.04556978493928909,-0.01733442023396492,0.03477231785655022,0.03941703215241432,0.016221661120653152,0.008809910155832767,-0.021026654168963432,0.03574617952108383,0.036727648228406906,-0.038315676152706146,0.0353141687810421,-0.044834915548563004,0.033650387078523636,0.000030903287552064285,-0.015160905197262764,0.013140254653990269,-0.021967580541968346,0.03140026703476906,-0.04262884333729744,0.04661281406879425,-0.04501659795641899,-0.010240785777568817,-0.025361081585288048,-0.0033439258113503456,-0.04245273768901825,0.014365574344992638,-0.030443793162703514,-0.0359511636197567,-0.04789748042821884,0.009119387716054916,0.001680673216469586,-0.022806234657764435,0.014722554944455624,0.0373387485742569,0.023179074749350548,0.048220641911029816,-0.021641504019498825,0.02375551499426365,0.04159342125058174,0.010657153092324734,0.03144919499754906,-0.048539672046899796,-0.03133101388812065,0.028133582323789597,0.041412603110075,-0.01076718233525753,-0.04882284998893738,-0.018399415537714958,-0.038463789969682693,0.04195248708128929,-0.04249987751245499,0.048571933060884476,0.020561175420880318,-0.011113868094980717,-0.027015961706638336,-0.04612196236848831,-0.01296578161418438,-0.04535771161317825,0.008708411827683449,-0.01284369733184576,-0.004295674152672291,0.0016034803120419383,0.048433851450681686,-0.034007105976343155,-0.019971339032053947,-0.018717274069786072,0.003033800283446908,-0.027760518714785576,-0.04101398214697838,0.006813725922256708,-0.026225272566080093,0.03461605682969093,0.010421616025269032,0.03741908818483353,0.004803607240319252,0.033330876380205154,-0.026395566761493683,0.010867743752896786,0.013570058159530163,-0.02124520018696785,-0.025196315720677376,0.03209764510393143,0.027902258560061455,0.026153717190027237,0.03029545210301876,-0.003402394475415349,0.03864432871341705,-0.004074229393154383,0.043288104236125946,0.03562823683023453,0.01793157495558262,0.02072429284453392,-0.04134557023644447,-0.004281511064618826,0.001557205687277019,0.0445801243185997,-0.02275434508919716,0.033926159143447876,-0.042391709983348846,0.013641171157360077,-0.04547523707151413,0.011375787667930126,-0.03491508215665817,-0.04589243233203888,-0.019788868725299835,-0.022504378110170364,-0.03632209077477455,0.0035769930109381676,-0.004917778540402651,0.03480960428714752,0.04174228012561798,-0.03554179519414902,0.030670154839754105,-0.021921508014202118,0.007992352358996868,-0.008724108338356018,-0.012590698897838593,0.03681992366909981,-0.010671009309589863,-0.022345995530486107,-0.032236430794000626,0.022892925888299942,0.015851907432079315,-0.0005780521314591169,-0.03656240925192833,-0.02235410176217556,0.017632780596613884,0.02341558039188385,0.04499322175979614,-0.006294761318713427,0.017935719341039658,0.04511075094342232,0.004018781706690788,0.047475021332502365,0.04440644383430481,-0.048344049602746964,-0.01647968776524067,0.024896275252103806,-0.019036201760172844,-0.04619418457150459,-0.009196600876748562,-0.027300579473376274,-0.036857970058918,-0.038932740688323975,-0.025198806077241898,-0.006977363955229521,0.02418968640267849,0.016792243346571922,0.030523227527737617,0.046300169080495834,0.009216233156621456,-0.0380777046084404,-0.01011571940034628,0.022262807935476303,-0.004190925508737564,0.004145232029259205,0.009146123193204403,-0.021515948697924614,0.016321104019880295,0.01779055967926979,0.027501055970788002,0.03779548034071922,0.02455718070268631,-0.04553806409239769,-0.006522847805172205,-0.030065258964896202,-0.031065160408616066,0.02118689753115177,-0.00943613238632679,-0.02268274314701557,-0.02920898050069809,-0.03425978124141693,0.015960941091179848,0.045418910682201385,-0.0469999760389328,0.03713531792163849,-0.027347493916749954,-0.03799617290496826,-0.02642650529742241,-0.03333449363708496,-0.02897256426513195,-0.02847820334136486,-0.036368370056152344,0.04382805526256561,-0.013004141859710217,-0.015557432547211647,0.03873340040445328,0.02543671615421772,0.012582558207213879,0.015086016617715359,-0.006508929654955864,-0.019521290436387062,0.033997226506471634,-0.033149126917123795,0.01792077161371708,-0.047319941222667694,0.006876077968627214,0.018597295507788658,0.04468836635351181,0.027078086510300636,0.035912226885557175,-0.008618933148682117,-0.02761201187968254,0.0014454462798312306,-0.005187776405364275,-0.018110530450940132,-0.037707384675741196,-0.04181630164384842,0.017713816836476326,-0.016144253313541412,0.02742723561823368,0.01281660981476307,0.0016298400005325675,0.042986854910850525,-0.0023625961039215326,-0.024303533136844635,0.010214670561254025,-0.005206207279115915,0.005899767857044935,-0.039602555334568024,0.02767259255051613,-0.03932507336139679,0.032711733132600784,0.04481175169348717,-0.04571552202105522,-0.01635163277387619,-0.034248825162649155,0.02367137372493744,0.033047739416360855,-0.02894359454512596,0.027835501357913017,-0.007720451336354017,-0.00901670753955841,-0.0464571937918663,-0.0007254824158735573,0.0012625927338376641,0.037706032395362854,-0.027340348809957504,0.04915255308151245,-0.04661836847662926,0.014985195361077785,-0.010005810298025608,-0.048802949488162994,0.021777115762233734,0.04005799815058708,0.02758128196001053,-0.015246313996613026,0.03764037415385246,-0.02177523449063301,0.018415821716189384,0.00764439394697547,0.023141372948884964,0.0036476091481745243,-0.030884921550750732,-0.04169202223420143,-0.016068942844867706,0.000769612321164459,-0.03959629684686661,-0.03618273884057999,-0.033226870000362396,0.03415776416659355,0.0009518802398815751,0.039525553584098816,-0.020427070558071136,0.0005380414659157395,-0.04222492128610611,-0.009108222089707851,-0.04261336848139763,-0.028032895177602768,0.031765829771757126,0.04763093218207359,-0.03632870689034462,-0.0032357731834053993,0.04531603679060936,0.02848966419696808,0.03581162542104721,-0.03804083913564682,0.006682626437395811,-0.02295573055744171,0.0421847365796566,-0.007993092760443687,0.004104674328118563,0.01524309255182743,-0.027290022000670433,0.026387136429548264,-0.02614760585129261,-0.022314002737402916,0.02771969698369503,-0.028174808248877525,-0.04907677322626114,0.017339713871479034,-0.008387950249016285,-0.04560721293091774,-0.03251614049077034,-0.014507097192108631,0.026172956451773643,0.020565571263432503,0.03737417235970497,0.025139089673757553,-0.04603513330221176,-0.006259159650653601,0.024117479100823402,-0.005426506511867046,-0.04208403825759888,0.0017767177196219563,-0.008846748620271683,0.0030730655416846275,0.041018448770046234,0.031140489503741264,0.010274454951286316,-0.002115128329023719,-0.02414887398481369,0.0030769675504416227,-0.0038576279766857624,-0.007302234414964914,0.019965434446930885,0.013669663108885288,0.024962112307548523,0.006099183112382889,0.03422626107931137,-0.005136154126375914,0.0033443353604525328,0.002285987138748169,0.04391459375619888,-0.00018025588360615075,-0.009747863747179508,-0.017795415595173836,0.006727834232151508,0.04051438719034195,0.030641814693808556,0.048282645642757416,-0.008342845365405083,-0.027750888839364052,0.014426671899855137,0.04854041710495949,0.042275164276361465,-0.027840517461299896,-0.010171083733439445,0.010921701788902283,-0.013457815162837505,0.03614019230008125,0.010242797434329987,-0.043795425444841385,-0.012935557402670383,-0.026457447558641434,0.021395836025476456,0.005816686432808638,-0.03187832608819008,-0.026388101279735565,0.045314084738492966,-0.02398349530994892,-0.035171300172805786,0.023855673149228096,0.0012481464073061943,0.003844949183985591,0.005568987224251032,-0.000766259734518826,-0.025453604757785797,-0.04502898082137108,-0.045511648058891296,0.03858344256877899,-0.04055291414260864,0.02748793736100197,0.03392035886645317,-0.02805456891655922,0.03264909237623215,-0.021756069734692574,-0.0026822700165212154,0.031218672171235085,0.04004739969968796,0.025558924302458763,0.004983397200703621,-0.010432837530970573,-0.020860306918621063,-0.013043457642197609,0.023042544722557068,0.0011318731121718884,-0.03241020441055298,-0.015547335147857666,-0.015776729211211205,-0.015281470492482185,0.003969115205109119,0.0038497012574225664,0.04919249936938286,-0.0035037873312830925,0.04893586039543152,0.0037515999283641577,-0.04301896691322327,-0.03377600014209747,0.04956143721938133,-0.016615908592939377,-0.022621680051088333,-0.004902394022792578,-0.0012832845095545053,0.00835697166621685,0.038691628724336624,-0.029269954189658165,0.018112534657120705,-0.0073084598407149315,0.02316231094300747,0.025331545621156693,0.03143469989299774,0.03399450331926346,0.021208353340625763,-0.0020001756493002176,-0.04840674623847008,0.019330332055687904,0.039843086153268814,0.006940206978470087,0.011644290760159492,-0.000497192784678191,-0.0025603342801332474,-0.03987310826778412,-0.0422554574906826,-0.011259824968874454,-0.015587661415338516,-0.02237636409699917,-0.024604495614767075,-0.0004310909134801477,-0.001959809334948659,0.034947022795677185,0.01267631072551012,-0.020412825047969818,-0.03306746855378151,0.036144085228443146,-0.043988119810819626,-0.008770170621573925,0.04085617884993553,-0.00246105226688087,0.0027529727667570114,-0.005842356942594051,0.04407130554318428,0.03090457059442997,-0.02229401469230652,-0.0296586062759161,0.02138476073741913,-0.01016925647854805,-0.01407955214381218,0.01260877400636673,-0.04566735029220581,0.004770590923726559,0.02928772382438183,-0.04849270358681679,0.04964357614517212,-0.010932211764156818,0.03840096667408943,0.029120901599526405,0.029065130278468132,-0.032576318830251694,0.020128147676587105,-0.015189114026725292,0.022879520431160927,-0.04772442579269409,0.0005828767316415906,0.0132096903398633,-0.031517695635557175,-0.032851725816726685,0.015558930113911629,-0.027543572708964348,0.02762921340763569,0.04850095510482788,-0.008853479288518429,-0.034324947744607925,0.010144291445612907,0.029487496241927147,-0.04496936500072479,0.013090984895825386,0.04689258709549904,-0.008133814670145512,-0.008044946938753128,-0.036096811294555664,-0.0030506111215800047,0.048456378281116486,0.0004389407695271075,-0.007358407136052847,-0.016885224729776382,-0.01813623495399952,0.021251842379570007,0.031964316964149475,0.04783323407173157,-0.03953460231423378,-0.03381021320819855,0.033351194113492966,0.021206572651863098,0.004031013231724501,-0.018813127651810646,0.02678896114230156,-0.03805546090006828,-0.02771630510687828,0.041429635137319565,-0.04388850927352905,0.03802218288183212,-0.00757183413952589,-0.03900774195790291,-0.04637501761317253,-0.03184584155678749,-0.007493933662772179,-0.0029172273352742195,0.029835734516382217,-0.04860479012131691,0.019283050671219826,-0.037395767867565155,-0.024738527834415436,-0.04295672848820686,0.014314115047454834,-0.04762202873826027,-0.03040817193686962,-0.03281817212700844,0.01578417606651783,0.013669575564563274,0.020773252472281456,0.029338035732507706,0.035879045724868774,-0.04701249673962593,-0.002867941278964281,0.029348691925406456,-0.028870360925793648,0.03054201789200306,0.0090427091345191,0.014904582872986794,-0.029153168201446533,0.005482770502567291,0.032977394759655,-0.02048083394765854,0.00901937484741211,-0.03919319063425064,-0.00280190771445632,-0.03186354413628578,0.024508511647582054,0.016901949420571327,-0.04979444667696953,0.010390629991889,0.03971392661333084,0.029820557683706284,0.036471616476774216,-0.008240860886871815,0.023019755259156227,0.049421276897192,-0.023596346378326416,0.014436174184083939,0.02398780919611454,-0.011977463960647583,-0.024700837209820747,0.00011425771663198248,0.04250667244195938,0.017473479732871056,0.007568798493593931,0.04647284373641014,0.0178449135273695,-0.028294939547777176,0.036793604493141174,-0.024813024327158928,-0.032331433147192,0.011772035621106625,0.003939798101782799,0.01873905397951603,-0.03611133247613907,0.04401849955320358,-0.043116774410009384,-0.0009977506706491113,-0.019237231463193893,0.005615326575934887,0.0245595034211874,-0.04231354966759682,-0.045899372547864914,0.032941803336143494,0.037097811698913574,-0.03800385072827339,0.005526725202798843,0.037353258579969406,0.02619028277695179,0.013383949175477028,0.0017012106254696846,-0.041529569774866104,-0.018563952296972275,-0.014981637708842754,-0.048099517822265625,0.03303768113255501,-0.000017002983440761454,-0.04352683201432228,-0.03609009459614754,-0.009508045390248299,-0.020664619281888008,-0.022890502586960793,-0.030267294496297836,0.010472177527844906,-0.015458131209015846,-0.047562338411808014,-0.045071180909872055,-0.03851499408483505,0.03428283706307411,-0.004214182496070862,0.025092892348766327,0.020357608795166016,-0.010695623233914375,-0.02610030211508274,0.014954078011214733,0.042173150926828384,0.0072202906012535095,0.0012138126185163856,0.00021041119180154055,0.03912414237856865,-0.01839284598827362,-0.045181646943092346,-0.010820231400430202,-0.03449900820851326,0.04617635905742645,-0.028119254857301712,0.048217419534921646,-0.028018737211823463,-0.0492413192987442,-0.032759953290224075,0.0056408364325761795,-0.005820026155561209,-0.04928454011678696,-0.008700203150510788,-0.016329701989889145,-0.010651751421391964,-0.04968688264489174,-0.048252005130052567,-0.012084991671144962,0.007695030886679888,0.03154325485229492,-0.011495647951960564,0.01440582424402237,-0.048803605139255524,0.012327649630606174,0.019262483343482018,-0.022655267268419266,0.012434320524334908,-0.004647413734346628,0.013302412815392017,0.011089053936302662,-0.029256796464323997,0.03953221067786217,0.04839739948511124,-0.041774142533540726,0.03328590840101242,0.037988949567079544,-0.019007926806807518,0.04494370520114899,-0.045841243118047714,0.026732852682471275,0.029674028977751732,-0.003117841901257634,0.04855990782380104,0.037590160965919495,0.002020199317485094,-0.042716678231954575,-0.0388319306075573,-0.0016612951876595616,-0.032030269503593445,0.010696528479456902,0.01349501684308052,0.04675240442156792,0.04365827888250351,0.0009312343900091946,-0.008453667163848877,0.006895190104842186,-0.013383857905864716,-0.010427085682749748,0.00898022297769785,0.031034866347908974,0.04250313714146614,0.01751156523823738,0.007951508276164532,-0.012614674866199493,-0.03238314390182495,-0.03349760174751282,-0.03656044974923134,-0.019041987136006355,0.0399855338037014,0.039779797196388245,-0.02000860869884491,-0.017860496416687965,-0.016454646363854408,0.04553813859820366,0.036587875336408615,0.044953178614377975,-0.020596344023942947,-0.0026768832467496395,-0.03493691608309746,-0.02997637540102005,0.03103015199303627,-0.015079550445079803,-0.013280489481985569,0.005641550291329622,-0.02353026159107685,0.009817293845117092,0.012503271922469139,0.010540827177464962,-0.009660298936069012,0.02805330976843834,0.023621536791324615,-0.014235113747417927,-0.03976517915725708,0.006920609623193741,-0.011186648160219193,-0.029880773276090622,0.022602004930377007,0.0030527599155902863,-0.031619321554899216,-0.005594100337475538,0.03872936591506004,-0.038840703666210175,-0.012795214541256428,-0.005121026188135147,-0.018375521525740623,0.032599758356809616,0.04925767704844475,0.04294988885521889,0.04933805391192436,0.04078606516122818,-0.00008950932533480227,0.04836534708738327,0.03941289708018303,0.036731574684381485,-0.0006906000780873001,-0.021365750581026077,0.046027131378650665,0.02545974776148796,0.04216731712222099,-0.015515155158936977,0.04774912819266319,-0.03298008814454079,-0.0177941732108593,0.008938812650740147,0.01065621804445982,-0.008723445236682892,0.018238035961985588,-0.0343482606112957,0.011898351833224297,0.02830309234559536,-0.03604571148753166,0.047848381102085114,0.00566050224006176,0.031215867027640343,-0.013131402432918549,-0.02928432635962963,0.015975138172507286,-0.004006947390735149,-0.03856249153614044,0.021770594641566277,0.04460562765598297,0.020276235416531563,-0.007774505764245987,0.04888923466205597,0.027841094881296158,-0.04575152322649956,-0.02620403841137886,0.028330396860837936,-0.003177589038386941,0.04822663217782974,-0.022669972851872444,-0.04900607094168663,0.036700889468193054,0.011227062903344631,-0.03220890089869499,-0.011579587124288082,0.0012237763730809093,0.036256127059459686,-0.028689617291092873,0.04413094371557236,-0.015479250811040401,0.04832959547638893,0.03586729243397713,0.03752421960234642,-0.039019834250211716,0.016723887994885445,0.015558410435914993,-0.03670909255743027,0.027935173362493515,-0.0017071650363504887,-0.03865718096494675,0.021089205518364906,0.04198043793439865,0.036853618919849396,-0.0476314052939415,0.02467903308570385,0.004630830138921738,-0.026732206344604492,-0.02117915265262127,0.023232851177453995,0.04842029884457588,-0.031699176877737045,0.0016489900881424546,0.03514137864112854,-0.03508467227220535,0.0369335412979126,-0.023773912340402603,-0.02256390079855919,-0.023193975910544395,-0.007276327349245548,0.009310612455010414,0.011511270888149738,0.013313349336385727,-0.00359476450830698,0.02503068558871746,0.03687124699354172,-0.03158964961767197,-0.04714876413345337,0.016034191474318504,0.03364240378141403,-0.0122305853292346,0.031232016161084175,-0.012048568576574326,-0.038480453193187714,0.030938610434532166,-0.01940995827317238,0.001200008555315435,-0.03251473978161812,-0.021642673760652542,0.04063888266682625,0.008350077085196972,0.030161425471305847,0.042188044637441635,0.01912716031074524,0.04351142421364784,-0.043983157724142075,0.04477439075708389,0.01617930270731449,0.019824039191007614,0.02529904618859291,0.04279063642024994,-0.048409365117549896,-0.03293251246213913,-0.02401663549244404,0.030023746192455292,0.017175259068608284,-0.014614829793572426,0.042402494698762894,-0.01668884977698326,-0.03252987191081047,0.024306247010827065,0.0038000952918082476,0.0050444211810827255,-0.017172571271657944,0.0002965848834719509,0.02789151668548584,-0.04071645438671112,-0.048385027796030045,-0.0011318274773657322,-0.03092617727816105,0.009351847693324089,0.04309604689478874,-0.02195781096816063,0.012296798638999462,0.021503716707229614,-0.021368546411395073,-0.04125838354229927,-0.008615085855126381,0.03528403863310814,0.0284712016582489,-0.03239766135811806,0.04568234831094742,-0.040228478610515594,0.007512312848120928,-0.03692718967795372,-0.018071355298161507,-0.03149988129734993,-0.016765045002102852,-0.007853996008634567,-0.02147771790623665,0.04249173030257225,0.016049349680542946,-0.0095846401527524,-0.024616055190563202,0.04916684329509735,-0.04289540275931358,-0.012758866883814335,-0.005966302938759327,0.0479997955262661,-0.04715978354215622,-0.03661783039569855,0.031668614596128464,-0.04300396516919136,-0.026794373989105225,-0.02346671372652054,0.0025841831229627132,-0.009065787307918072,0.010029989294707775,0.000424497586209327,-0.044510602951049805,-0.03848835825920105,0.0022250127512961626,-0.0417012982070446,-0.016653994098305702,0.040274590253829956,-0.04862021654844284,0.04561673477292061,0.015524109825491905,0.03749922662973404,-0.027043601498007774,-0.013536659069359303,-0.0049595823511481285,-0.0020441969390958548,-0.040734145790338516,-0.0008256189175881445,0.03972526267170906,-0.0007622492266818881,-0.02640553005039692,-0.03777192533016205,0.03797471150755882,-0.02254965715110302,-0.0024508133064955473,0.008690758608281612,-0.04936443641781807,-0.025534944608807564,-0.02267971634864807,0.015878329053521156,-0.04279520362615585,0.005358519963920116,-0.029356496408581734,0.029713373631238937,-0.046008504927158356,-0.012013189494609833,-0.029272515326738358,-0.023638498038053513,0.01010194979608059,-0.03744373470544815,-0.009454001672565937,0.009404979646205902,0.01913236826658249,-0.0030502399895340204,0.034572113305330276,-0.04238182678818703,-0.016162412241101265,-0.0348922461271286,0.015477035194635391,-0.033830754458904266,0.04419557377696037,0.021344654262065887,0.024275517091155052,-0.04587441682815552,-0.03290851414203644,0.034547578543424606,0.031973984092473984,-0.021048638969659805,-0.045149773359298706,0.018277859315276146,-0.022119415923953056,-0.03317594900727272,-0.023398933932185173,0.005496321711689234,0.026564575731754303,0.02461087703704834,-0.03869372233748436,0.012568092904984951,-0.049466755241155624,-0.035454779863357544,-0.010907193645834923,0.036073893308639526,-0.03384016081690788,0.049803223460912704,-0.01370646245777607,0.009255344048142433,0.015018956735730171,0.0017747129313647747,-0.02030685544013977,-0.028538668528199196,0.02189694344997406,0.04125813767313957,-0.014426886104047298,-0.033079568296670914,-0.0009700410882942379,-0.007411560509353876,-0.0034393619280308485,0.03239329904317856,0.0336134135723114,-0.0008345905225723982,0.041628673672676086,0.04781542345881462,-0.009019488468766212,-0.04390552639961243,-0.031554289162158966,0.02505345270037651,-0.04998183250427246,-0.0164239089936018,-0.009744618088006973,0.014376897364854813,0.013528160750865936,0.04258706420660019,0.008930716663599014,-0.011194275692105293,-0.010047881864011288,0.005940097849816084,0.0012083699693903327,-0.041198454797267914,0.025205377489328384,-0.03146195411682129,0.045583225786685944,-0.038712479174137115,-0.0349600575864315,-0.01916784606873989,0.013454744592308998,0.0072096167132258415,0.020159084349870682,-0.04403864964842796,-0.018489791080355644,-0.0073370435275137424,-0.007864829152822495,0.015062911435961723,-0.01085830107331276,0.03279469162225723,0.04134662449359894,0.031094955280423164,0.014134997501969337,0.03258664160966873,0.03294900059700012,0.00011079942487413064,0.016811657696962357,0.024552447721362114,0.005567152518779039,-0.026083802804350853,-0.034422628581523895,0.016457803547382355,-0.02197761833667755,-0.013580218888819218,0.007953462190926075,-0.028873207047581673,-0.02045365609228611,-0.002285873517394066,-0.02143006958067417,0.010946079157292843,-0.03655020147562027,0.04952383413910866,-0.026634933426976204,0.03963717445731163,0.0008426351705566049,0.024867700412869453,0.03038930892944336,-0.03224958851933479,-0.04351445659995079,-0.017018767073750496,0.04114796593785286,0.03989030420780182,0.025722607970237732,-0.007955833338201046,-0.033960144966840744,0.025228077545762062,0.005478482227772474,0.026218408718705177,0.03226986527442932,0.01708368957042694,0.027442654594779015,0.034876830875873566,-0.0037757824175059795,0.025116365402936935,0.03584684804081917,0.045243535190820694,-0.04103048890829086,0.02278234250843525,-0.02248096652328968,0.009649209678173065,0.012189832516014576,-0.04175228998064995,0.008413352072238922,-0.005803776439279318,-0.04433763027191162,-0.01066722720861435,-0.022922717034816742,-0.04692785441875458,0.023080872371792793,0.005430832039564848,0.04703204333782196,-0.03794960305094719,-0.014298907481133938,-0.049073897302150726,-0.010259625501930714,-0.018982671201229095,-0.03216134384274483,-0.018652115017175674,-0.044344693422317505,0.02004765160381794,-0.042057231068611145,-0.02019575983285904,-0.00011819416249636561,0.0036747304257005453,0.03441056236624718,0.03209351748228073,0.004042190499603748,-0.020235931500792503,-0.021085916087031364,0.02505502849817276,-0.03955133631825447,-0.03406200557947159,-0.02827654965221882,0.023709412664175034,-0.028781667351722717,-0.04179874062538147,0.016792340204119682,0.00544833205640316,-0.010498663410544395,-0.02703789621591568,-0.025119539350271225,-0.04819723218679428,0.006840868853032589,0.004167236387729645,0.015416523441672325,-0.03279625251889229,-0.022647680714726448,-0.004434810485690832,-0.022162800654768944,-0.015398163348436356,0.012387210503220558,-0.03644353151321411,0.023562420159578323,-0.01940101571381092,0.030629565939307213,-0.024368073791265488,0.043030574917793274,0.03789035603404045,-0.04939757660031319,0.03323940187692642,0.01429927907884121,-0.03619645535945892,0.006419087760150433,0.03547855094075203,0.015358745120465755,-0.017067763954401016,0.032514527440071106,0.04632790759205818,-0.024509543552994728,0.013231839053332806,0.013504019938409328,-0.003809029469266534,0.02558702416718006,-0.019762003794312477,-0.00477632274851203,-0.0007463902002200484,0.014891966246068478,-0.02485787123441696,0.03618655353784561,0.0266281645745039,0.016877921298146248,0.032857365906238556,0.01984158530831337,-0.006229673977941275,-0.0024321945384144783,-0.012560971081256866,0.04344167560338974,0.019647156819701195,-0.025607319548726082,-0.01880488730967045,-0.04008844494819641,-0.022721361368894577,0.007809139788150787,-0.030175594612956047,0.04205569252371788,0.012020770460367203,0.031018134206533432,0.003612194675952196,-0.04642105847597122,0.031642597168684006,0.0002969068009406328,0.012972842901945114,-0.02126367762684822,-0.003645043121650815,0.0389876589179039,0.01117011345922947,-0.010580085217952728,0.017162052914500237,-0.03447866439819336,-0.02716192416846752,-0.0437726266682148,-0.044421110302209854,0.04739314317703247,-0.045237958431243896,0.03007894940674305,0.029290080070495605,0.03787246719002724,0.014558179304003716,-0.02546355128288269,0.038873881101608276,-0.025570644065737724,-0.0005770130082964897,-0.017434239387512207,-0.041969604790210724,0.034805554896593094,-0.0032807383686304092,-0.02228499762713909,0.04299147054553032,-0.018153119832277298,-0.0063600679859519005,0.010972388088703156,0.029594184830784798,0.006436321418732405,-0.03794102370738983,0.034203413873910904,0.03485673666000366,-0.0022663420531898737,-0.04284439608454704,-0.0467478483915329,0.010845011100172997,-0.00046695556375198066,-0.019774215295910835,-0.022039001807570457,-0.039179347455501556,0.014353692531585693,0.024075841531157494,-0.03096817620098591,0.006999601144343615,0.03952472656965256,0.03541956841945648,0.012930972501635551,0.017254458740353584,0.01871383935213089,0.049865029752254486,0.031179876998066902,0.011166628450155258,0.022375497967004776,0.016986455768346786,0.03820708766579628,-0.005709514021873474,0.004658414050936699,-0.02844419702887535,-0.03319535776972771,-0.006598872598260641,0.008922252804040909,0.02163359336555004,-0.0411890372633934,-0.004656781908124685,0.0013420329196378589,0.04172399267554283,0.03176216781139374,0.03823065757751465,-0.04299410432577133,0.0017101342091336846,0.031862858682870865,-0.03611401841044426,-0.017249982804059982,0.01038894522935152,0.041064873337745667,-0.022635851055383682,-0.03357352688908577,0.038097064942121506,-0.010899631306529045,0.03787075728178024,0.01846025139093399,-0.04322920739650726,-0.03738074749708176,0.03748255968093872,-0.040087390691041946,0.03420604392886162,-0.0008620297885499895,0.047745481133461,0.019022956490516663,-0.035288650542497635,-0.035506945103406906,0.002437311690300703,-0.009707167744636536,-0.009576755575835705,0.04649706929922104,-0.04174215346574783,-0.04701747000217438,-0.02656460739672184,0.032581210136413574,-0.040637098252773285,-0.00607321597635746,-0.0321834422647953,0.019387101754546165,-0.03870096802711487,-0.036929838359355927,0.04119974002242088,0.021068507805466652,0.009723195806145668,0.018275374546647072,0.023981530219316483,-0.024381395429372787,-0.034955885261297226,-0.048554882407188416,-0.019762404263019562,0.0033145281486213207,-0.02750147506594658,-0.02496238425374031,-0.0026197757106274366,-0.021093446761369705,0.037996385246515274,-0.04190352186560631,0.0103533323854208,0.013193907216191292,0.03416498750448227,0.009082851931452751,0.008678315207362175,0.012863166630268097,0.011140676215291023,-0.02044042944908142,0.03761735185980797,0.04632686823606491,-0.038499437272548676,0.006967848166823387,-0.007157935295253992,0.00979635026305914,-0.0012712415773421526,0.020314399152994156,-0.0397966168820858,0.007264342624694109,-0.04973486065864563,0.005814756266772747,-0.00327037600800395,0.026757005602121353,0.00955068040639162,-0.015153753571212292,0.02654559537768364,-0.0023370280396193266,-0.032163649797439575,0.01577397622168064,0.03661852329969406,-0.0017296188743785024,0.03168701380491257,-0.0033396976068615913,-0.02294832654297352,0.021858030930161476,0.010072629898786545,-0.02342565730214119,0.02356664463877678,0.039387837052345276,-0.04402441531419754,0.0445018894970417,-0.0067115239799022675,0.02464621141552925,-0.03009514883160591,0.0044384123757481575,-0.0294819176197052,-0.025387519970536232,-0.016023071482777596,-0.03342045098543167,-0.004492544569075108,0.009844813495874405,0.04539455473423004,-0.021385762840509415,0.020859504118561745,-0.0381477028131485,-0.04288531839847565,0.0035316289868205786,-0.007928169332444668,-0.026654912158846855,-0.01853029802441597,-0.002219574758782983,-0.03910566493868828,-0.027179595082998276,-0.049809835851192474,0.00016958390187937766,0.006996870972216129,0.010287291370332241,-0.037182461470365524,-0.003184392349794507,-0.011926040053367615,-0.03436562791466713,0.021169792860746384,0.04051819443702698,-0.03957511857151985,-0.04665333032608032,0.021429380401968956,-0.008424797095358372,0.019604867324233055,-0.009844616055488586,-0.019523875787854195,0.04921573027968407,-0.024626756086945534,0.03635258972644806,0.0317867211997509,-0.03413773700594902,0.016196731477975845,-0.016251614317297935,-0.046230293810367584,0.04925842955708504,-0.006686715874820948,0.0037471186369657516,0.026890326291322708,-0.021964216604828835,0.02140848897397518,0.0186555664986372,-0.004629964474588633,-0.042668379843235016,-0.025835854932665825,0.022504253312945366,-0.012551416642963886,0.013601294718682766,-0.004724269267171621,0.012141803279519081,-0.007741421461105347,-0.0116694625467062,-0.026253148913383484,-0.045923586934804916,0.027340780943632126,0.04806779697537422,-0.001058825640939176,-0.04291420429944992,-0.028328320011496544,0.0158698633313179,0.04297929257154465,0.02663155272603035,0.009874781593680382,0.021192824468016624,0.04082655534148216,-0.013234758749604225,-0.04302211105823517,-0.0002555109385866672,-0.006519567687064409,-0.022251732647418976,-0.005054099950939417,-0.02753365971148014,0.03238320350646973,0.018407169729471207,-0.0071568479761481285,0.002288046758621931,-0.013318721204996109,0.044607166200876236,0.04605415463447571,-0.0025630295276641846,-0.009123028255999088,-0.016247447580099106,0.02550499513745308,0.018286408856511116,-0.020306121557950974,-0.014180902391672134,-0.042942605912685394,-0.01887650415301323,-0.022005675360560417,-0.025685975328087807,0.03391152247786522,0.003932480700314045,0.01754901371896267,-0.008644052781164646,-0.007560090161859989,-0.020467014983296394,-0.038254234939813614,-0.016044700518250465,0.009781811386346817,0.004216244909912348,-0.02854350581765175,0.0007258086698129773,0.003757825354114175,0.030129751190543175,0.0011293503921478987,0.04893920198082924,-0.04989170283079147,0.04223346710205078,0.024966195225715637,0.04462149739265442,0.011685476638376713,-0.03656739741563797,0.02300107479095459,-0.02033776231110096,0.007971994578838348,0.04826531559228897,-0.0335797518491745,0.03142212703824043,-0.03727959468960762,0.03671831265091896,-0.04136345535516739,0.029084037989377975,-0.006127671338617802,0.048095252364873886,0.016132261604070663,-0.010042581707239151,0.04606391489505768,-0.044661715626716614,-0.04571911320090294,-0.022873148322105408,-0.020383119583129883,-0.04596785455942154,0.0454423762857914,0.014224176295101643,-0.019183216616511345,-0.038693755865097046,-0.021875379607081413,0.015375494956970215,-0.022472718730568886,0.011943787336349487,0.023696117103099823,-0.035203732550144196,0.028861694037914276,-0.025418773293495178,-0.047173477709293365,0.0414704903960228,0.04845619201660156,0.007214492652565241,-0.027118833735585213,0.04750555008649826,-0.008700660429894924,0.013058974407613277,-0.04995753988623619,0.023814750835299492,-0.030410688370466232,0.03920431807637215,-0.03909071907401085,-0.022209862247109413,-0.041817471385002136,-0.023265741765499115,0.03327450156211853,-0.041035622358322144,-0.02578943967819214,0.03194238990545273,0.028424955904483795,-0.0031382031738758087,-0.011152650229632854,-0.0367300845682621,-0.03077748417854309,0.01949332468211651,0.030071072280406952,-0.021420737728476524,0.010341276414692402,0.02358795888721943,0.003988226410001516,0.03103501722216606,-0.0229233019053936,0.029901305213570595,-0.00783623568713665,0.001828207285143435,0.04151712730526924,0.00708615779876709,-0.040381044149398804,-0.016938092187047005,-0.009527741000056267,0.02733968384563923,0.04096744582056999,-0.01865573599934578,0.04038761183619499,-0.015398431569337845,0.029278116300702095,-0.00648453226312995,-0.04420601576566696,-0.0061563365161418915,0.002658319193869829,-0.000006514367214549566,0.017028167843818665,0.007846715860068798,0.04211010783910751,-0.04370059072971344,-0.031898461282253265,-0.0023419586941599846,0.024020014330744743,-0.008246890269219875,0.006420663557946682,0.03723086416721344,0.04906236752867699,-0.04745267331600189,-0.01751353032886982,-0.0014731506817042828,-0.027918802574276924,-0.004040405619889498,0.043279021978378296,0.01455089170485735,-0.023443149402737617,0.04556596279144287,0.03489568829536438,-0.028117215260863304,0.03846698999404907,0.013508516363799572,0.04367456212639809,-0.039193544536828995,-0.0329635888338089,0.005126127507537603,0.026338212192058563,0.023342574015259743,-0.017262468114495277,-0.034075334668159485,0.04831496998667717,0.012848656624555588,0.016263972967863083,0.011202855035662651,-0.03049865923821926,0.022331608459353447,-0.035053517669439316,0.005780578590929508,-0.024538947269320488,0.0009847558103501797,0.02547513321042061,-0.04098345711827278,0.0392439030110836,0.0320296548306942,-0.0209035687148571,0.024988558143377304,-0.04903080686926842,-0.028130143880844116,-0.0017872892785817385,0.035700805485248566,-0.02349955029785633,0.03910518437623978,-0.010208585299551487,-0.04809712618589401,-0.019102642312645912,0.046757183969020844,0.030549364164471626,-0.018215948715806007,-0.026842646300792694,-0.013188204728066921,0.017517898231744766,0.04083062708377838,0.017027270048856735,0.04375085607171059,-0.00311113428324461,-0.04957493767142296,0.006260662339627743,0.005559290759265423,0.0071604554541409016,-0.04925409331917763,0.034669093787670135,-0.013289648108184338,0.03983953595161438,0.024736786261200905,-0.01148425042629242,-0.04430777207016945,0.02450007013976574,0.046462539583444595,0.003849431872367859,-0.030964752659201622,-0.033797554671764374,0.01970209740102291,-0.010673165321350098,0.011698142625391483,-0.008228723891079426,-0.04251740127801895,0.012526724487543106,-0.01338666770607233,-0.00810494925826788,0.017214495688676834,0.04401742294430733,-0.012312076054513454,0.043818168342113495,-0.04540323466062546,0.046614088118076324,0.03677575662732124,-0.005970152094960213,0.03310764580965042,0.04476210102438927,-0.03384420648217201,0.00687663909047842,0.007643820717930794,-0.00013236414815764874,0.019178014248609543,-0.0078432010486722,0.026194477453827858,-0.02571156434714794,0.03469964489340782,0.013457491993904114,-0.036417026072740555,0.03869519755244255,0.005260280333459377,0.01368620153516531,0.038938459008932114,0.02986549772322178,-0.04482046142220497,0.038091160356998444,0.034879639744758606,-0.024032538756728172,-0.04367496445775032,0.04726873338222504,-0.03330918774008751,-0.041267041116952896,-0.005004247184842825,0.0017415389884263277,-0.019963279366493225,-0.01655595749616623,0.044842351227998734,-0.034338098019361496,-0.018808744847774506,0.018386879935860634,-0.046693574637174606,-0.02244950644671917,-0.014756678603589535,0.04570472240447998,0.03733823820948601,-0.018643051385879517,-0.02996625006198883,0.011432397179305553,-0.038587670773267746,-0.025424327701330185,0.021208161488175392,0.04349210858345032,-0.04697929322719574,0.02446630410850048,0.03565627709031105,0.04595455527305603,0.04104594886302948,-0.04871697351336479,-0.011511247605085373,0.029344744980335236,0.03171495720744133,0.022190626710653305,-0.02723519504070282,0.001311016152612865,-0.020209694281220436,-0.006762854754924774,-0.0016390043310821056,0.0032696081325411797,-0.008197967894375324,-0.01463259756565094,0.02105143666267395,0.025593247264623642,0.0312019195407629,-0.007285852450877428,-0.03475562855601311,-0.047077614814043045,0.012166747823357582,-0.03700120747089386,0.011314429342746735,0.033444277942180634,-0.020756160840392113,0.0309457927942276,0.01287553459405899,-0.002847908763214946,0.002280227839946747,-0.01902109757065773,-0.04429035633802414,-0.020794987678527832,0.01592249795794487,-0.008750456385314465,0.0346548818051815,0.03264620900154114,-0.010900384746491909,0.04322274029254913,-0.03145040571689606,0.01656206138432026,-0.004797637928277254,-0.007432273589074612,-0.035558782517910004,0.0010940050706267357,-0.017111659049987793,0.04784958437085152,-0.008126146160066128,0.006405915133655071,-0.011760525405406952,-0.018984321504831314,-0.007409736514091492,0.021110089495778084,-0.03722214698791504,-0.04100105166435242,-0.04380814731121063,-0.02907162718474865,-0.04238809272646904,-0.02439175359904766,0.004692696034908295,-0.013152950443327427,0.04006366804242134,-0.025593416765332222,0.04543339088559151,0.009895531460642815,-0.026085540652275085,-0.0476071871817112,0.011130578815937042,0.040096037089824677,-0.009929453022778034,-0.018165744841098785,0.038655564188957214,-0.01611877791583538,-0.03753406181931496,-0.03880253806710243,-0.02205352485179901,0.025195665657520294,-0.0015826703747734427,0.037786226719617844,0.04662257805466652,-0.013468845747411251,0.02914377860724926,0.011137009598314762,-0.03347523882985115,0.046222880482673645,0.03943457826972008,0.0035732341930270195,-0.04894527792930603,0.01826965995132923,0.01579209603369236,-0.01864226721227169,-0.047186028212308884,0.020669590681791306,-0.02157728746533394,-0.027594009414315224,0.04477689787745476,-0.04439225420355797,-0.03150809183716774,-0.034900177270174026,-0.013845249079167843,0.026815470308065414,-0.04780953377485275,-0.041037667542696,-0.04498067870736122,0.04796705022454262,-0.009181944653391838,0.043853968381881714,-0.041634757071733475,0.029110612347722054,0.0011962337885051966,0.037265460938215256,0.0011129238409921527,0.04259571433067322,-0.004216467030346394,-0.015777185559272766,0.04693903774023056,0.048785798251628876,0.03476083278656006,-0.0157316867262125,-0.03878019377589226,0.011360310018062592,0.0014122368302196264,-0.019434865564107895,0.012954812496900558,-0.02963242679834366,0.036857929080724716,-0.04746116325259209,-0.04837478697299957,0.04696526378393173,0.0431816466152668,-0.038220081478357315,0.007005362305790186,-0.046956054866313934,0.0006245981785468757,-0.01665058359503746,0.002706102328374982,-0.042508795857429504,0.017558256164193153,0.009153928607702255,0.03297097608447075,-0.03502975404262543,-0.036637917160987854,0.022654209285974503,-0.02108379825949669,0.024322345852851868,-0.04131658375263214,-0.013014054857194424,-0.005639347713440657,0.02938133291900158,0.029341142624616623,0.031122848391532898,0.00463103735819459,0.021213030442595482,0.011551673524081707,-0.03085077926516533,-0.013839936815202236,0.0019634594209492207,0.00882449559867382,0.02897336333990097,0.036026425659656525,0.02404971979558468,-0.003804551437497139,-0.01706860587000847,-0.02390884980559349,0.03565772622823715,-0.020357372239232063,-0.014704814180731773,-0.03401891887187958,0.03291410952806473,-0.006731026340276003,0.025008898228406906,-0.017996668815612793,-0.012460244819521904,0.03986441716551781,0.03800871968269348,-0.028273075819015503,0.04865262284874916,-0.02971365489065647,-0.0008335864986293018,0.026244886219501495,-0.007179440930485725,0.013007057830691338,-0.007852868176996708,-0.032231200486421585,0.0050566052086651325,0.022738637402653694,-0.033502183854579926,0.0026707183569669724,-0.007382991723716259,0.03519843891263008,0.04478664696216583,-0.015769416466355324,-0.01454988680779934,0.02860073745250702,-0.005658342037349939,-0.03214419260621071,0.04162531718611717,-0.011487345211207867,-0.031503111124038696,-0.02564980462193489,-0.00567831564694643,0.009400497190654278,0.028261590749025345,-0.00948006846010685,0.023472893983125687,-0.02638009935617447,0.037005286663770676,0.0016201067483052611,0.03311210498213768,0.04253246635198593,0.02923027239739895,-0.018796809017658234,0.044575173407793045,0.014293529093265533,0.03099770098924637,0.036726925522089005,-0.01845148578286171,0.04355713725090027,0.01148920226842165,0.030505606904625893,-0.02738329954445362,-0.02426336146891117,-0.01831803098320961,0.0062421634793281555,-0.02811429649591446,0.015082944184541702,0.04902283474802971,0.016070745885372162,0.025978250429034233,-0.006610071286559105,-0.04194151610136032,-0.028052087873220444,0.017431670799851418,-0.04422556608915329,-0.03234181925654411,-0.030964385718107224,0.000915749347768724,-0.014037443324923515,-0.045204807072877884,0.015643751248717308,0.020799415186047554,-0.04315841197967529,-0.007692363578826189,0.006036126054823399,0.008163386024534702,-0.012312859296798706,0.04799012094736099,-0.034644775092601776,0.04035785421729088,-0.04709353670477867,0.004108421970158815,-0.045021362602710724,0.03620842099189758,-0.024553732946515083,0.01244817953556776,-0.030726350843906403,-0.0328427255153656,0.0040154047310352325,-0.021043825894594193,0.048349346965551376,0.029873579740524292,-0.03667379543185234,-0.02198425866663456,-0.01076211966574192,-0.0014401033986359835,0.013473531231284142,0.04928719997406006,0.047519952058792114,0.03204461187124252,-0.02350226230919361,-0.02085712179541588,-0.015030404552817345,0.04789697006344795,0.02992967888712883,-0.028530072420835495,-0.003636901965364814,-0.0256121214479208,0.037316806614398956,0.04625063017010689,0.007054314017295837,0.02590084820985794,-0.001639721798710525,0.013981879688799381,0.007816830649971962,0.03349705785512924,0.01767437346279621,-0.030594274401664734,-0.012881639413535595,0.010676109232008457,-0.03652283176779747,-0.03988918662071228,-0.004246254917234182,-0.011633764952421188,0.04039742797613144,-0.011547911912202835,-0.025539878755807877,0.024416539818048477,-0.03713827580213547,0.019406534731388092,-0.003339315764605999,0.028964174911379814,0.015857864171266556,-0.04336626082658768,0.02037457935512066,-0.014241546392440796,0.046321477741003036,-0.03767606243491173,0.02655620686709881,-0.000041512979805702344,-0.03450353443622589,0.014989316463470459,-0.04524996876716614,-0.021052170544862747,0.03709619864821434,-0.00011614656978053972,-0.047236695885658264,-0.04002978280186653,0.03861271217465401,-0.04258427768945694,-0.0036694107111543417,-0.028477009385824203,-0.02260425128042698,-0.044978946447372437,0.01548528578132391,0.019915379583835602,-0.003987617790699005,0.03517962992191315,0.0034936685115098953,-0.025119347497820854,0.005289283115416765,-0.030776064842939377,-0.011444510892033577,-0.002821634290739894,-0.006724495440721512,0.0207793191075325,0.01893344335258007,-0.04232658073306084,-0.020746124908328056,0.028890056535601616,-0.04954998940229416,0.03492163494229317,0.007797578349709511,0.03362198546528816,-0.004186711274087429,-0.046058908104896545,0.04744336009025574,0.00016627847799099982,0.02773779258131981,0.0044251177459955215,0.04365390166640282,0.021263979375362396,0.0489104688167572,-0.0023756122682243586,-0.02258407138288021,-0.008515902794897556,0.011756702326238155,-0.027474895119667053,0.0445585660636425,-0.03917533531785011,-0.00847045797854662,0.0067968592047691345,0.04198155552148819,-0.010852036997675896,-0.0461144745349884,0.03478711470961571,-0.04412734508514404,-0.021716682240366936,-0.03527810052037239,0.047640107572078705,0.046731069684028625,-0.001592046464793384,0.04073421284556389,0.032122425734996796,-0.03720815107226372,0.029918815940618515,0.0487898588180542,-0.0007716857362538576,-0.02877962961792946,-0.011299071833491325,-0.01715226098895073,-0.030434370040893555,0.03493300452828407,0.022878019139170647,0.014111659489572048,-0.03840596601366997,0.005736532621085644,-0.02358194813132286,0.0016437922604382038,-0.04274289682507515,-0.01994716189801693,-0.021593188866972923,0.01840469427406788,-0.03295939043164253,-0.032123591750860214,0.03691433370113373,0.04672875255346298,-0.04928707703948021,0.03901439905166626,0.01180240511894226,0.0330054946243763,0.008421908132731915,-0.024177778512239456,0.010006515309214592,-0.03294961526989937,0.03929099068045616,0.02808173932135105,-0.04829984903335571,0.04007752239704132,0.031496383249759674,0.010824152268469334,0.01771099492907524,0.03712954372167587,0.012421105988323689,-0.019119881093502045,-0.027792789041996002,-0.003725242568179965,-0.045476946979761124,0.014607260935008526,-0.03826717659831047,0.0329618975520134,0.00936011504381895,0.03314947709441185,0.026613933965563774,-0.01286223717033863,-0.03163912519812584,-0.016747938469052315,0.030208667740225792,-0.04798892140388489,-0.0237689558416605,0.02135690301656723,0.006380836945027113,0.046663060784339905,0.0099381348118186,-0.015438064932823181,-0.022111838683485985,-0.02737518399953842,0.0050105685368180275,0.02945745550096035,-0.04896251857280731,0.018367569893598557,0.01741790771484375,-0.01474192924797535,0.011295538395643234,0.03483875095844269,-0.005816766992211342,0.03903261944651604,-0.043901316821575165,0.0032426046673208475,-0.017041148617863655,0.04697953537106514,0.0199495330452919,0.04837983474135399,0.009972534142434597,-0.011164819821715355,0.0006862817099317908,0.03373235836625099,0.011260602623224258,0.04260711371898651,-0.01299273781478405,-0.0069950358010828495,0.018504424020648003,0.017498057335615158,0.049123119562864304,0.00035549188032746315,-0.049000270664691925,0.019935742020606995,0.018036868423223495,0.00898717064410448,-0.0031477175652980804,-0.0313713438808918,0.0375697948038578,0.006928483955562115,-0.002745735226199031,-0.039749324321746826,-0.015706881880760193,-0.021920453757047653,0.04603710025548935,0.0057064322754740715,0.005100738722831011,-0.045283783227205276,-0.041381124407052994,0.03247924894094467,0.039653386920690536,-0.015693720430135727,0.02595382183790207,0.007871556095778942,0.012304995208978653,0.03728252276778221,0.0078656654804945,-0.009511635638773441,0.036742571741342545,0.041672173887491226,0.039265211671590805,-0.0013715571258217096,-0.025830499827861786,0.0022063152864575386,-0.02942635677754879,0.019647682085633278,-0.03575020283460617,-0.04015243425965309,0.03008502721786499,-0.0103463688865304,0.030154423788189888,0.042469874024391174,0.0001260475255548954,0.0007586470455862582,-0.04335898160934448,0.0014342674985527992,0.03800579905509949,-0.026098795235157013,-0.015128642320632935,0.0417979434132576,-0.009949292987585068,-0.03895213082432747,-0.003907441161572933,-0.03223695605993271,0.004290280397981405,0.028770308941602707,0.0021018001716583967,0.03407920151948929,-0.021143339574337006,-0.026773611083626747,0.008385931141674519,0.03447027876973152,0.04114632308483124,-0.004452118184417486,0.012689759954810143,-0.023594003170728683,0.03231038153171539,0.029142526909708977,-0.048549458384513855,0.03497814014554024,0.0015719218645244837,-0.036373309791088104,0.008424940519034863,0.013414622284471989,0.01676815375685692,-0.018140491098165512,0.035733725875616074,-0.046439699828624725,-0.030463803559541702,-0.01575668528676033,0.007534884847700596,-0.0078081050887703896,-0.04967574030160904,0.02940269373357296,-0.04881270229816437,0.005120006389915943,0.03876952454447746,-0.025527389720082283,0.04450434818863869,-0.029877077788114548,0.025334680452942848,0.021562686190009117,-0.02371813915669918,0.014565817080438137,-0.024372557178139687,0.045690443366765976,-0.020161127671599388,0.028185725212097168,0.04596179723739624,0.01729073002934456,0.03696029633283615,-0.03956229239702225,-0.008349208161234856,-0.001455890596844256,-0.010801035910844803,-0.0042449780739843845,0.04457134008407593,0.021414926275610924,-0.03664480149745941,0.01158894319087267,0.010620619170367718,-0.045249927788972855,-0.04773539677262306,-0.003903073025867343,0.03336988389492035,-0.04471645876765251,0.03557800129055977,0.008605340495705605,0.03983263671398163,-0.03626536950469017,-0.007864872924983501,0.0049962373450398445,0.02345196343958378,0.034010373055934906,-0.03676170855760574,-0.005961638409644365,0.008552655577659607,0.019703976809978485,-0.015104919672012329,0.028866495937108994,-0.017487887293100357,0.02469440922141075,0.027380801737308502,-0.030419299378991127,0.0035497841890901327,0.0343901664018631,-0.025865204632282257,0.00786931999027729,-0.04999001324176788,-0.040226977318525314,0.019517583772540092,-0.02344311587512493,-0.012963012792170048,0.012700232677161694,-0.023863008245825768,-0.03547779470682144,-0.014229974709451199,0.02988649159669876,0.04461592808365822,-0.008203729055821896,0.023766590282320976,0.007479527965188026,-0.01843206211924553,0.029470646753907204,0.014136436395347118,-0.015100059099495411,0.009300236590206623,-0.027944374829530716,-0.02123100869357586,-0.014509353786706924,0.0481891967356205,-0.0032712758984416723,0.0490708164870739,0.013468517921864986,-0.009321961551904678,-0.0007800256717018783,-0.0077700321562588215,-0.03756976127624512,0.0355406254529953,-0.01576947420835495,-0.020204594358801842,0.04693102836608887,-0.015289653092622757,0.01458971481770277,0.009777789004147053,-0.004615315236151218,0.015817968174815178,0.015257674269378185,-0.022840484976768494,-0.014473775401711464,0.045655928552150726,0.04734399542212486,0.0006127184606157243,-0.0040412540547549725,-0.02741176076233387,-0.01715015061199665,0.011996578425168991,0.04165707901120186,-0.03940621018409729,-0.014276162721216679,-0.017990337684750557,0.005341655574738979,-0.012644284404814243,0.034439314156770706,-0.047698862850666046,0.0227587278932333,0.010342361405491829,0.019653696566820145,-0.012436088174581528,0.011527077294886112,0.038901008665561676,-0.015523026697337627,-0.03522884100675583,0.03233649209141731,0.02524743415415287,0.023764582350850105,0.03423697501420975,-0.021123873069882393,0.0457792691886425,-0.034846965223550797,0.008978310041129589,0.019409537315368652,0.002402146114036441,0.02308616042137146,-0.03756356239318848,0.01726541481912136,-0.049632590264081955,0.009305467829108238,-0.0036782159004360437,-0.04338798671960831,0.03298121318221092,0.006877700332552195,-0.03580324351787567,-0.02641732059419155,0.039104532450437546,-0.03305497020483017,-0.025541020557284355,0.010900146327912807,0.000002064066165985423,-0.000469954073196277,-0.03267872706055641,0.026219386607408524,0.018646910786628723,0.03271285071969032,-0.013900374062359333,-0.04633461683988571,0.0228322371840477,-0.0454561747610569,-0.0068396227434277534,0.018447479233145714,-0.044995371252298355,0.007944765500724316,-0.01430311519652605,-0.02456630952656269,-0.0018198564648628235,0.0055922712199389935,-0.0028378539718687534,-0.03620363771915436,-0.029473179951310158,-0.02003888599574566,-0.04415443539619446,0.026218146085739136,-0.012168137356638908,0.02845393866300583,0.04956808313727379,-0.03874994441866875,-0.03946559503674507,-0.0499969944357872,-0.016151413321495056,0.0008977869874797761,-0.03694524988532066,0.03852911293506622,0.046473242342472076,0.03520086780190468,0.014555818401277065,0.04940379410982132,0.046178776770830154,0.009800393134355545,-0.04089774563908577,0.009644593112170696,0.014686360023915768,0.019125480204820633,-0.044956982135772705,-0.02059077098965645,-0.02743205428123474,-0.02588479220867157,-0.006982667371630669,0.027556689456105232,-0.04681457579135895,-0.042722608894109726,0.028470560908317566,0.0004852814308833331,-0.003393766237422824,-0.04311643913388252,-0.020508823916316032,0.03493203595280647,0.004422212950885296,0.03629026934504509,0.03418873995542526,0.043588604778051376,0.020212044939398766,-0.01637442037463188,-0.022863440215587616,0.014630564488470554,-0.044541358947753906,-0.01900339312851429,0.011067233979701996,0.040746964514255524,-0.021697744727134705,-0.03502040356397629,-0.04381556063890457,0.01706576906144619,-0.005329682491719723,0.03440532833337784,-0.017017627134919167,-0.023611105978488922,0.02092866413295269,0.017298750579357147,-0.041611574590206146,0.010561897419393063,-0.003889441955834627,-0.03126073256134987,0.006028090137988329,-0.01550154760479927,0.02288845181465149,-0.0220473799854517,-0.006599073763936758,0.043472789227962494,-0.02843879722058773,-0.048038747161626816,-0.006921298801898956,-0.029234416782855988,0.0460619293153286,0.008645336143672466,-0.0071790567599236965,-0.01610037498176098,-0.040084611624479294,0.022037958726286888,-0.010164692997932434,0.027254892513155937,0.033976953476667404,0.0021595072466880083,-0.04614280164241791,-0.011913360096514225,0.04434201121330261,0.04805033653974533,-0.02098890207707882,-0.006637122016400099,-0.020823413506150246,-0.01786903850734234,-0.036647532135248184,0.04547124356031418,0.030009843409061432,-0.0404195636510849,-0.02159889228641987,0.02117152139544487,0.03076700121164322,0.019931277260184288,0.012226032093167305,-0.00034436790156178176,0.04346543550491333,0.041962891817092896,0.03988821431994438,-0.031020890921354294,0.007337822578847408,0.02494615502655506,0.04586796462535858,0.0213814377784729,0.008013616316020489,-0.017581887543201447,-0.026257408782839775,0.012559101916849613,-0.04983064532279968,-0.013821566477417946,0.017693208530545235,-0.010072307661175728,-0.0034235031343996525,0.008818501606583595,-0.01929721049964428,-0.040320005267858505,-0.008736750110983849,0.013368282467126846,-0.0028271591290831566,0.01648496836423874,-0.011231044307351112,-0.016532830893993378,-0.04312271997332573,0.027967030182480812,0.029973246157169342,-0.04902580752968788,0.008414522744715214,-0.014662661589682102,-0.014973252080380917,0.03224986419081688,0.03135592117905617,0.012044628150761127,-0.002811226760968566,0.028565432876348495,-0.04993106424808502,-0.010349361225962639,-0.046543773263692856,-0.04473287612199783,-0.0132733304053545,0.0014402486849576235,-0.013326054438948631,-0.004918829537928104,0.0012508949730545282,0.016185371205210686,-0.011328812688589096,0.03949488699436188,0.038727741688489914,-0.01689494401216507,-0.03367871418595314,-0.0303169097751379,0.04365241527557373,-0.03736913204193115,0.03668147325515747,0.013476995751261711,-0.005023634061217308,0.01993226259946823,0.04675780609250069,0.022410929203033447,0.048832256346940994,0.016369473189115524,0.0031344278249889612,0.01721065677702427,-0.002218683250248432,-0.002077499870210886,-0.02973548322916031,0.011203346773982048,-0.03497236222028732,0.02383124828338623,-0.020168807357549667,-0.03575611487030983,-0.0025387518107891083,-0.006511805113404989,-0.03133154660463333,0.03337356448173523,-0.04474741220474243,0.004851285368204117,0.03462616726756096,-0.04452722892165184,-0.019546417519450188,0.003981873858720064,0.029114652425050735,-0.017084287479519844,-0.013600614853203297,0.029722342267632484,0.04916395619511604,0.02620471641421318,-0.018107600510120392,-0.035581376403570175,0.020337780937552452,0.04346027970314026,0.015122138895094395,0.04490009322762489,-0.049484916031360626,-0.027911188080906868,-0.007633813191205263,-0.004090331494808197,-0.018033454194664955,0.04288100823760033,-0.04212111607193947,-0.009217171929776669,0.044682662934064865,0.01894679293036461,-0.012947164475917816,-0.035822633653879166,0.019673069939017296,0.010799265466630459,-0.027748726308345795,-0.04012247547507286,0.006219419185072184,-0.030880169942975044,0.04711727052927017,0.02464151941239834,0.041260022670030594,-0.02671688236296177,-0.006903151050209999,0.005370734259486198,-0.0029825852252542973,0.04239692911505699,0.0072782160714268684,-0.04984709620475769,-0.041290562599897385,-0.025886856019496918,0.045390985906124115,-0.02431155927479267,-0.03702449053525925,0.000535295985173434,0.00717975152656436,-0.014554896391928196,-0.013966103084385395,-0.03593216836452484,-0.033514354377985,-0.022102411836385727,0.03372739255428314,0.03554048761725426,0.046207427978515625,-0.009404083713889122,0.0012794861104339361,-0.02565089613199234,-0.0136833805590868,0.0024711834266781807,0.0010019224137067795,0.0498858317732811,0.013105998747050762,0.006112334784120321,-0.027828512713313103,0.027605514973402023,-0.014568165875971317,0.02358797937631607,-0.03103470988571644,0.027292147278785706,-0.001170831499621272,-0.029541438445448875,0.02755417302250862,-0.04950829967856407,0.019467871636152267,-0.012472417205572128,-0.021730152890086174,-0.022254951298236847,0.022528335452079773,0.0026194986421614885,0.030455373227596283,0.016087792813777924,-0.019696949049830437,-0.01588628627359867,-0.036861665546894073,-0.03729153424501419,-0.014153226278722286,-0.03655528649687767,0.0445794053375721,0.03894280269742012,0.03668184205889702,-0.025629330426454544,-0.04156455025076866,-0.046659231185913086,0.01927834376692772,-0.009746541269123554,0.03702104091644287,0.03685244917869568,0.018299397081136703,-0.01933925971388817,-0.023156695067882538,-0.020533272996544838,-0.032819926738739014,-0.03586164489388466,-0.009659714996814728,0.020176909863948822,-0.047087136656045914,0.0012055423576384783,-0.04476609826087952,-0.022553637623786926,0.00760484766215086,-0.028946533799171448,0.022929999977350235,0.028643980622291565,-0.036320168524980545,-0.048236217349767685,-0.005879421718418598,0.0046083806082606316,-0.04586142301559448,0.0025923612993210554,-0.0181826613843441,-0.018465345725417137,0.04876501485705376,-0.03208281472325325,-0.018623679876327515,0.021047338843345642,-0.023436514660716057,0.029941251501441002,-0.00948182400316,-0.01340940035879612,0.04059543460607529,0.013603747822344303,-0.025304574519395828,-0.0011346116662025452,0.01873544417321682,0.04465851932764053,0.004619262646883726,0.0025082826614379883,0.017354531213641167,0.011388965882360935,0.03939692676067352,-0.0018064974574372172,-0.04720011353492737,0.023532982915639877,-0.003944780677556992,0.0252241138368845,0.015537918545305729,-0.029867466539144516,0.049567192792892456,-0.035573530942201614,-0.019336847588419914,0.034916993230581284,-0.023746933788061142,0.048879414796829224,0.009457661770284176,0.02814560756087303,-0.014834772795438766,-0.03320709615945816,0.025366589426994324,0.02912091091275215,0.030243752524256706,-0.01618550717830658,-0.025490406900644302,0.017373381182551384,0.038845401257276535,0.027060527354478836,0.0017481164541095495,0.00724779162555933,0.008244270458817482,0.04039411246776581,0.01817288249731064,0.02277456410229206,0.01171695627272129,0.031077217310667038,-0.015500175766646862,0.016287414357066154,-0.02868693321943283,-0.03964865952730179,-0.01818116381764412,-0.0456661656498909,0.007373401895165443,0.043467823415994644,0.03901544213294983,0.027674993500113487,0.0030740455258637667,-0.03989832103252411,0.001122213783673942,-0.0065949447453022,0.03978526592254639,0.003404903458431363,0.03230907768011093,-0.04484281316399574,-0.014449375681579113,0.0013728003250434995,-0.03571045398712158,0.03221438452601433,0.008944598957896233,-0.006294164806604385,0.007759301923215389,0.047635842114686966,-0.017147336155176163,0.0038404243532568216,0.04123970493674278,0.030590638518333435,0.005178089719265699,-0.009757397696375847,-0.022826794534921646,-0.005873366259038448,0.009685572236776352,-0.045885372906923294,-0.043518953025341034,-0.0058876704424619675,-0.033356066793203354,0.01843843422830105,-0.01853727363049984,0.04133779928088188,0.01602466218173504,-0.022906839847564697,0.0023963144049048424,-0.013768319971859455,0.029527081176638603,0.03288298100233078,-0.020376106724143028,0.012262022122740746,0.04125833883881569,0.029679546132683754,0.02830253727734089,0.008063443005084991,-0.00666529918089509,-0.014541189186275005,-0.0366191603243351,-0.006947289686650038,-0.03756870701909065,0.03951175883412361,-0.04039248451590538,-0.013986103236675262,0.01946723461151123,0.019044559448957443,-0.024974236264824867,-0.022248636931180954,-0.04723845794796944,-0.013189909979701042,0.02360323630273342,0.014465597458183765,0.017723390832543373,-0.008423097431659698,0.01768982969224453,0.012516324408352375,0.029438326135277748,-0.0031622634269297123,-0.015463794581592083,-0.02920929156243801,0.0035371051635593176,0.012858189642429352,0.002213808009400964,-0.008681281469762325,-0.04593069851398468,-0.04837997630238533,0.02023002877831459,0.038715507835149765,0.027935691177845,-0.025924252346158028,0.012641636654734612,-0.03768997639417648,0.006979229394346476,0.046444375067949295,0.0145834656432271,-0.033008724451065063,0.04884248226881027,0.034378062933683395,0.026497172191739082,0.03819308429956436,0.041130147874355316,0.01457640714943409,-0.016752706840634346,0.04196270927786827,0.03415209427475929,0.0016503657680004835,-0.046907372772693634,0.01808791421353817,-0.03197842091321945,-0.02158917486667633,-0.006379448808729649,-0.04002947360277176,-0.01203160174190998,-0.018876895308494568,0.03056926652789116,0.030827835202217102,-0.009173841215670109,-0.01590125635266304,0.024566512554883957,0.021262578666210175,0.027501985430717468,-0.012820170260965824,-0.00513198459520936,0.026325464248657227,-0.008113577030599117,-0.02893855981528759,0.03970355540513992,0.0015929260989651084,-0.013621995225548744,0.029299296438694,-0.025372568517923355,0.007267461158335209,0.04524310678243637,0.016256948933005333,-0.005066344980150461,-0.022670309990644455,-0.0004428949032444507,0.03002164326608181,-0.010782494209706783,-0.01846875064074993,0.04480895772576332,-0.04698966071009636,-0.007287876680493355,-0.006982934195548296,-0.04603927209973335,-0.041148751974105835,0.005995065905153751,-0.017435064539313316,0.0032758989837020636,0.008011547848582268,-0.01610935665667057,0.034886434674263,-0.02335520088672638,0.012750294990837574,0.047435976564884186,-0.020158158615231514,0.030461186543107033,0.0003485680208541453,0.035545796155929565,0.0032713988330215216,0.04628164321184158,-0.006224166601896286,-0.007372284773737192,-0.024333663284778595,-0.03624289110302925,0.03608278930187225,-0.04368874058127403,0.009470061399042606,-0.04540484398603439,-0.018547561019659042,-0.007740173023194075,-0.04067711532115936,0.03498931601643562,0.009640339761972427,0.01426685880869627,-0.03559333086013794,-0.02397644892334938,-0.007899140939116478,-0.019397087395191193,0.0055576167069375515,-0.04403015598654747,-0.026286844164133072,0.03272267431020737,-0.0030363250989466906,-0.004800035618245602,0.012020177207887173,0.024638036265969276,-0.031854260712862015,0.012165678665041924,0.027544468641281128,0.03968147933483124,-0.0046670157462358475,0.029551463201642036,0.048819757997989655,0.019909733906388283,-0.020109834149479866,0.0029579789843410254,0.0444677509367466,0.029280897229909897,0.026309465989470482,0.018925389274954796,0.02352786995470524,0.04534275457262993,-0.00500315148383379,-0.017143787816166878,0.041606806218624115,0.03462452068924904,-0.006819601636379957,0.013280809856951237,-0.00946382712572813,0.015676550567150116,0.023651808500289917,-0.005460078828036785,0.049540091305971146,0.0023168567568063736,0.03561902791261673,-0.0030243736691772938,-0.025159042328596115,0.02092297002673149,-0.023724714294075966,-0.023917725309729576,-0.021015377715229988,0.02451842650771141,0.020314792171120644,0.046444714069366455,0.0018059703288599849,-0.00940464623272419,-0.02020689658820629,-0.0019157134229317307,-0.0388827882707119,-0.0035159937106072903,0.0353357158601284,-0.013079965487122536,-0.046776216477155685,-0.04973313584923744,0.007832915522158146,0.01728551648557186,-0.013265461660921574,-0.019799616187810898,0.027972541749477386,0.020795371383428574,-0.03270513564348221,-0.038295287638902664,0.011215444654226303,0.020776918157935143,0.03324706479907036,-0.04286880046129227,0.03373826667666435,0.014697675593197346,-0.037559885531663895,0.03551265597343445,-0.013946633785963058,0.014905895106494427,0.017535392194986343,-0.0024108595680445433,0.0427672415971756,-0.01597769558429718,0.04807641729712486,0.0223624836653471,-0.021640099585056305,0.003775189397856593,-0.00008926694135880098,-0.021074285730719566,0.017102690413594246,-0.028767934069037437,-0.00951164960861206,0.028495902195572853,0.04989108070731163,0.036512017250061035,-0.023786671459674835,-0.00782624538987875,-0.014700407162308693,-0.019640440121293068,-0.03049289993941784,-0.026402268558740616,-0.04649994522333145,-0.02410530485212803,-0.04979252442717552,-0.03433191403746605,-0.014776784926652908,0.037918634712696075,0.020877791568636894,0.0025866487994790077,-0.019117671996355057,-0.01710832491517067,-0.03503734618425369,-0.03275606036186218,-0.0017525262665003538,-0.01783674955368042,0.0039046599995344877,-0.044426169246435165,-0.023830512538552284,0.02582283690571785,0.01393605675548315,-0.011467337608337402,0.041537776589393616,-0.013769032433629036,-0.03935615345835686,-0.003522346029058099,0.012059330008924007,0.008614927530288696,0.029484663158655167,-0.035754818469285965,0.01950945146381855,-0.0400465652346611,-0.04319216310977936,-0.012986202724277973,-0.01862149126827717,0.00005355545727070421,0.0015526333590969443,0.04274945333600044,0.021460579708218575,0.042500171810388565,0.04906079173088074,-0.01959225721657276,0.03875589743256569,0.015904784202575684,-0.026385147124528885,0.02477419562637806,0.010587705299258232,0.010969206690788269,-0.04680170863866806,0.00553668849170208,0.003580880118533969,-0.04790687933564186,0.038351256400346756,0.013381185941398144,0.04134032502770424,-0.008556912653148174,0.011754704639315605,0.01130772102624178,-0.049205243587493896,0.02676544524729252,-0.03590130805969238,0.024514811113476753,0.019291283562779427,-0.020589932799339294,-0.04698782041668892,-0.02048422023653984,-0.029837995767593384,-0.010105215013027191,-0.04730292037129402,0.02596615068614483,0.03424287959933281,0.019065506756305695,0.009665464982390404,-0.024004144594073296,-0.02050681598484516,-0.027104852721095085,-0.04555502533912659,-0.04532216489315033,0.012045378796756268,-0.004336406011134386,0.03122788853943348,-0.023531509563326836,-0.029777124524116516,0.01512355636805296,0.049818508327007294,0.004988799337297678,-0.02332228235900402,-0.03721647337079048,0.048121508210897446,-0.03304389864206314,-0.031916938722133636,0.02677525021135807,-0.006143610458821058,-0.006515707354992628,0.0030243825167417526,0.03333952650427818,0.03053099662065506,-0.02883070521056652,0.04950249195098877,0.04239886999130249,0.023333974182605743,0.0043780189007520676,0.009035010822117329,0.04914897680282593,0.049889858812093735,0.01064577791839838,0.04969169571995735,0.007893633097410202,-0.008218872360885143,-0.03134984150528908,-0.04245545342564583,-0.03363660350441933,0.02323133312165737,-0.0401458777487278,0.03351322561502457,-0.046245649456977844,0.0011085434816777706,0.04670345038175583,-0.029446681961417198,0.024603623896837234,0.03437831625342369,0.002186964498832822,-0.030801184475421906,-0.0033613829873502254,0.01991560496389866,0.02331036888062954,0.034643493592739105,-0.007338856812566519,0.03946980461478233,0.048565786331892014,0.02094038389623165,0.01717514917254448,-0.04184737056493759,0.01039664912968874,-0.0441453643143177,-0.0038337958976626396,0.03496398404240608,0.01619901694357395,0.002212964929640293,-0.023474402725696564,-0.01766013354063034,-0.028501080349087715,-0.04846265912055969,-0.03612944856286049,-0.016897518187761307,0.0014989847550168633,0.02220253273844719,-0.006070967763662338,-0.03393961489200592,-0.007506093941628933,-0.04138398915529251,0.01960803009569645,-0.019313015043735504,0.0403059720993042,0.04472039267420769,-0.02312217652797699,-0.04329381510615349,0.019141636788845062,0.04554000124335289,0.005254850257188082,0.005482685286551714,0.04382207244634628,0.011844764463603497,-0.02548104152083397,0.02756149135529995,0.04093564674258232,0.036449167877435684,0.04460944980382919,-0.04519592225551605,0.03490396961569786,-0.047838881611824036,0.03462108224630356,-0.0383199118077755,0.04450502619147301,0.045238032937049866,0.0073077864944934845,-0.034253913909196854,-0.0127344261854887,0.038905490189790726,0.035067055374383926,-0.012195320799946785,-0.039514318108558655,0.02428632788360119,-0.034528426826000214,-0.00752372806891799,0.003475305624306202,-0.025109054520726204,0.02454504929482937,-0.04656654968857765,0.00017669454973656684,0.00141832884401083,-0.022799929603934288,-0.04582233726978302,0.0032730314414948225,-0.031364575028419495,0.0003783244173973799,0.04915452376008034,0.031918175518512726,-0.03768312558531761,-0.013177602551877499,-0.01807696744799614,-0.01826886646449566,0.005686325486749411,-0.012525456957519054,0.01664314791560173,-0.027493586763739586,-0.047554317861795425,-0.006042107008397579,-0.018469499424099922,0.00999495666474104,-0.04646722227334976,-0.02587355673313141,0.02145807072520256,0.03467290848493576,0.04638262465596199,0.0009900531731545925,-0.024587592110037804,-0.02657151222229004,-0.0319121815264225,0.04456208646297455,0.028257060796022415,0.005227991379797459,-0.02225811406970024,-0.04639191925525665,0.04536202922463417,0.013180558569729328,-0.03530558943748474,-0.030765775591135025,-0.049782704561948776,-0.00703058997169137,-0.0024638045579195023,-0.04848269000649452,-0.003686546580865979,0.0065267193131148815,-0.01679413765668869,-0.005005351267755032,0.0398937426507473,-0.03560009226202965,0.017532294616103172,-0.023944297805428505,0.018756870180368423,-0.0017245347844436765,0.012403642758727074,-0.010853997431695461,0.03822969272732735,-0.04960743710398674,-0.023791316896677017,-0.03899235278367996,0.035633377730846405,0.008871106430888176,-0.020769989117980003,-0.0011597558623179793,-0.012125988490879536,-0.04816905036568642,-0.013529178686439991,-0.006535599008202553,0.044739577919244766,0.002983642742037773,0.031141694635152817,0.049544379115104675,-0.03968002647161484,0.024534253403544426,0.037102214992046356,0.025382239371538162,-0.016980180516839027,0.04831727221608162,-0.008720972575247288,-0.03191507235169411,0.006405232474207878,0.03239810839295387,-0.01430441066622734,0.04682745411992073,0.013489199802279472,-0.015308259986341,-0.04305075481534004,0.04203631356358528,0.005594735965132713,-0.013673612847924232,0.01585175283253193,-0.034105852246284485,0.01254577748477459,0.006197548471391201,-0.03112545982003212,0.025245685130357742,0.03907306119799614,0.026173627004027367,-0.04617389291524887,-0.0376276858150959,0.013747891411185265,-0.02102341689169407,0.02218293398618698,0.005229431204497814,0.008592267520725727,0.011103850789368153,-0.0019244021968916059,-0.037981223315000534,0.027668364346027374,-0.015996914356946945,-0.017479553818702698,0.014607258141040802,0.026010194793343544,0.030792923644185066,0.004383999388664961,-0.024738848209381104,-0.027845371514558792,0.032993681728839874,0.04471037909388542,-0.01211502030491829,0.024903729557991028,0.0326898954808712,-0.031666990369558334,-0.010714583098888397,0.016217205673456192,0.03234001621603966,-0.04544059559702873,0.013166624121367931,0.024663174524903297,0.035295553505420685,0.044442396610975266,0.01879720203578472,-0.04372609406709671,0.030635565519332886,-0.012089123949408531,-0.041059497743844986,-0.03345038369297981,-0.041821252554655075,0.027023160830140114,0.04446212202310562,0.028321217745542526,-0.028707504272460938,-0.00957302376627922,-0.04970047250390053,-0.012128734029829502,-0.020503006875514984,0.006016011815518141,0.04821879044175148,0.031131263822317123,0.008010275661945343,-0.04004161059856415,-0.012022376991808414,0.037060290575027466,-0.0323740653693676,-0.0310892965644598,0.0002457692171446979,-0.018200350925326347,0.01303214393556118,-0.003186434041708708,0.04527252912521362,0.02435566484928131,0.006127521395683289,-0.03101879358291626,-0.027026932686567307,-0.010527415201067924,-0.04818040877580643,0.013314423151314259,-0.0055721779353916645,-0.045102253556251526,-0.02145068347454071,0.018075954169034958,-0.0045909215696156025,-0.0026902600657194853,0.03467885032296181,0.008901944383978844,0.04416101798415184,0.04476556181907654,-0.018545623868703842,-0.022458184510469437,-0.019729895517230034,0.03138735145330429,-0.01939920336008072,-0.029544809833168983,0.04552295804023743,0.027470767498016357,0.04242846742272377,0.022123856469988823,-0.014723729342222214,0.047088075429201126,0.013836860656738281,0.01956864446401596,0.026953110471367836,-0.04102090001106262,-0.03741179779171944,-0.03313307464122772,0.02179935947060585,0.013967469334602356,-0.027705976739525795,0.002359165111556649,-0.030071871355175972,-0.008066536858677864,-0.015255403704941273,-0.04508448392152786,-0.03293303772807121,0.03596217557787895,0.036440685391426086,0.04450509324669838,-0.03497464582324028,-0.029304303228855133,-0.01576162315905094,-0.0016229975735768676,0.04957686364650726,0.013676478527486324,-0.045325372368097305,0.002295603509992361,-0.0000692016546963714,-0.010464267805218697,0.04852092266082764,-0.009786343201994896,-0.017762580886483192,-0.01622142270207405,-0.0022128522396087646,-0.03257608413696289,-0.00399923138320446,-0.046387679874897,-0.018885158002376556,-0.033443327993154526,-0.027271147817373276,-0.0073555768467485905,-0.0256939847022295,0.008580979891121387,0.03709850832819939,0.04416486993432045,0.04170473664999008,-0.02889934554696083,0.029543627053499222,-0.048598598688840866,0.03645496442914009,0.02107561193406582,-0.004100738558918238,-0.04139681160449982,-0.01767941564321518,-0.029241450130939484,-0.01352663990110159,-0.00550259230658412,0.04008805379271507,-0.04884172976016998,0.037721600383520126,-0.01349439937621355,0.0009750514873303473,-0.022605018690228462,-0.026623498648405075,-0.012674902565777302,-0.04479004815220833,-0.005512021481990814,-0.0020271060056984425,-0.01318193320184946,-0.03048616461455822,0.017669806256890297,-0.03324354067444801,0.047780293971300125,-0.020537344738841057,0.030559783801436424,-0.032185427844524384,0.037162844091653824,-0.04968540742993355,0.04331871494650841,0.03273428976535797,0.03180265426635742,0.031023845076560974,-0.034960173070430756,0.011733394116163254,0.0032711289823055267,0.029683183878660202,0.009752808138728142,-0.04089483991265297,0.03173493593931198,-0.03819354996085167,-0.003884735982865095,0.019153712317347527,0.0399470217525959,-0.029177136719226837,0.022990958765149117,-0.04209598898887634,0.028491728007793427,0.02456645295023918,-0.016419611871242523,-0.042029716074466705,0.025293296203017235,-0.013943248428404331,-0.014947357587516308,-0.03894047439098358,-0.012568770907819271,-0.03782469779253006,0.022296618670225143,-0.027725545689463615,-0.028296509757637978,-0.0171720702201128,-0.04104899987578392,-0.03054000809788704,-0.03877265006303787,-0.007877334952354431,0.0265484768897295,-0.017351722344756126,-0.019430961459875107,-0.04516780376434326,0.049446769058704376,0.018900588154792786,0.03155568242073059,-0.015387400984764099,-0.022119328379631042,-0.03247009590268135,-0.04591592028737068,-0.006067605689167976,-0.011218857020139694,-0.021595772355794907,0.03817550837993622,-0.02180051989853382,-0.0024932646192610264,0.004162999801337719,0.04985860735177994,-0.04967035725712776,-0.04094050079584122,-0.01748799905180931,0.009988091886043549,-0.026231778785586357,-0.03592788428068161,0.014659484848380089,-0.036539677530527115,-0.013575603254139423,-0.005001687444746494,0.0005976639222353697,0.04295830801129341,-0.03831235691905022,0.037758637219667435,-0.049933016300201416,0.0060287765227258205,-0.005182302091270685,0.03573884069919586,0.04399080574512482,0.0402294360101223,0.020561523735523224,0.025543469935655594,-0.015878187492489815,0.021090175956487656,-0.03056938946247101,-0.034656088799238205,0.025721726939082146,-0.0136796860024333,-0.01406891644001007,-0.005015630275011063,0.03236116096377373,0.018927574157714844,-0.03921596333384514,-0.03471943736076355,0.007895680144429207,-0.03515533730387688,0.02171473577618599,0.03377491608262062,0.03454378619790077,-0.013412483967840672,-0.022405769675970078,0.002816231455653906,0.036298301070928574,0.01756155490875244,-0.00024415182997472584,-0.04644768312573433,0.04388849064707756,-0.013538221828639507,-0.00045941080315969884,-0.013520866632461548,0.04908488690853119,-0.002587892347946763,0.036074116826057434,-0.04117507115006447,-0.015685928985476494,-0.016912078484892845,-0.03981027379631996,-0.01912740431725979,0.014110302552580833,0.0028910210821777582,0.043203458189964294,0.001654492923989892,0.017766712233424187,0.03730727359652519,-0.03546541556715965,0.013629917055368423,-0.039486948400735855,-0.018221594393253326,0.006319890730082989,-0.01897989958524704,0.042874325066804886,0.04776462912559509,-0.03844330087304115,-0.028896989300847054,0.012388809584081173,0.029453353956341743,-0.008733877912163734,0.03263058140873909,-0.048353411257267,0.024567214772105217,-0.03788121044635773,0.02636776491999626,0.022289853543043137,-0.02419419027864933,-0.01736040599644184,0.03629700839519501,-0.01796208694577217,0.0324738547205925,-0.044902268797159195,-0.02011667937040329,0.049224063754081726,-0.039599671959877014,0.0047310758382081985,-0.03758253529667854,-0.00922019500285387,0.04992218688130379,-0.002560187131166458,0.03527410328388214,-0.01854804903268814,0.02828928455710411,0.011405336670577526,0.007507178466767073,-0.01622358150780201,0.006667844485491514,-0.042810894548892975,0.029751494526863098,0.03619879484176636,-0.0364362932741642,0.03514393791556358,-0.024435488507151604,0.007587016094475985,0.02305625006556511,-0.026177845895290375,-0.004592228680849075,-0.029834752902388573,0.019777417182922363,0.023909274488687515,-0.02352677471935749,0.04334930703043938,-0.01823725737631321,0.03949008509516716,-0.008144797757267952,-0.00021613904391415417,-0.045946165919303894,-0.03737513720989227,0.024402612820267677,0.021773220971226692,0.017640478909015656,0.008886880241334438,0.006621678825467825,-0.013778813183307648,-0.03438800573348999,0.04718201607465744,0.04843350872397423,-0.012212594039738178,0.04008445143699646,0.015872683376073837,0.005667278077453375,0.022877927869558334,-0.04625394195318222,-0.0077292099595069885,0.013697812333703041,-0.0418439656496048,0.03267689049243927,-0.027882814407348633,-0.005034368019551039,-0.04199071601033211,0.009913074783980846,0.040319640189409256,-0.016067955642938614,0.03203559294342995,0.018853142857551575,-0.0006030546501278877,0.032390907406806946,0.04635921120643616,-0.013860959559679031,0.032640762627124786,0.03960668295621872,0.013639147393405437,-0.011428282596170902,0.019941668957471848,0.01653650403022766,0.04614295810461044,-0.047079429030418396,0.007290534675121307,0.03532307595014572,-0.03791820630431175,0.04175109043717384,0.01886473037302494,-0.040971264243125916,-0.020752204582095146,-0.047469839453697205,-0.03315398097038269,0.0011182270245626569,0.011901166290044785,-0.006838125642389059,-0.02279597893357277,0.020765621215105057,-0.016429679468274117,-0.01195345539599657,0.015017087571322918],"weightsHO":[0.04291348159313202,-0.0021785309072583914,-0.03682100027799606,-0.0007824999047443271,-0.006275460589677095,0.037043046206235886,-0.039509061723947525,-0.011312846094369888,0.03097645938396454,-0.005046321544796228,0.035440415143966675,-0.01888897456228733,-0.00549700390547514,0.01896684803068638,-0.0283223744481802,-0.03929348289966583,-0.009587773121893406,-0.003485738765448332,-0.04822338744997978,-0.03760385140776634,0.02639812044799328,-0.03982978314161301,-0.004137031268328428,-0.004981397185474634,0.03188346326351166,0.020791996270418167,-0.04810335114598274,-0.016692770645022392,-0.03637785464525223,0.01445138268172741,-0.04453429579734802,0.04757005348801613,-0.0011286671506240964,-0.01617574878036976,0.02870219759643078,0.02773011103272438,-0.010614306665956974,-0.04792708531022072,-0.041519682854413986,-0.005771453492343426,0.03221284970641136,-0.02714255265891552,-0.041836462914943695,0.04267583787441254,-0.025448670610785484,0.015222339890897274,-0.019221939146518707,-0.022688666358590126,-0.03009495511651039,-0.015569863840937614,-0.008511221036314964,0.013894874602556229,0.041167572140693665,0.03988707810640335,0.012826438993215561,-0.04703455790877342,0.03502120450139046,-0.040102485567331314,-0.0328044667840004,0.025061046704649925,0.017237022519111633,0.048118848353624344,-0.003996299114078283,-0.02675485983490944,-0.013711333274841309,-0.0388156920671463,-0.027640480548143387,0.024280495941638947,0.03094184771180153,-0.0453462190926075,-0.03034493885934353,0.04059067741036415,0.034680403769016266,-0.03505624458193779,-0.045968007296323776,0.039857517927885056,0.03315947204828262,0.012902374379336834,0.03727533295750618,-0.02187090925872326,-0.02219221740961075,-0.04059450700879097,-0.039892181754112244,0.045454252511262894,-0.016888825222849846,0.03303981199860573,-0.033196404576301575,-0.02185153029859066,0.0008462176192551851,-0.011905244551599026,-0.028231432661414146,0.041757043451070786,-0.048394836485385895,-0.0002975276729557663,0.026222284883260727,0.03021855838596821,-0.016517646610736847,0.011886668391525745,0.007047299761325121,0.03871966525912285,-0.029239675030112267,0.04475168138742447,-0.002980330493301153,0.004780387971550226,-0.0206681527197361,0.0231730155646801,0.028822245076298714,0.025106878951191902,0.026016077026724815,-0.010036022402346134,0.02030726708471775,0.012158862315118313,-0.03465285152196884,0.019374215975403786,-0.007080018520355225,0.0402773879468441,0.0021079429425299168,0.0049748411402106285,0.041899144649505615,-0.012563809752464294,-0.04367808625102043,0.004262897651642561,-0.02236325852572918,0.023014575242996216,0.022378483787178993,-0.034364424645900726,-0.013658883981406689,-0.04791289195418358,0.04067600145936012,-0.013779639266431332,0.015385295264422894,-0.015030543319880962,-0.004008966032415628,-0.014662737026810646,0.027092646807432175,-0.014848032034933567,-0.017347386106848717,0.04003753513097763,0.03535187616944313,-0.006481393240392208,-0.019656825810670853,0.006121917627751827,0.03341874107718468,0.04940522462129593,-0.04960855096578598,0.04466822370886803,0.006078869104385376,-0.020706603303551674,-0.010733704082667828,-0.017832154408097267,0.046966131776571274,0.0024021645076572895,-0.0012223003432154655,0.0001560864329803735,-0.037607789039611816,-0.012034106068313122,-0.02901371382176876,0.03263621777296066,-0.04533416032791138,0.038886431604623795,-0.024738231673836708,0.01818993128836155,-0.031511954963207245,0.01378112006932497,-0.02212921716272831,-0.015232804231345654,-0.027082297950983047,-0.04392316937446594,0.03552022948861122,-0.016726750880479813,0.011803544126451015,-0.016018394380807877,0.04864617809653282,-0.04061124846339226,-0.027215374633669853,-0.04517154395580292,-0.0266244038939476,-0.03591196611523628,-0.018130287528038025,0.005818450357764959,-0.03837881237268448,-0.03615538403391838,0.04825229197740555,0.032624971121549606,-0.03332482650876045,0.013288955204188824,0.02827775850892067,0.01693929173052311,0.017270121723413467,-0.04533885791897774,-0.014206945896148682,0.048650797456502914,0.04249158874154091,0.023109478875994682,0.03867841511964798,0.028949899598956108,-0.013072222471237183,0.046087007969617844,0.020352782681584358,-0.006532738450914621,-0.02403811737895012,-0.0009997449815273285,0.0350654236972332,0.03523702174425125,-0.023119410499930382,0.02334856055676937,0.023125937208533287,0.03930811583995819,-0.033955734223127365,-0.0370766781270504,0.003457230282947421,0.006158615928143263,0.008270783349871635,0.011434454470872879,0.006020910106599331,0.031040607020258904,0.011365304701030254,0.02939513511955738,0.00915496051311493,0.04810498654842377,-0.0032088146544992924,0.03457036241889,0.014543510042130947,0.03425144776701927,0.04929667338728905,0.03996745124459267,0.005059892777353525,0.047774191945791245,0.004386031534522772,0.027507314458489418,-0.049724385142326355,-0.039160218089818954,0.001213569543324411,0.0018538606818765402,0.005286509171128273,0.0259532667696476,-0.006790314335376024,0.024977006018161774,0.0202011875808239,0.04684443399310112,-0.04173840954899788,-0.0007056520553305745,-0.0031878934241831303,-0.03574429452419281,-0.014809059910476208,-0.01313317846506834,-0.027625475078821182,-0.03477349132299423,-0.02326004020869732,-0.04584494233131409,0.04196649417281151,0.03366129472851753,-0.04788164794445038,-0.03684360906481743,-0.029981624335050583,0.024871977046132088,-0.012239162810146809,0.031797856092453,-0.03501375392079353,-0.005537038668990135,0.03399011492729187,-0.035252220928668976,-0.024268189445137978,-0.048410698771476746,0.02048121578991413,-0.04782659187912941,0.046314600855112076,-0.014064471237361431,-0.011830022558569908,0.006774934008717537,-0.02209475450217724,-0.028152383863925934,-0.009264408610761166,0.007284483872354031,-0.012604264542460442,-0.012688570655882359,-0.038468752056360245,-0.048056431114673615,0.004978067707270384,0.00023971837072167546,-0.040767502039670944,-0.015331532806158066,-0.046224482357501984,-0.015017807483673096,-0.015523993410170078,0.03477940335869789,0.03161223232746124,-0.015304251573979855,0.0149361751973629,0.004490988794714212,-0.017881100997328758,-0.044294729828834534,-0.013683187775313854,-0.02029850333929062,0.03310485929250717,-0.03927762061357498,-0.012525802478194237,0.002057823585346341,0.03535880893468857,0.030794842168688774,0.014454885385930538,-0.027579136192798615,-0.008016396313905716,0.033896297216415405,0.04129606857895851,-0.03847254440188408,0.02891315519809723,-0.03537820652127266,0.0038020301144570112,-0.021947385743260384,0.049104955047369,0.03354402258992195,0.04475128650665283,0.03905338793992996,-0.0358043871819973,-0.01425743568688631,0.03743433579802513,-0.045755188912153244,0.00041441115899942815,0.032122984528541565,0.0013406774960458279,0.019916271790862083,0.04978487268090248,0.04122248291969299,0.04403916373848915,0.012090093456208706,0.012422429397702217,0.02337002381682396,-0.011514517478644848,-0.040838923305273056,0.03574366122484207,-0.030496930703520775,-0.02591503970324993,0.005947941914200783,-0.030133455991744995,0.004597499500960112,-0.03791327774524689,0.0443100742995739,-0.009920078329741955,0.028633741661906242,-0.029386168345808983,-0.022052422165870667,-0.030193861573934555,0.011910163797438145,-0.04148233309388161,-0.010195947252213955,0.022653160616755486,-0.043653883039951324,0.017966438084840775,-0.025925476104021072,0.039207667112350464,-0.004672507289797068,-0.04543584957718849,0.038717612624168396,0.021092873066663742,-0.03605641797184944,0.011738277040421963,0.0046948338858783245,-0.022037597373127937,0.01815303973853588,-0.001657753367908299,0.0422096885740757,-0.010473215952515602,-0.017086567357182503,0.007899816147983074,0.019798368215560913,-0.010128376074135303,0.03500891849398613,-0.012413503602147102,-0.012663103640079498,-0.03494839370250702,0.04675988480448723,0.003091708989813924,-0.032029613852500916,-0.049787454307079315,0.04952605813741684,0.007322018500417471,