{"meta":{"inputSize":14,"nodesPerLayer":128,"outputSize":6},"weightsIH":[0.8041452765464783,0.6622021794319153,0.5904221534729004,0.5538322925567627,0.8874540328979492,0.3262861967086792,0.13629277050495148,-0.13119812309741974,-0.3478091359138489,0.10519585758447647,-0.052599042654037476,0.07366901636123657,0.011692305095493793,-0.006259162910282612,0.20311644673347473,0.16949352622032166,-0.6670898795127869,-0.9164254665374756,-0.15757550299167633,0.48584461212158203,1.1703085899353027,1.9347202777862549,0.869878888130188,0.0059708585031330585,0.1363072544336319,-0.08824777603149414,0.0006085263448767364,0.04722212627530098,-0.6028205156326294,-0.5496403574943542,-0.8720337152481079,-0.889976978302002,-0.8280248641967773,-0.537200391292572,-0.7029593586921692,-0.30816853046417236,0.026725875213742256,-0.16543938219547272,0.05309524014592171,-0.018982378765940666,-0.007597287185490131,0.0566241592168808,2.027207612991333,1.9061980247497559,2.039339065551758,2.0043082237243652,1.4844486713409424,1.315558910369873,0.8653949499130249,0.6690834760665894,0.09701526910066605,0.028445180505514145,-0.03135095164179802,0.05091546103358269,-0.020069826394319534,-0.010212713852524757,1.6026676893234253,1.5595179796218872,1.781609296798706,1.7384330034255981,1.3847657442092896,1.1026395559310913,0.7751597762107849,0.6981199383735657,-0.00835195928812027,-0.043950263410806656,-0.08398940414190292,-0.030680682510137558,0.0358785018324852,0.029014183208346367,3.27767014503479,2.5890417098999023,0.752285361289978,1.2536839246749878,-0.9441787004470825,-0.4378310739994049,-2.091240644454956,-3.8320024013519287,-3.2570457458496094,-0.7326076030731201,-0.46037378907203674,-0.023639224469661713,-0.09190329164266586,-0.09953494369983673,0.2796003520488739,0.560331404209137,0.5778734087944031,0.4101189076900482,1.112308144569397,0.6372281312942505,0.824154257774353,0.8142200112342834,0.2634386122226715,0.15519635379314423,0.17327147722244263,0.06566566973924637,-0.026306042447686195,0.0606437623500824,1.8723329305648804,1.769750714302063,2.4084222316741943,2.2402589321136475,1.3038898706436157,1.199697732925415,0.1255805790424347,0.3045988082885742,0.23239213228225708,-0.1471267193555832,-0.2554698884487152,0.020742245018482208,-0.053509704768657684,-0.011754287406802177,2.7549827098846436,2.761425495147705,1.246565580368042,1.095518708229065,0.9933844804763794,0.7334681153297424,0.9220947027206421,0.9180723428726196,0.26439085602760315,0.05855581536889076,0.08391623944044113,0.021230323240160942,-0.023601634427905083,-0.003202934516593814,1.3291521072387695,1.0725834369659424,0.7955345511436462,0.7145736813545227,0.4109174311161041,0.24181602895259857,0.5458561182022095,1.1535664796829224,0.43218764662742615,0.08784117549657822,-0.10216788947582245,-0.0272169541567564,0.030907899141311646,-0.059180837124586105,-0.7277491688728333,-0.4544965624809265,-0.6014743447303772,-0.6867974400520325,-0.33852577209472656,-0.4496936500072479,0.42074188590049744,-0.005253777839243412,0.18536457419395447,0.24752449989318848,0.21871314942836761,0.018148260191082954,0.0700177252292633,0.07214032113552094,-1.744492530822754,-1.3396238088607788,-1.206796407699585,-1.418750286102295,-1.0917457342147827,-1.3238277435302734,0.7192971110343933,0.13233138620853424,-0.6942068338394165,-0.06766878068447113,0.10309917479753494,-0.023378867655992508,0.07281467318534851,-0.027246689423918724,-1.3780145645141602,-1.0030468702316284,-1.063341498374939,-1.148178219795227,-0.274785578250885,-0.4777660071849823,-0.44175082445144653,-0.8981775641441345,0.19622862339019775,0.08407426625490189,0.23333443701267242,-0.025688232854008675,0.026211116462945938,0.012864173389971256,-1.4219204187393188,-0.9369747638702393,-1.257508397102356,-1.3853474855422974,-0.45505329966545105,-0.6845929622650146,-0.35008734464645386,-0.7394994497299194,0.17231206595897675,0.17936936020851135,0.19873769581317902,0.031565744429826736,0.07262014597654343,0.01274668425321579,0.15086042881011963,0.389618843793869,0.49513116478919983,0.48271679878234863,0.6416676640510559,0.44926053285598755,1.151435375213623,0.7893220782279968,0.33652475476264954,0.04450567811727524,0.25058841705322266,0.02327747829258442,0.030427921563386917,0.012550500221550465,0.2574872672557831,0.03158130496740341,-0.207820862531662,-0.1547507494688034,-0.2406323254108429,-0.0887039303779602,-0.42493295669555664,-0.3551403880119324,-0.1140403226017952,-0.0205136276781559,-0.04378249868750572,0.021567452698946,-0.04402761161327362,-0.054948896169662476,0.3499440550804138,0.1215435117483139,1.5257729291915894,1.6587798595428467,1.0781697034835815,0.6912606954574585,0.8494220972061157,1.3911570310592651,0.544679582118988,0.10706661641597748,0.03595644608139992,0.04595458135008812,-0.015631018206477165,0.00942211039364338,1.9098701477050781,1.7121210098266602,1.1286922693252563,1.190386414527893,0.5453183650970459,0.5815232396125793,0.23799839615821838,0.9901909232139587,0.6349999904632568,0.0846036896109581,-0.02778724953532219,0.05939673259854317,0.05354738235473633,0.012218593619763851,1.4130141735076904,1.2285888195037842,0.9169092178344727,1.0758754014968872,-0.14561277627944946,0.15002839267253876,0.9486806988716125,1.8927935361862183,1.005861520767212,0.17447678744792938,0.16300077736377716,0.12523964047431946,0.08607654273509979,0.010335694067180157,1.0928189754486084,0.9268242716789246,1.128206729888916,1.0914689302444458,0.4946245849132538,0.43539711833000183,1.2565780878067017,1.475906252861023,0.8071686625480652,0.14159224927425385,0.07136976718902588,0.07490718364715576,0.006679108832031488,-0.021436691284179688,-2.068840742111206,-1.382981777191162,-0.804415225982666,-0.9795764684677124,-0.30011290311813354,-1.2790881395339966,0.35227635502815247,-0.8105098009109497,0.12716349959373474,-0.03465723991394043,0.20679600536823273,0.03347872942686081,0.0827425941824913,0.057772599160671234,-0.04191657900810242,-0.46181896328926086,-0.651475727558136,-0.4925777316093445,-0.7432277798652649,-0.369864821434021,-0.4494720995426178,0.3851257562637329,0.011767338030040264,0.07511033862829208,-0.14856618642807007,-0.02634078823029995,-0.019216647371649742,0.00871620886027813,0.04910406097769737,-0.375125914812088,-1.0070124864578247,-0.8758912086486816,-0.23012378811836243,0.07912011444568634,0.5724877715110779,1.4118311405181885,0.8739911913871765,0.3573415279388428,-0.032098524272441864,-0.019247209653258324,-0.003408651566132903,0.006118929944932461,1.7062854766845703,1.276576280593872,1.3013925552368164,1.309462308883667,1.087693452835083,1.1012697219848633,0.27896127104759216,1.6977267265319824,0.7733718752861023,0.1293131709098816,-0.1205572709441185,0.02700258418917656,-0.06682175397872925,-0.04018624871969223,3.603445053100586,2.6174817085266113,0.6479188799858093,0.5213425159454346,-0.03573627769947052,0.8819174766540527,-0.7473084330558777,2.504375457763672,1.17047917842865,0.20607644319534302,-0.16411595046520233,0.029203176498413086,-0.049578845500946045,0.006956174504011869,2.5939087867736816,2.0263638496398926,-0.3563631772994995,-0.47204238176345825,0.8479498624801636,0.6279941201210022,0.43669039011001587,2.572033166885376,1.0041686296463013,-0.02040550298988819,-0.1583467423915863,-0.053406231105327606,-0.08287078887224197,-0.03408677875995636,1.9457201957702637,1.521957516670227,1.5667040348052979,1.5925318002700806,1.140612244606018,1.4344619512557983,0.40443146228790283,1.6260380744934082,0.7063522338867188,0.016012532636523247,-0.19416652619838715,0.03896402567625046,-0.020052501931786537,0.0035705522168427706,1.4328727722167969,1.2186965942382812,1.0144786834716797,1.0465011596679688,0.6017618179321289,0.44017571210861206,-0.02371668815612793,0.2806966304779053,0.9415956735610962,0.15631432831287384,0.0383518785238266,0.016919467598199844,0.03611893951892853,0.021626729518175125,1.434128761291504,1.3324038982391357,1.2603198289871216,1.1790416240692139,1.1864731311798096,0.632377564907074,0.6256038546562195,1.2461000680923462,0.40317389369010925,-0.000056149481679312885,-0.006909404881298542,-0.017096301540732384,-0.03579090163111687,0.0449322834610939,1.2614870071411133,1.1356396675109863,1.1637554168701172,1.0934866666793823,1.159132719039917,1.104818344116211,1.1614949703216553,1.4563182592391968,0.49781927466392517,0.04524318128824234,0.043968651443719864,-0.03414709120988846,0.025320427492260933,0.00484821293503046,0.09493925422430038,-0.06039966270327568,0.21431192755699158,0.18492653965950012,0.057195503264665604,0.42371153831481934,0.4197579622268677,0.5957967638969421,0.510601818561554,0.22242310643196106,-0.049581993371248245,-0.0460234135389328,0.022384366020560265,0.03139764070510864,0.500041127204895,-0.1249348521232605,-0.19101262092590332,-0.038194384425878525,-1.2584220170974731,-0.8519137501716614,-0.5743202567100525,-0.14910228550434113,0.3035810887813568,0.12178786844015121,-0.21205420792102814,-0.042746398597955704,-0.068370021879673,-0.07653661072254181,0.3357282280921936,0.31798070669174194,-0.6201590299606323,-0.5524359941482544,-0.8393037915229797,-0.4888887405395508,-0.660827100276947,-0.8520217537879944,-0.3295544981956482,-0.05421197786927223,-0.044097043573856354,0.054985713213682175,0.03533397987484932,-0.0023052047472447157,0.43144476413726807,0.12579813599586487,0.06856382638216019,0.22652998566627502,-0.6091947555541992,-0.2210763543844223,-0.8024048209190369,-0.40326040983200073,0.02228504791855812,-0.048324115574359894,-0.1297236680984497,-0.05825533717870712,-0.05130314081907272,-0.0653427243232727,0.47600826621055603,0.252032995223999,0.34326431155204773,0.3982982635498047,-0.25584423542022705,-0.22612081468105316,-0.2561018466949463,-0.11018092930316925,0.12247639149427414,-0.021375838667154312,-0.15460290014743805,-0.03998129442334175,-0.005826111417263746,-0.00281902845017612,1.380659580230713,1.0504385232925415,1.1618854999542236,1.311362624168396,0.7892993092536926,1.229567050933838,0.8486154079437256,1.169808268547058,0.46146905422210693,-0.014727283269166946,-0.17482402920722961,-0.022812601178884506,0.01940709352493286,-0.04284973442554474,1.5488677024841309,1.2072845697402954,0.7031651735305786,0.9036477208137512,0.7289375066757202,1.0519086122512817,1.0370547771453857,0.976887047290802,-0.2681382894515991,-0.0031265777070075274,-0.08602195978164673,0.020037949085235596,-0.04140150547027588,-0.0053556859493255615,-0.04260009154677391,-0.41336652636528015,-0.5376925468444824,-0.5159818530082703,-0.7439829707145691,-0.19187837839126587,-1.2659249305725098,-0.7647130489349365,-0.24091236293315887,-0.09731708467006683,-0.22290676832199097,-0.07232912629842758,-0.0013506027171388268,-0.07827958464622498,0.722269594669342,-0.07174166291952133,0.3769964575767517,0.626763105392456,-0.9173696637153625,0.21198059618473053,-0.10255486518144608,0.5417184829711914,-0.25269097089767456,0.206370010972023,-0.285544753074646,-0.029075730592012405,-0.07126379013061523,-0.08794281631708145,1.1781160831451416,0.713394284248352,1.0959937572479248,1.3545383214950562,0.5817579030990601,0.9191427230834961,0.5456914901733398,0.967790424823761,0.39288973808288574,-0.06954868137836456,-0.09422669559717178,-0.010156521573662758,-0.0837739035487175,-0.048007264733314514,-0.43773892521858215,-0.614031195640564,-0.7296251654624939,-0.6578478813171387,-0.6186916828155518,-0.28903257846832275,-0.8459894061088562,-0.9107032418251038,-0.4851037859916687,0.01596573181450367,-0.031437717378139496,0.00506602181121707,0.027663912624120712,0.016436360776424408,-1.2248700857162476,-1.1325405836105347,0.18939252197742462,0.12237625569105148,-0.3823515474796295,-0.3281990587711334,-0.4548368453979492,-0.6633784174919128,-0.34246012568473816,0.13777250051498413,-0.020414182916283607,-0.024347908794879913,-0.010253244079649448,-0.023340700194239616,1.2622824907302856,0.9464263319969177,0.9372541904449463,1.0357177257537842,0.9295575618743896,0.9857237935066223,0.4934617877006531,0.751221776008606,0.2714124023914337,0.02903248555958271,-0.09396233409643173,-0.011794774793088436,0.020163971930742264,-0.06287791579961777,1.9099596738815308,1.4131736755371094,1.8726590871810913,2.1621196269989014,1.2003412246704102,1.6919190883636475,-1.2666585445404053,-0.7724215984344482,0.9260917901992798,0.0881291851401329,-0.2557615339756012,-0.062147948890924454,-0.05519485846161842,-0.05512809380888939,-0.8980294466018677,-0.8592702150344849,-0.4693854749202728,-0.43736031651496887,-0.6128867864608765,-0.23862917721271515,-0.24836747348308563,-0.47744542360305786,0.07517330348491669,0.07869423925876617,0.0008077137172222137,0.06298001110553741,0.01700369268655777,0.023334907367825508,-0.5560646057128906,-0.6140058040618896,-0.6175085306167603,-0.5904151201248169,-0.8384472131729126,-0.5608211159706116,-0.361368864774704,-0.3325253427028656,-0.29521870613098145,0.0649830624461174,-0.07138533890247345,0.006423743441700935,0.0012821881100535393,-0.005618509370833635,-0.7266290783882141,-1.067566990852356,-0.8047721982002258,-0.6538097262382507,-1.4536362886428833,-0.499208927154541,-1.1234464645385742,-0.8630809187889099,-0.40115031599998474,-0.05428145453333855,-0.16197578608989716,0.019003568217158318,-0.045526523143053055,-0.0557212196290493,-0.08671828359365463,-0.7046506404876709,-0.8634589314460754,-0.717147171497345,-1.2249927520751953,-0.07356750220060349,-1.3944417238235474,-1.2863653898239136,-0.6006209254264832,-0.1355714648962021,-0.26906922459602356,-0.06887581199407578,-0.018997330218553543,-0.030123049393296242,-0.6385016441345215,-1.0680822134017944,1.4726431369781494,1.6084480285644531,1.2420446872711182,1.9250355958938599,1.144258737564087,1.6659902334213257,0.47724199295043945,-0.1814555674791336,-0.2756011486053467,-0.032757073640823364,-0.11591780185699463,-0.017864972352981567,1.6600029468536377,1.1214178800582886,1.4757012128829956,1.6052629947662354,0.046339284628629684,0.33570346236228943,0.3182227313518524,1.0014317035675049,0.3029223382472992,-0.08498208224773407,-0.29795199632644653,-0.07970602810382843,-0.027829794213175774,-0.02018515206873417,-0.8413128852844238,-1.0485460758209229,-0.8321732878684998,-0.7474536895751953,-0.5102048516273499,-0.3371233344078064,-0.6631377339363098,-0.6004629135131836,-0.20278723537921906,-0.017332153394818306,-0.17410141229629517,-0.05209647864103317,-0.05842845141887665,0.020650485530495644,-0.9603819251060486,-0.7090429663658142,-0.665627121925354,-0.7201870083808899,-0.7104026675224304,-0.7843363881111145,-0.6578641533851624,-0.7970319986343384,-0.10097727179527283,0.03368155658245087,0.09453625231981277,0.0002712820714805275,0.0358424112200737,0.022090788930654526,1.508137822151184,0.9332520365715027,1.1264387369155884,1.2972042560577393,1.145432472229004,1.792489767074585,0.5889512300491333,1.0190725326538086,-0.41793206334114075,-0.05322755500674248,-0.19909168779850006,-0.02867351472377777,-0.05473361909389496,0.00023651798255741596,-0.5427939295768738,-0.8069867491722107,-0.707780659198761,-0.6153799295425415,-0.8981031179428101,-0.5397986769676208,-0.7359011173248291,-0.4657911956310272,-0.19492991268634796,-0.03444889932870865,-0.12015461176633835,-0.05727968364953995,-0.043104831129312515,-0.012255659326910973,0.2547031044960022,0.2246134877204895,0.17850057780742645,0.25928011536598206,0.1901189684867859,0.20534652471542358,0.3171004056930542,0.24893790483474731,0.10022560507059097,0.026390813291072845,-0.02180941216647625,0.021913783624768257,-0.042650092393159866,0.04306495189666748,1.1302618980407715,0.6703805327415466,0.8183058500289917,0.9332931637763977,0.4154895544052124,0.8806481957435608,0.2679070830345154,0.8433312177658081,0.40466949343681335,0.03139272704720497,-0.17405077815055847,0.011647431179881096,-0.0701749175786972,-0.022727500647306442,-0.4583277404308319,-0.6217629313468933,-0.9886701107025146,-0.8702523708343506,-0.919583261013031,-0.4395669400691986,-0.6866955161094666,-0.41096359491348267,-0.07178652286529541,0.015537374652922153,-0.16059088706970215,-0.01947414129972458,-0.030886158347129822,0.0231236070394516,-0.1153038889169693,-0.5597892999649048,-0.38176992535591125,-0.3149012327194214,-0.3887130618095398,0.10422184318304062,-0.23212504386901855,-0.25447002053260803,0.04186087101697922,-0.09147685021162033,-0.2553882896900177,-0.015323479659855366,-0.07203324884176254,-0.07641854882240295,-1.2769744396209717,-0.9396608471870422,-1.2881829738616943,-1.2692248821258545,-0.8648901581764221,-1.1361943483352661,-0.6455967426300049,-0.8998504281044006,-0.3951796889305115,-0.04743051901459694,0.13618049025535583,-0.020963793620467186,0.0012433456722646952,0.07016494125127792,-2.4676146507263184,-1.6332019567489624,-2.0629324913024902,-2.3945605754852295,-1.0424063205718994,-1.6648136377334595,1.5658924579620361,1.2131849527359009,-1.0350066423416138,-0.10932570695877075,0.2678811252117157,0.04420972242951393,0.10165689140558243,0.06978512555360794,-1.8647806644439697,-1.3001494407653809,-1.3916667699813843,-1.4598493576049805,-0.43691837787628174,-0.8948904871940613,-0.3930330276489258,-1.062728762626648,-0.5179259777069092,-0.005010369699448347,0.1941528469324112,0.04220281168818474,0.08726311475038528,0.08233138173818588,-1.7068246603012085,-1.2927097082138062,-1.1833683252334595,-1.239605188369751,-0.5699947476387024,-0.869468092918396,-0.536146342754364,-1.0320918560028076,-0.49777382612228394,-0.05540882423520088,0.13311578333377838,-0.03317173942923546,0.030533600598573685,-0.019337691366672516,1.1148111820220947,1.3739395141601562,1.1089468002319336,1.1133424043655396,2.5834879875183105,0.7316956520080566,2.067394256591797,1.4983582496643066,0.5240174531936646,0.016264984384179115,0.23306232690811157,0.032194677740335464,0.0876334011554718,0.02317635715007782,0.7630924582481384,1.0663162469863892,1.7428028583526611,1.78487229347229,2.103074550628662,0.4261711835861206,1.9084409475326538,1.5241962671279907,0.4759564995765686,0.016295285895466805,0.29466500878334045,0.04925006628036499,0.02085314877331257,0.08569302409887314,-0.7887431383132935,-1.0650913715362549,1.7003231048583984,1.8934170007705688,0.7678247690200806,1.2251269817352295,0.29182955622673035,0.882537841796875,0.5762332677841187,-0.024996129795908928,-0.2661285698413849,-0.055332377552986145,-0.021199451759457588,-0.06577786803245544,-1.1528257131576538,-0.669654130935669,-1.3755912780761719,-1.5393714904785156,-0.681724488735199,-0.7040030360221863,-0.2645438611507416,-0.6216259002685547,-0.31919485330581665,0.02455470897257328,0.178773894906044,0.05787895619869232,0.045448947697877884,0.00444045290350914,-1.2492963075637817,-1.070831060409546,-1.1823903322219849,-1.2173155546188354,0.8117830157279968,0.6787235140800476,-0.5761417746543884,-0.8956858515739441,-0.5557888746261597,0.014905048534274101,-0.0017288335366174579,0.006520198192447424,0.033196937292814255,-0.02688738889992237,-0.7720062136650085,-0.45064467191696167,-0.8350645899772644,-0.9287648797035217,-0.49429622292518616,-0.5569952130317688,-0.9274685978889465,-1.2055588960647583,-0.3014560043811798,0.024037547409534454,0.06946194171905518,-0.0027099756989628077,0.03765061870217323,0.026659132912755013,-1.033932089805603,-0.9528763890266418,-0.8191601634025574,-0.825217604637146,-0.9253294467926025,-0.5778374075889587,-0.8985859751701355,-0.9352409839630127,0.04827021807432175,-0.03950043022632599,-0.04287801310420036,-0.039623189717531204,-0.03462773188948631,-0.0016525161918252707,-0.043225646018981934,-0.05779142677783966,-0.26993441581726074,-0.26286637783050537,-0.42044106125831604,-0.23515771329402924,-0.1743791699409485,-0.10483726859092712,-0.17891810834407806,-0.041313063353300095,-0.11039119213819504,-0.015496566891670227,-0.05016348510980606,-0.009614966809749603,0.4265117049217224,0.6819273233413696,0.78746098279953,0.8216707110404968,1.3532562255859375,0.746445894241333,-0.18000034987926483,0.13350272178649902,0.11658193171024323,-0.12444518506526947,0.0558166429400444,0.0470147430896759,-0.0414457842707634,0.05419055372476578,-0.6535993814468384,-0.7348019480705261,-0.9300902485847473,-0.9349472522735596,-1.2392197847366333,-0.7816320061683655,-1.277833104133606,-0.8511218428611755,-0.4354732632637024,-0.1530427634716034,-0.09162373095750809,-0.024332895874977112,-0.0781308114528656,0.01269586756825447,-0.6802839040756226,-0.7835460305213928,-0.9816223382949829,-1.0073696374893188,-1.4956624507904053,-0.8424026966094971,-1.2459425926208496,-0.9994539618492126,-0.4525947868824005,0.016356883570551872,-0.152573823928833,-0.09779096394777298,-0.09301898628473282,-0.07741007953882217,-2.3394250869750977,-1.7884066104888916,1.1149530410766602,1.0471781492233276,-1.2703198194503784,-1.7903307676315308,-0.8463566899299622,-1.417046308517456,-0.4530627131462097,0.05547994002699852,0.0937078520655632,-0.03629440814256668,0.046131815761327744,0.03351479396224022,-1.1329714059829712,-0.9807515740394592,-1.0232322216033936,-0.9973581433296204,-1.028769850730896,-0.8500903844833374,-0.9032722115516663,-0.8937293887138367,-0.3076653778553009,0.012583552859723568,-0.01188755314797163,0.011177579872310162,0.05777369812130928,-0.011466470547020435,-1.6461422443389893,-1.2523577213287354,-1.8621902465820312,-1.936755657196045,-0.8455638885498047,-0.8459181189537048,0.567855954170227,0.6436241269111633,-0.6469272375106812,-0.1003556102514267,0.08689568191766739,0.029390383511781693,-0.0011601034784689546,0.027434000745415688,-1.6227890253067017,-1.049737811088562,-1.3434784412384033,-1.4058282375335693,-0.6085425019264221,-1.1789532899856567,-0.39969003200531006,-1.0865248441696167,-0.45136892795562744,-0.015441552735865116,0.13114242255687714,0.015087112784385681,-0.0008372509619221091,0.01862909458577633,-1.2070035934448242,-0.9242182374000549,-1.5084218978881836,-1.5455832481384277,-0.710279643535614,-0.5524728298187256,-0.7822695374488831,-1.0487632751464844,-0.45088180899620056,-0.04878678917884827,-0.03921189904212952,-0.0035103135742247105,0.05025177821516991,-0.013279173523187637,-0.20069141685962677,-0.22957853972911835,-0.20702898502349854,-0.16147133708000183,-0.2488347440958023,-0.17288899421691895,-0.4504786729812622,-0.21992062032222748,-0.18841764330863953,-0.0026257021818310022,-0.13127338886260986,-0.016884198412299156,0.013588504865765572,-0.016362177208065987,0.8137086033821106,1.201963186264038,1.7249391078948975,1.7554727792739868,2.3752167224884033,0.7075210809707642,1.5850348472595215,1.2281492948532104,0.5134224891662598,0.054527055472135544,0.09142792969942093,-0.06488581746816635,0.07716488093137741,-0.021607855334877968,-0.13442462682724,-0.16397278010845184,-1.1139650344848633,-1.0509692430496216,-1.1618897914886475,-0.7261655926704407,-1.0153988599777222,-0.7845145463943481,-0.23051442205905914,-0.06851081550121307,-0.10639412701129913,-0.057796407490968704,-0.07219568639993668,-0.078017957508564,-1.4828417301177979,-0.7265986800193787,-1.1917855739593506,-1.4772180318832397,-0.23253856599330902,-1.0491502285003662,-0.496768593788147,-1.299792766571045,-0.2742455005645752,-0.042808711528778076,0.20008929073810577,0.004449894651770592,0.006393990013748407,-0.004387404769659042,-1.099552869796753,-0.7803709506988525,-0.6562255024909973,-0.6888970136642456,0.30651021003723145,0.1310524344444275,-0.798870325088501,-1.2502853870391846,-0.3319408893585205,-0.05459896847605705,0.036091148853302,-0.028467880561947823,-0.005132258404046297,-0.013928228057920933,-0.4013999104499817,-0.4866848587989807,-0.6495471000671387,-0.6379979252815247,-0.913966715335846,-0.7026396989822388,-0.6339980959892273,-0.43114519119262695,-0.2945738136768341,-0.1143411323428154,-0.10440155863761902,-0.03395066037774086,0.01170151773840189,-0.05814637988805771,-0.4763573408126831,-0.795289933681488,-0.21252945065498352,-0.1286904662847519,-0.802527129650116,-0.15226349234580994,-0.9188770651817322,-0.5560550689697266,-0.2301659733057022,0.01578500308096409,-0.12557488679885864,-0.029236968606710434,-0.005673368461430073,-0.08047964423894882,-0.17499692738056183,-0.5976923108100891,-0.3718075752258301,-0.3094079792499542,-1.085479974746704,-0.3456072509288788,-1.0041166543960571,-0.572264552116394,-0.31736981868743896,-0.02090080827474594,-0.11423797160387039,-0.03789803013205528,-0.011404262855648994,0.021654268726706505,0.41785570979118347,0.9281450510025024,1.0549192428588867,1.1640716791152954,2.3908638954162598,0.6850617527961731,1.209860920906067,0.6844406723976135,0.4873751401901245,0.09482454508543015,0.23441942036151886,0.0391528457403183,0.0028762670699507,0.03192279860377312,-1.2102446556091309,-0.5810787081718445,-1.1115422248840332,-1.1903643608093262,-0.0620216429233551,-0.5664096474647522,-0.17460952699184418,-1.1690369844436646,-0.18478673696517944,0.036561839282512665,0.2269517481327057,-0.014522460289299488,0.03465769812464714,0.019934674724936485,-0.39318352937698364,-0.5044287443161011,-0.4793168902397156,-0.47987744212150574,-0.5496078729629517,-0.20456059277057648,-0.921897828578949,-0.5336597561836243,-0.11600307375192642,0.08850277215242386,-0.12588728964328766,-0.05100149288773537,0.013600269332528114,-0.0014602390583604574,-0.45704206824302673,-0.46487030386924744,-0.08622293174266815,-0.06191278621554375,-0.7229233384132385,-0.5375819206237793,-0.8672756552696228,-0.8729164600372314,-0.30169883370399475,-0.016930708661675453,-0.06715286523103714,-0.002938848454505205,0.0044049546122550964,-0.0019660780671983957,-0.3756862282752991,-0.45596805214881897,-0.627149760723114,-0.5585833191871643,-0.8221594095230103,-0.5410231947898865,-0.7138699889183044,-0.535933792591095,-0.31932103633880615,-0.05605977401137352,-0.09351354092359543,-0.024466833099722862,-0.07486042380332947,-0.018047111108899117,-3.4280412197113037,-1.3677845001220703,-0.1019517183303833,-0.040667302906513214,1.4389806985855103,0.07568792998790741,2.409165143966675,2.0099809169769287,-0.9710713624954224,0.1757839322090149,0.3965544104576111,0.016251277178525925,0.09253352880477905,0.12656603753566742,-1.6377582550048828,-0.7855059504508972,-0.7337397933006287,-0.8253771066665649,-0.3717426359653473,-0.5264930129051208,-0.5989538431167603,-1.261162281036377,-0.2925477623939514,0.08580133318901062,0.32544076442718506,0.07111930847167969,0.043202705681324005,0.07515904307365417,-0.5214638710021973,-0.9190783500671387,-0.7707417011260986,-0.6738356351852417,-0.8463863730430603,-0.36596110463142395,-0.6266946196556091,-0.41960325837135315,-0.3664512038230896,-0.1603005826473236,-0.07258710265159607,0.01269534882158041,0.023372981697320938,0.016821909695863724,1.229123592376709,1.548099160194397,1.440325140953064,1.4591364860534668,1.8414204120635986,0.7455185055732727,1.4473119974136353,1.1359257698059082,0.43738096952438354,0.00043820543214678764,0.11250187456607819,-0.060399483889341354,0.06616871058940887,0.017718475311994553,0.9670782089233398,1.3172718286514282,1.7541699409484863,1.6348814964294434,1.8689570426940918,0.8365551829338074,1.3893100023269653,1.1115684509277344,0.5908176302909851,-0.09363021701574326,0.18435662984848022,-0.05048459768295288,-0.01533232070505619,0.06783775240182877,-1.7759829759597778,-2.273056983947754,1.0334115028381348,1.262351632118225,-0.4249939024448395,0.5408787131309509,0.28470948338508606,2.150987148284912,0.423153281211853,-0.23477692902088165,-0.343213826417923,-0.07738333195447922,-0.07787436246871948,-0.05868735536932945,0.5898978114128113,-0.04861263558268547,-0.23053336143493652,-0.09892001003026962,-0.6006121635437012,0.03311662748456001,-0.3451492488384247,0.6778134107589722,-0.030543003231287003,-0.14916665852069855,-0.21034236252307892,-0.002213818021118641,-0.009211879223585129,-0.021124333143234253,0.07956758141517639,-0.04046722874045372,-0.3804757595062256,-0.25837457180023193,-0.17840945720672607,0.07175630331039429,-0.23499469459056854,-0.030948728322982788,-0.010305508971214294,0.01660919561982155,-0.04145508259534836,0.00984900537878275,0.03504330664873123,0.04247031733393669,-0.38635754585266113,-0.48633113503456116,-0.6024600863456726,-0.44259700179100037,-0.3994233012199402,-0.1257411241531372,-0.3234401345252991,-0.08344973623752594,-0.11904055625200272,-0.07129114121198654,-0.04615889489650726,0.06868455559015274,0.0009623203659430146,0.02764742448925972,0.9329912662506104,0.1617673635482788,0.3304688632488251,0.5500615239143372,-0.6186996102333069,0.14252987504005432,0.08835677057504654,0.6516702175140381,-0.41283899545669556,0.08031120896339417,-0.1888258159160614,-0.013970009051263332,-0.08549060672521591,-0.05290764942765236,-0.39797791838645935,-0.7511364817619324,-1.025077223777771,-0.922132134437561,-1.5435147285461426,-0.6791462898254395,-1.1629012823104858,-0.8369907140731812,-0.28653404116630554,0.011326879262924194,-0.10833865404129028,-0.03700986132025719,-0.06811363250017166,-0.03675452619791031,-0.4465278685092926,-0.7047799229621887,-0.7693849802017212,-0.7176684737205505,-1.1632795333862305,-0.6218596696853638,-1.042287826538086,-0.7505086064338684,-0.29831942915916443,-0.06973623484373093,-0.020883062854409218,-0.031192654743790627,-0.06302160769701004,-0.0492858923971653,-0.764911413192749,-0.5368058085441589,-0.8719911575317383,-0.795796275138855,-0.6837143898010254,-0.3915237784385681,-0.3606933355331421,-0.8154327273368835,-0.4663234055042267,-0.011172929778695107,0.09222609549760818,0.02648978680372238,-0.007432833313941956,-0.018146606162190437,2.6201789379119873,1.365786075592041,0.754011869430542,0.9069766998291016,-0.9757600426673889,-0.2168809473514557,-0.17399391531944275,1.2525521516799927,0.1401437222957611,0.003365364158526063,-0.3770392835140228,-0.04992982745170593,-0.10769747197628021,-0.05336474999785423,-0.8200021982192993,-0.7857008576393127,-0.23933693766593933,-0.20801156759262085,-0.7631915807723999,-0.37446942925453186,-0.39848530292510986,-0.756594717502594,-0.3913821876049042,0.008564264513552189,-0.003454870544373989,-0.017655355855822563,0.03625970333814621,0.02525877021253109,0.09678636491298676,-0.2622392177581787,-0.6643291711807251,-0.4606308937072754,-0.24098257720470428,0.13863562047481537,-0.477504700422287,-0.04339774698019028,-0.29885053634643555,-0.03669876977801323,-0.18396489322185516,-0.052793875336647034,-0.0871480256319046,-0.0525614470243454,0.0796842873096466,-0.5473403334617615,-0.20287474989891052,-0.1820191591978073,-0.6119951605796814,0.26092663407325745,-1.4254965782165527,-1.1616814136505127,0.07983643561601639,-0.14780527353286743,-0.12035904079675674,0.011293524876236916,-0.032531674951314926,-0.009658919647336006,-0.37951573729515076,-0.5271689295768738,-0.4347381591796875,-0.2889484167098999,-0.5193270444869995,-0.2646271288394928,-0.5044993758201599,-0.30807897448539734,-0.12059464305639267,-0.047448378056287766,-0.08033203333616257,-0.06976693123579025,-0.019353413954377174,-0.029118230566382408,-0.22497999668121338,-0.17468388378620148,-0.25762689113616943,-0.18050049245357513,-0.14639537036418915,-0.1400700807571411,-0.31320881843566895,-0.4687088429927826,-0.13305212557315826,-0.0027681244537234306,-0.02637641131877899,-0.005913046654313803,-0.02022245153784752,0.010981056839227676,0.7740651369094849,0.9402719736099243,0.7314033508300781,0.7150425910949707,1.2256594896316528,0.5640159249305725,1.00223970413208,0.8843396306037903,0.3953762948513031,0.0739937350153923,0.049083076417446136,0.008876071311533451,-0.0019277487881481647,0.017677094787359238,0.22629407048225403,0.22144220769405365,0.08848171681165695,0.028010321781039238,0.08618319034576416,0.11372093856334686,0.16438105702400208,0.05675584450364113,0.10085026174783707,0.022356150671839714,0.009406558237969875,0.016616802662611008,-0.03890332579612732,-0.011064302176237106,-0.5032722353935242,-0.7546798586845398,-0.4414033591747284,-0.35921454429626465,-1.1801611185073853,-0.5522554516792297,-0.6178449392318726,0.5903499126434326,0.1854885220527649,-0.02014545537531376,-0.18332524597644806,-0.02817748673260212,-0.056156374514102936,-0.03423463925719261,-1.0150917768478394,-0.5006117224693298,-0.9950706958770752,-1.031855821609497,0.09292791783809662,-0.03380401432514191,-0.6386616230010986,-1.0674066543579102,-0.3790293335914612,0.10596057772636414,0.18175935745239258,0.06838133931159973,0.029506957158446312,0.07341592013835907,0.46862924098968506,-0.13961338996887207,-0.20273955166339874,-0.17351217567920685,-1.1723918914794922,-0.5740364789962769,-0.4488867521286011,0.6793030500411987,0.1095084622502327,-0.06163822486996651,-0.15644438564777374,-0.039626188576221466,-0.05021192505955696,-0.009743088856339455,-0.028315242379903793,-0.3174196481704712,-0.04726611450314522,0.10230834782123566,-0.3876149654388428,-0.07639455795288086,-0.4844683110713959,-0.09283121675252914,-0.08018636703491211,0.05951855704188347,-0.04187747836112976,-0.03750348836183548,-0.0016557287890464067,-0.040078092366456985,-0.8768866658210754,-0.7016111016273499,-0.07673507183790207,-0.02382933907210827,0.1109650507569313,-0.0009626704268157482,-0.5171606540679932,-0.8452419638633728,0.20846185088157654,-0.009833882562816143,0.06570818275213242,-0.029835563153028488,-0.02529204823076725,-0.03162768855690956,0.6822007894515991,1.0644677877426147,0.8722941875457764,0.8432444930076599,1.5529725551605225,0.6910222172737122,1.2562483549118042,0.7412470579147339,0.42226824164390564,0.03344244137406349,0.09745565801858902,0.015420898795127869,0.009058119729161263,0.05997035652399063,-0.43603765964508057,-0.6938096284866333,-0.8086724877357483,-0.7899162173271179,-1.3328399658203125,-0.5583413243293762,-1.1450347900390625,-0.8222072720527649,-0.4383013844490051,-0.014218777418136597,-0.1612071543931961,-0.04175953194499016,-0.027227630838751793,-0.01448669284582138,-2.4077184200286865,-1.5099704265594482,-1.06242835521698,-1.0496041774749756,0.3865482211112976,-0.3455575704574585,-0.049969274550676346,-1.4849077463150024,-0.3433404862880707,0.027574686333537102,0.35444220900535583,0.03166341036558151,0.060408975929021835,0.04708096757531166,-1.5947779417037964,-1.0922932624816895,-0.6232143044471741,-0.5870622992515564,0.2365795522928238,0.07129015028476715,-0.1999049037694931,-0.8623290657997131,-0.12047718465328217,0.24480754137039185,0.227370485663414,0.034537605941295624,0.05370365455746651,0.09098546206951141,-1.0911341905593872,-0.23753578960895538,1.6645829677581787,1.5798038244247437,-0.2565683126449585,-0.6727634072303772,-0.5453842282295227,-1.8758889436721802,-0.9490159749984741,0.011731200851500034,0.30434945225715637,0.06027742102742195,0.11074198782444,0.09203233569860458,-1.1331987380981445,-0.10938117653131485,-0.5713533759117126,-0.6652085781097412,0.11148752272129059,-0.746954083442688,-0.04198398441076279,-1.3989711999893188,-0.4843280613422394,0.17933334410190582,0.22235941886901855,0.05180106312036514,0.10283324122428894,0.015192114748060703,1.2071425914764404,0.44469553232192993,0.4581379294395447,0.520057201385498,-0.13736402988433838,0.43369412422180176,-1.2133564949035645,-1.0556800365447998,0.4312807619571686,-0.03649390488862991,-0.23287458717823029,-0.0886339545249939,-0.07641282677650452,-0.09239660948514938,0.9955025911331177,0.26798373460769653,0.09898816049098969,0.15353545546531677,-0.7129945158958435,0.07163908332586288,-0.1240498349070549,0.9215232729911804,0.00804881937801838,-0.1258862316608429,-0.30587896704673767,-0.04423949494957924,-0.09364067763090134,-0.050560519099235535,-1.3787387609481812,-0.5346701741218567,-0.7358826994895935,-0.733658492565155,-0.07682246714830399,-0.6247605085372925,-0.3440338969230652,-1.1723326444625854,-0.6388812065124512,0.10500701516866684,0.2263476550579071,0.0856904685497284,-0.00010402869520476088,0.0053313602693378925,-0.10825047641992569,-0.04375792667269707,-0.07437156140804291,-0.060736462473869324,0.1903744488954544,0.2826651930809021,0.013789108954370022,0.04792429134249687,0.10691320151090622,0.043305832892656326,0.0062369429506361485,0.030094420537352562,-0.028947457671165466,-0.000013938976735516917,0.6654036045074463,1.0646581649780273,1.693514108657837,1.6184184551239014,1.2881319522857666,0.40187567472457886,1.415145993232727,1.1240661144256592,0.5148428082466125,-0.03853202238678932,0.17750154435634613,-0.018176741898059845,0.02174535021185875,0.054954349994659424],"weightsHO":[4.7256178855896,-3.879728317260742,-0.8502764105796814,12.655035972595215,4.640837669372559,15.183526039123535,4.594398021697998,19.196300506591797,19.75168228149414,5.8823089599609375,-0.12825191020965576,-2.461466073989868,-2.026276111602783,-3.2623531818389893,-4.962343215942383,0.3803548514842987,8.616897583007812,9.689223289489746,13.162588119506836,11.440361976623535,-2.1632039546966553,5.125558853149414,6.254560470581055,14.919157981872559,28.114946365356445,16.1332950592041,15.925756454467773,5.721613883972168,12.0724515914917,10.43351936340332,5.4776997566223145,6.14784574508667,-2.892472982406616,-3.9616587162017822,-2.4245848655700684,0.4474262595176697,-1.2967427968978882,2.894531011581421,2.1737470626831055,-3.784580707550049,-4.806050777435303,-3.4272878170013428,-3.6146552562713623,-1.3086909055709839,-3.402272939682007,-2.569434881210327,4.339460372924805,7.085811614990234,0.025683319196105003,-2.2248475551605225,-3.1638925075531006,-0.832467257976532,-0.44350337982177734,2.1222856044769287,-1.8529558181762695,-2.122546911239624,-2.343921661376953,-3.6855108737945557,-2.404473304748535,-5.416019439697266,-3.7210161685943604,-3.4040472507476807,-18.010347366333008,-25.209087371826172,-0.09633186459541321,-2.63849139213562,-2.7353053092956543,-2.588301658630371,-3.438100814819336,-2.4002203941345215,-10.370514869689941,-3.5559942722320557,-4.452200889587402,-2.8379898071289062,-2.969207525253296,-4.40755033493042,-3.358508586883545,-4.128824234008789,-2.1515614986419678,-25.419363021850586,-2.277097225189209,-3.7521655559539795,-2.4600672721862793,-1.9598420858383179,-1.434165358543396,2.0448145866394043,-19.46913719177246,-2.58644700050354,-2.2317683696746826,-2.028567314147949,-1.890734314918518,-22.340627670288086,-4.972875118255615,-2.3224501609802246,-16.731760025024414,-23.021392822265625,0.050693709403276443,-2.099935531616211,-2.4848527908325195,-2.1742775440216064,-3.4694607257843018,4.304295539855957,2.6615233421325684,-2.6560471057891846,0.7121753096580505,-2.5119080543518066,-1.8409361839294434,3.8059921264648438,-1.5273185968399048,-2.511833906173706,-8.692038536071777,-3.3565850257873535,2.011399745941162,-4.152741432189941,-0.13809455931186676,-2.3808488845825195,-2.9377493858337402,-12.976393699645996,3.500608444213867,-6.669516563415527,-2.4479596614837646,-6.913546562194824,-3.773068904876709,1.0701212882995605,0.09540121257305145,-5.245492935180664,-3.3089544773101807,-14.511151313781738,-0.32956746220588684,-0.051780086010694504,-0.2717631161212921,-0.01469451654702425,-0.5227258205413818,-0.8165751099586487,-0.22000256180763245,-0.18566881120204926,-0.03256558999419212,-0.0157390795648098,-0.14410504698753357,-0.14024873077869415,-0.11434005945920944,0.0236042607575655,0.1385280042886734,-0.2820791006088257,0.09800760447978973,0.1951492577791214,0.006691901944577694,0.1561555415391922,-0.25864824652671814,-0.23851683735847473,0.06290542334318161,-0.4470866918563843,-0.37187209725379944,-0.19067128002643585,0.07609383761882782,-0.5284003019332886,0.05014992132782936,-0.11283649504184723,0.00964744295924902,-0.04869004711508751,-0.2792075276374817,-0.7700273394584656,-0.2589417099952698,-0.009160671383142471,-0.25772133469581604,-0.4006686508655548,-0.29119282960891724,-0.2403492033481598,-0.30976438522338867,-0.26841625571250916,-0.42592939734458923,-0.09041598439216614,-0.04116324707865715,-0.10184118896722794,-0.34339454770088196,-0.3414738178253174,-0.03542376309633255,-0.3868894577026367,-0.4657072424888611,-0.2246686816215515,-0.060597315430641174,-0.35011282563209534,-0.0932503417134285,0.16057398915290833,-0.4905303716659546,-0.14333893358707428,-0.20594532787799835,0.03656552731990814,0.06236282363533974,0.05350407585501671,0.19019757211208344,0.1700660139322281,-0.13782964646816254,-0.43871840834617615,-0.346484512090683,-0.44438689947128296,-0.5093334317207336,-0.5951685309410095,-0.3019438087940216,-0.36035043001174927,-0.6540945172309875,-0.5461355447769165,-0.7363581657409668,-0.11506009846925735,-0.3534500002861023,-0.48094722628593445,-0.48885390162467957,0.13710632920265198,-0.35133612155914307,-0.3908637464046478,-0.12800651788711548,-0.18944288790225983,-0.41096094250679016,-0.40847769379615784,-0.2138683795928955,-0.15419957041740417,-0.4207640290260315,-0.37060678005218506,-0.5062553286552429,0.5269239544868469,-0.277312308549881,-0.30738115310668945,0.696772038936615,0.4551348090171814,-0.06665099412202835,-0.47136732935905457,-0.39299696683883667,-0.357477068901062,-0.5114977359771729,-0.2755863070487976,-0.49420812726020813,-0.3022693693637848,-0.4533386826515198,-0.5342046618461609,-0.3912815451622009,-0.4990226626396179,-0.37699437141418457,-0.10696922987699509,-0.5951486825942993,-0.3704940378665924,-0.4000215530395508,-0.048504095524549484,-0.3133406341075897,-0.16873037815093994,-0.5002550482749939,0.05592940375208855,-0.5179243683815002,-0.04558863118290901,0.002958551049232483,-0.20737427473068237,-0.6177962422370911,-0.31335702538490295,-0.2714637219905853,0.05432760342955589,-0.15999527275562286,-0.2533853054046631,-0.1858658492565155,-0.2593807280063629,-0.2710445523262024,-0.3270024359226227,-0.25977781414985657,-0.26678064465522766,-0.2639232575893402,-0.37782639265060425,-0.25746044516563416,-0.1699388325214386,-0.37788087129592896,-0.1952059119939804,-0.18016450107097626,-0.12646865844726562,-0.265786349773407,-0.2621830701828003,-0.3880612254142761,-0.38781577348709106,-0.3940733075141907,-0.4320954978466034,-0.3288092613220215,-0.2793121337890625,-0.38247543573379517,-0.316781610250473,-0.4509711265563965,-0.40405842661857605,-0.3431861698627472,-0.3387952744960785,-0.3428812325000763,-0.3047686219215393,-0.37923622131347656,-0.35744720697402954,-0.05212743952870369,-0.2217065542936325,-0.14587725698947906,-0.20188012719154358,-0.2861436903476715,-0.2640098035335541,-0.24781577289104462,-0.18022505939006805,-0.3496968746185303,-0.35729682445526123,-0.3425876498222351,-0.28149500489234924,-0.2898634672164917,-0.34460893273353577,-0.3937535881996155,-0.28905561566352844,-0.2433677315711975,-0.3622542917728424,-0.3605474531650543,-0.3098030388355255,-0.28674158453941345,-0.16966797411441803,-0.3451935946941376,-0.2980719208717346,-0.4206486940383911,-0.33858975768089294,-0.33843448758125305,-0.31020060181617737,-0.2672972083091736,-0.37144604325294495,-0.33126452565193176,-0.24085749685764313,-0.07479801028966904,-0.11956514418125153,-0.21637731790542603,-0.1901671141386032,-0.21421487629413605,-0.18775103986263275,-0.2299531102180481,-0.2174476534128189,-0.22827807068824768,-0.15320241451263428,-0.21685472130775452,-0.3561380207538605,-0.1998426467180252,-0.20540258288383484,-0.18261033296585083,-0.22736553847789764,-0.26717060804367065,-0.18491101264953613,-0.18970122933387756,-0.1945047229528427,-0.17827028036117554,-0.26883000135421753,-0.2884123921394348,-0.23168879747390747,-0.23261700570583344,-0.18656115233898163,-0.21145761013031006,-0.26635226607322693,-0.2552541196346283,-0.28534626960754395,-0.4645821452140808,-0.3481203615665436,-0.21805396676063538,-0.19644489884376526,-0.2703412175178528,-0.13662277162075043,-0.25747793912887573,-0.24792475998401642,-0.29271793365478516,-0.28445252776145935,-0.1725182831287384,-0.2776467204093933,-0.39287078380584717,-0.3770686686038971,-0.41446250677108765,-0.45740145444869995,-0.4637432396411896,-0.2548925578594208,-0.3513169288635254,-0.30471792817115784,-0.41821539402008057,-0.3201860189437866,-0.3220256567001343,-0.5131404399871826,-0.38675737380981445,-0.33850520849227905,-0.618918240070343,-0.48803332448005676,-0.28849098086357117,-0.3947298526763916,-0.2890075743198395,-0.30062514543533325,-0.2999763786792755,-0.40036487579345703,-0.27703696489334106,-0.4400607943534851,-0.4652984142303467,-0.5198541879653931,-0.36058181524276733,-0.3708024024963379,-0.4909522235393524,-0.4103822410106659,-0.5641459822654724,-0.45762547850608826,-0.3996756076812744,-0.5197769403457642,-0.482056200504303,-0.4301691949367523,-0.4023898243904114,-0.5258761048316956,-0.5884888768196106,-0.4604661464691162,-0.5489933490753174,-0.545315146446228,-0.486108660697937,-0.43970465660095215,-0.5818749666213989,-0.6071706414222717,-0.5172826051712036,-0.5047831535339355,-0.4078483581542969,-0.4942270517349243,-0.529568076133728,-0.5052717328071594,-0.4304734766483307,-0.35956108570098877,-0.05239679664373398,-0.37874096632003784,-0.3729593753814697,-0.3927871584892273,-0.3001399040222168,-0.4062528610229492,-0.36188989877700806,-0.37310582399368286,-0.496594101190567,-0.449604332447052,-0.43960511684417725,-0.33156949281692505,-0.3748096227645874,-0.44032424688339233,-0.4861571490764618,-0.5043171644210815,-0.40326499938964844,-0.610619843006134,-0.4338812530040741,-0.37308210134506226,-0.4404907822608948,-0.44643041491508484,-0.35061389207839966,-0.43260905146598816,-0.4632255733013153,-0.44382187724113464,-0.47233954071998596,-0.4127945899963379,-0.5068423748016357,-0.4831276834011078,-0.4180377721786499,-0.41420501470565796,-0.05078798159956932,-0.32746803760528564,-0.3490651249885559,-0.3056281805038452,-0.33260592818260193,-0.34638458490371704,-0.4855538308620453,-0.22747552394866943,-0.38692644238471985,-0.36570027470588684,-0.2988315522670746,-0.5268545150756836,-0.4080890715122223,-0.43114855885505676,-0.42569538950920105,-0.5238189101219177,-0.5743278861045837,-0.5435846447944641,-0.5960182547569275,-0.5776770114898682,-0.6107471585273743,-0.6061745882034302,-0.5128923058509827,-0.5398200750350952,-0.5673646926879883,-0.5397743582725525,-0.4918789863586426,-0.400979608297348,-0.38599708676338196,-0.5042904615402222,-0.57692950963974,-0.5215221643447876,-0.05473773181438446,-0.3147815763950348,-0.25122231245040894,-0.2559169828891754,-0.27062007784843445,-0.43786486983299255,-0.4199134111404419,-0.38758695125579834,-0.2776239216327667,-0.25326603651046753,-0.22222088277339935,-0.286960244178772,-0.5072977542877197,-0.37785035371780396,-0.427247554063797,-0.4949873387813568,-0.7116370797157288,-0.6670812964439392,-0.6625351905822754,-0.6625862121582031,-0.5690256953239441,-0.5868725776672363,-0.6396034359931946,-0.5902637839317322,-0.453107625246048,-0.4986172318458557,-0.27870720624923706,-0.4006388187408447,-0.5162544846534729,-0.642802357673645,-0.4972538352012634,-0.5650003552436829,-0.2698025107383728,-0.331483393907547,-0.39247581362724304,-0.3073605000972748,-0.3961622416973114,-0.4007762372493744,-0.49196887016296387,-0.32753312587738037,-0.4919034242630005,-0.6227081418037415,-0.5311575531959534,-0.4309641420841217,-0.38410744071006775,-0.48771172761917114,-0.5611278414726257,-0.5513818264007568,-0.5942911505699158,-0.5875330567359924,-0.5751438140869141,-0.49041569232940674,-0.5676601529121399,-0.51881343126297,-0.48204731941223145,-0.5178030133247375,-0.46152231097221375,-0.4649416506290436,-0.5167916417121887,-0.5145414471626282,-0.4870569109916687,-0.490762859582901,-0.4500042498111725,-0.475370854139328,-0.046935588121414185,-0.2695183753967285,-0.18791905045509338,-0.23656800389289856,-0.3309943675994873,-0.30110642313957214,-0.2544836699962616,-0.252138614654541,-0.2919459640979767,-0.2882148027420044,-0.31099486351013184,-0.255318820476532,-0.20717082917690277,-0.23935085535049438,-0.2774170935153961,-0.2660045921802521,-0.315500944852829,-0.34886789321899414,-0.35717666149139404,-0.30609723925590515,-0.22012320160865784,-0.3744022250175476,-0.39765676856040955,-0.34183982014656067,-0.4545375108718872,-0.5229003429412842,-0.4612952470779419,-0.33979079127311707,-0.35223039984703064,-0.24636226892471313,-0.3038497567176819,-0.3835131824016571,-0.03624545782804489,-0.14049410820007324,-0.26937365531921387,-0.34505563974380493,-0.37946170568466187,-0.36816492676734924,-0.4543951451778412,-0.550632119178772,-0.5563218593597412,-0.49284011125564575,-0.43454256653785706,-0.39034101366996765,-0.48641324043273926,-0.45039406418800354,-0.3500351905822754,-0.5073989629745483,-0.37320661544799805,-0.3724445402622223,-0.2218484878540039,-0.16476590931415558,-0.23035968840122223,-0.28447917103767395,-0.37133416533470154,-0.34193646907806396,-0.35033729672431946,-0.4078494906425476,-0.23202146589756012,-0.3836780786514282,-0.49287959933280945,-0.2739655673503876,-0.47583621740341187,-0.31005680561065674,-0.021351436153054237,-0.1753469705581665,-0.38849538564682007,-0.4203854203224182,-0.4545573890209198,-0.319254994392395,-0.36490270495414734,-0.4074924886226654,-0.4980774223804474,-0.39048880338668823,-0.37766653299331665,-0.36815086007118225,-0.3975544273853302,-0.3623199760913849,-0.4210885465145111,-0.3788815438747406,-0.3900042176246643,-0.3862779438495636,-0.3289546072483063,-0.2832276523113251,-0.25809311866760254,-0.326434850692749,-0.46684855222702026,-0.499398797750473,-0.2168295979499817,-0.28015509247779846,-0.23823939263820648,-0.2734854817390442,-0.2514176070690155,-0.32439255714416504,-0.3324449360370636,-0.34291940927505493,-0.012198379263281822,-0.1436678022146225,-0.34404000639915466,-0.4527629017829895,-0.504510760307312,-0.44519543647766113,-0.26053014397621155,-0.266964852809906,-0.5928588509559631,-0.5776646137237549,-0.38462725281715393,-0.5853661298751831,-0.5264196395874023,-0.4244984984397888,-0.5051888823509216,-0.5101023316383362,-0.6791456937789917,-0.4610198140144348,-0.5971479415893555,-0.5871339440345764,-0.5740036368370056,-0.504228949546814,-0.5444907546043396,-0.4400026202201843,-0.3611122667789459,-0.5830551981925964,-0.5023893713951111,-0.3898564875125885,-0.47023671865463257,-0.5160281658172607,-0.48827430605888367,-0.5397205948829651,0.022192101925611496,-0.19718120992183685,-0.27182549238204956,-0.2294868528842926,-0.2507328391075134,-0.3583652079105377,-0.3048643469810486,-0.22799000144004822,-0.3795178234577179,-0.38749971985816956,-0.3390692174434662,-0.34539151191711426,-0.3530685603618622,-0.32519468665122986,-0.26938825845718384,-0.4011824131011963,-0.5576887130737305,-0.5042999386787415,-0.47468510270118713,-0.5698425769805908,-0.5842590928077698,-0.5501654148101807,-0.4419451951980591,-0.43984541296958923,-0.4784403145313263,-0.39248180389404297,-0.37146809697151184,-0.3942619264125824,-0.35708293318748474,-0.4210604727268219,-0.43422409892082214,-0.4405127465724945,-0.02222752571105957,-0.29991376399993896,-0.3169543743133545,-0.34760111570358276,-0.31733304262161255,-0.41211357712745667,-0.3582794964313507,-0.301971971988678,-0.39580661058425903,-0.4223651587963104,-0.514585554599762,-0.4710352122783661,-0.5017454028129578,-0.5018210411071777,-0.430276095867157,-0.398268461227417,-0.5038659572601318,-0.5066207647323608,-0.4875558316707611,-0.5197544097900391,-0.4957338869571686,-0.44171062111854553,-0.48215430974960327,-0.4670407474040985,-0.5382111668586731,-0.5037927627563477,-0.40446937084198,-0.4697701930999756,-0.530069887638092,-0.36381110548973083,-0.3898923993110657,-0.4417273700237274,0.02431396022439003,-0.3394257426261902,-0.2569183111190796,-0.3752368986606598,-0.284219890832901,-0.33264732360839844,-0.22103771567344666,-0.27631816267967224,-0.4074157774448395,-0.41093766689300537,-0.45433226227760315,-0.3717513084411621,-0.3643752336502075,-0.4175190031528473,-0.32485100626945496,-0.4428999423980713,-0.4105989933013916,-0.3743078410625458,-0.45803317427635193,-0.4639938473701477,-0.36690065264701843,-0.38222938776016235,-0.5705105662345886,-0.598353922367096,-0.4242743253707886,-0.38357439637184143,-0.38516053557395935,-0.34766873717308044,-0.37789592146873474,-0.498097687959671,-0.36763763427734375,-0.48997747898101807]}